542 128
62 -0.029450178 -0.3121665 -0.5350216 -0.20290184 -0.02505332 -0.084313065 0.14362493 0.15802906 0.10865993 0.35533482 -0.543327 0.15811318 -0.008757546 0.13241005 0.20058279 -0.23524599 -0.30244035 -0.15993811 -0.21033937 -0.084605865 -0.18339095 -0.0023205595 -0.18409984 0.031580016 -0.1504437 0.27301705 0.009512109 0.19383292 -0.21102546 0.33556426 -0.25561887 0.095064975 -0.5217818 0.0033934768 -0.0130985975 0.35653922 0.01783604 -0.05702563 0.0032350302 0.12197803 0.09195923 -0.4382515 -0.18737465 0.15978172 -0.12248106 0.30896786 0.052660044 -0.20985188 -0.24447398 -0.26066104 -0.06828014 0.088992 -0.028248439 -0.12116006 -0.3171957 -0.004829445 0.0012704977 0.34409896 -0.123684205 -0.026226258 0.22515649 0.19838917 -0.20373511 0.017138902 0.35285142 0.066813275 -0.06469927 0.095513664 0.013269292 -0.2592589 -0.20348693 -0.0622471 -0.08992083 0.16103503 0.033434916 -0.06536797 -0.15590882 0.05696718 -0.10632723 -0.124327764 -0.026865607 0.1522253 -0.23262133 0.377032 -0.297907 0.2191583 0.18768716 -0.085412934 -0.14124574 0.14353368 -0.37809026 0.21447712 -0.30539215 -0.17324567 -0.06113469 -0.034266267 -0.101097524 0.039344233 -0.0077956696 0.28229815 -0.15278614 -0.13968395 -0.1170958 0.20503345 0.42718637 -0.022105819 0.18197536 0.32060724 -0.20485733 0.009385752 0.28536242 0.003639388 0.2487679 0.14027289 -0.13813365 -0.28992334 0.31924862 0.40006626 0.37231022 -0.21081457 0.11045076 0.4050155 -0.6598051 -0.37747347 -0.23515266 0.20521946 0.23948278 0.33111662 
63 -0.043910354 0.08394127 -0.32879525 -0.23028174 0.20454884 0.50122845 -0.089207955 -0.04503729 0.2718628 -0.094180726 -0.3017613 -0.121151894 0.15903226 -0.076368086 0.147271 0.06324343 0.28563648 0.08446575 -0.087652735 0.07618434 0.31113267 0.092309065 -0.3002616 -0.14746171 -0.24370389 0.05100634 0.075007245 -0.21402009 -0.27120802 -0.12475936 -0.03134106 0.062817425 -0.11344279 -0.036244903 -0.04024147 -0.03871092 0.07202594 0.14812236 0.11296311 0.090760045 -0.26533952 0.13613129 -0.025295552 0.28529716 0.07754016 -0.048277564 0.027667403 -0.2104719 -0.2100637 0.08226289 0.30726916 -0.06919885 -0.013690697 0.104604304 -0.022576518 0.21392184 -0.18445925 0.2061426 0.100002386 -0.41946656 0.120004736 0.0038669626 0.11994491 -0.20847848 0.07419033 0.12526755 0.14527272 -0.0526691 -0.13126098 0.0055726394 -0.22669587 0.120382026 -0.066317 -0.10370094 -0.08401098 -0.18480739 0.44462773 0.12962155 0.003054527 -0.09545839 0.0089548 0.2141035 -0.33373633 -0.13507344 0.048189793 -0.09128403 -0.10597817 0.05391468 0.13885704 -0.038863715 0.073667124 0.1528718 -0.19350068 -0.09679883 0.1767841 -0.18828678 -0.17854786 0.21271043 0.14544651 0.030394962 -0.2101933 0.03157509 -0.012217919 -0.24769714 0.07218805 -0.14346357 -0.13950512 -0.028085925 -0.2616224 -0.09427076 0.12046733 0.061288636 0.11615769 0.47644264 -0.18346943 -0.103337936 0.21201323 0.015879406 0.47260728 -0.11358908 -0.33175704 0.14924577 -0.15927248 -0.033356298 -0.11881384 0.34713316 0.040765297 0.09708764 
21 -0.0584003 0.17557329 -0.25383598 -0.004661678 0.3998027 0.33481416 0.055976912 0.11065744 0.4239569 0.02674787 0.20428029 0.07166537 -0.07543844 -0.20942228 0.35686848 0.1288392 -0.1606087 -0.011580853 0.21836558 -0.11903658 0.2342438 0.326501 0.046452206 -0.12565368 -0.04790071 0.051200613 -0.10231426 0.29458117 -0.34229165 -0.10885391 -0.013027417 0.16816643 -0.26294357 -0.2579481 0.2945339 -0.22585875 0.05631075 -0.09460874 0.13205332 0.33790785 -0.19778438 -0.6393405 -0.07995644 0.32740206 0.19729999 -0.12056536 -0.11737474 -0.16568641 -0.8386619 0.105200514 0.08453297 -0.0005367035 0.14249593 -0.28215423 0.23032871 -0.1543856 -0.6284361 0.22308485 -0.31713578 -0.09521043 0.57272047 0.12696283 0.013911812 0.134313 -0.32241508 -0.32088378 -0.050896302 -0.23298378 -0.3844779 0.23059739 -0.24176483 0.067733675 0.1840531 -0.15687984 -0.130696 -0.1564376 0.044742037 -0.35692468 -0.1482359 0.09643525 0.0846145 0.37689263 0.10419405 0.062253837 -0.021962993 -0.12901402 0.33798495 -0.15531187 0.3129112 -0.3108032 -0.36186513 -0.075262174 0.0050711934 0.108639814 -0.12287085 -0.59930134 -0.068869576 0.006409628 0.4164706 0.03354939 0.3240154 0.3441738 0.072582856 -0.057243768 -0.009119464 0.15473677 -0.1392845 -0.2535154 -0.271177 -0.18529323 0.24659015 0.13778985 0.2912127 0.31456098 0.1830104 0.29332393 0.37938258 0.15821949 0.68895555 -0.35020706 0.07356326 0.37246695 -0.2804656 0.123256095 -0.19643916 0.555134 0.014639517 0.13105378 
115 -0.22162427 -0.108166896 -0.33982274 -0.30309895 0.2905195 0.012282815 0.039751712 0.00016999511 -0.17259395 0.033641037 -0.18955843 0.07720545 0.13172136 -0.3112905 0.0010423209 -0.08120584 0.21193917 -0.0085295625 0.05002541 -0.18623556 -0.04449729 0.016239064 -0.002929167 -0.3620289 4.497137e-05 0.10544234 0.51237875 0.12954724 -0.23713419 0.15158583 0.029715588 -0.029521402 -0.24111123 0.01687088 0.31124684 0.3727183 -0.3340508 0.06984887 -0.09482606 0.08978109 0.119827606 0.09191266 0.15293823 0.24515569 0.0062555918 -0.2589724 -0.06695738 -0.22862 -0.07372403 -0.09155442 0.012513247 -0.145515 0.097466834 -0.080712296 0.07429218 -0.004287896 0.023302106 0.14380461 -0.3296773 -0.47771317 0.20411658 -0.279368 -0.23858927 -0.03219127 0.1341531 0.1611815 0.0946272 -0.06308247 -0.14677739 0.030963479 -0.53052294 0.04636991 -0.079051554 0.03566995 -0.12723136 -0.73135674 0.2517309 0.2773479 0.18074876 0.08310442 -0.06614342 -0.0360135 -0.11479005 0.4177826 -0.2789193 -0.07254692 -0.22143377 0.3039393 0.14396942 0.20388827 0.41593593 0.05550109 0.043585308 -0.42450988 -0.045596782 -0.12753405 -0.16768342 0.11533827 0.09663234 0.16756317 0.069619425 0.36165783 -0.46607968 -0.09905497 0.074863926 -0.2494162 0.007990641 0.2011607 -0.36142808 -0.16793913 -0.0031386313 0.18312915 0.2447977 0.31351003 -0.26815668 -0.2051349 0.44425395 0.18933819 0.35951632 0.14113006 -0.16795619 0.213566 -0.3966077 -0.027384905 -0.17307656 0.33753243 -0.021536691 -0.039264165 
2 -0.12633853 -0.42000824 -0.3253558 -0.39574733 -0.09153943 0.52841127 -0.10209522 0.013766585 0.0106737465 0.53282803 -0.22566006 0.3852 0.07867985 0.14393555 0.1655617 0.12393135 0.22469644 -0.26936206 -0.25275818 0.23992833 0.18683575 0.17317963 -0.34877786 0.18542165 -0.3164977 0.011083845 0.101296276 0.5393736 -0.10614964 0.155452 -0.051927865 0.26783735 -0.41336107 -0.37050113 0.083097436 -0.02078884 0.34012306 0.23662221 0.31570017 -0.01179185 -0.40946126 -0.34413823 -0.14047551 0.009508174 0.13200541 0.046324477 -0.053686004 -0.31640175 -0.2112228 -0.3069035 0.16143045 -0.17409328 -0.48127767 -0.19705671 -0.08362686 0.3490723 0.033512928 0.32701108 -0.12148242 -0.14379416 0.33853915 0.29024285 -0.32097912 0.20659173 -0.084228486 0.12153451 0.026795328 0.08622615 -0.16928904 0.10772954 -0.15840265 -0.0462663 0.09891197 -0.35876963 -0.18604465 -0.121264614 -0.04113686 -0.012628331 0.034564663 -0.0035906865 0.08310556 0.0128069455 -0.03759137 0.13116527 -0.11151239 -0.0797362 0.17729858 -0.1897102 -0.2830188 -0.58142954 -0.3660061 -0.16720185 -0.474951 0.20195027 0.024031 -0.1544625 -0.0955665 0.0138583835 0.24894872 -0.0039937333 0.018572552 0.11148584 0.07643265 -0.22997208 0.09594871 -0.10322076 -0.024366558 -0.110442095 -0.25356242 -0.05295598 0.049338255 -0.018446714 0.16068627 0.42701855 -0.22793216 0.15831742 0.09436643 0.35994208 0.324155 -0.35891104 -0.021162417 0.083092086 -0.22599514 -0.103378505 -0.13322873 0.42889 0.07454071 0.08693544 
4 -0.33382025 0.43359017 -0.38964456 -0.14994447 -0.09145826 0.55919105 3.5635123e-05 -0.028660093 0.41039842 0.035551302 -0.1430444 -0.2784837 0.04026882 -0.40190816 0.36775386 -0.15833949 -0.15416089 -0.21261024 -0.17061993 0.0475477 0.10486582 -0.009656019 0.15654832 -0.35723442 -0.16501257 0.4424108 -0.043352444 -0.09643308 -0.53023976 -0.08665798 -0.13740583 -0.0662234 -0.37321153 -0.25716257 0.110256806 0.28095064 -0.43635562 0.22703324 0.10977181 0.045941625 -0.26652262 -0.034231253 0.25965938 0.30965137 0.11726861 -0.0030899355 0.020998623 -0.3571249 -0.06113451 0.25880137 0.22291982 0.03492571 -0.013308357 -0.047777753 -0.38373876 0.14509223 -0.44716337 -0.051457632 -0.22401074 -0.15162033 0.28098762 0.34676307 0.53492624 -0.054625325 0.06979658 0.33927438 0.21822324 -0.3269415 -0.33508727 0.013206766 -0.4191274 0.5437929 0.059058294 -0.1795271 -0.13295797 -0.27522513 0.1587009 0.22385316 0.205391 0.04714533 0.20746559 0.2684184 0.0032652318 0.11635016 -0.067566134 0.27829868 -0.26075238 0.37436175 -0.06310552 0.21413323 -0.19598658 0.26368526 -0.21318693 -0.0919818 -0.03201373 -0.26175958 -0.030169526 0.05990153 0.09296622 0.1530639 0.36805654 0.15287271 -0.1943906 -0.33600837 0.078569606 0.21916315 0.045026023 -0.023078246 -0.43048885 0.32095864 0.28708404 -0.20945303 0.30321133 0.42679712 -0.25727317 0.2515154 0.30613568 -0.4400622 0.3273076 -0.12606029 -0.14744574 0.14763948 -0.37288675 0.427263 -0.23942932 0.26388282 0.18408483 0.45126823 
13 -0.07728419 0.22127159 -0.23778367 0.23711962 0.02820164 0.04317795 0.55348045 0.11289256 0.04122585 -0.19127765 0.3495544 -0.16638009 0.2135479 -0.03424255 0.5286097 0.1046036 0.1829931 -0.22990492 0.2779545 0.050362524 0.09297649 0.14766146 0.07798185 -0.120628975 -0.35318205 0.14622407 0.12550299 0.34937435 -0.09605996 -0.13969806 0.26768228 0.14947762 -0.32091838 0.00437216 -0.090177834 0.4481348 -0.3665888 0.114603974 0.26166436 0.611388 -0.061076492 -0.10438413 0.053489324 -0.010890411 -0.009966266 -0.08655823 0.10880019 0.09454112 -0.5771883 -0.095377326 0.33842298 0.04574087 -0.25082386 -0.1288872 0.26314542 0.5624687 -0.20178406 0.38955665 -0.06392526 -0.055993058 0.25598118 0.053306237 -0.28099295 -0.13612272 -0.07404048 0.20939954 -0.05123069 -0.020407785 0.018203015 0.15163131 -0.39740825 0.079106174 0.0614443 0.075568676 -0.033498585 -0.1784695 -0.13713408 0.0011787747 0.37945434 -0.010992982 -0.15101819 -0.17293073 0.31073153 -0.062505655 0.15460065 0.15835753 -0.3132341 0.031186828 0.23590958 0.2855551 0.123495944 -0.40711495 -0.20591415 -0.091450475 0.012438047 -0.1312334 -0.35586601 0.47645622 0.33290204 -0.07120988 -0.20809597 0.100594 -0.11688163 -0.23352697 -0.57356346 -0.53930426 0.253889 -0.19769683 0.26301154 -0.06110768 0.34687704 -0.18970071 -0.082343124 0.123352274 0.12046663 -0.18333189 0.29130602 0.18271992 0.114610404 -0.27759084 -0.39171195 -0.24965738 0.00022575732 -0.26060396 -0.02080171 0.11625939 -0.06780186 0.102788225 
170 -0.4015348 -0.4624527 -0.48355144 -0.38816816 0.21245587 -0.0057339994 -0.028986733 0.06900748 -0.11606867 0.14676644 -0.03205042 0.04283664 0.009055476 -0.16638872 0.066964544 -0.13676067 0.319642 -0.13514233 0.14410983 -0.13323323 -0.06995552 -0.37260133 -0.03224748 -0.45247328 -0.18190722 0.33625415 0.16071834 0.19436738 -0.2339494 0.20738502 -0.15889539 -0.19095016 -0.21491377 0.07683025 0.17338258 0.40804455 -0.08818836 -0.0004999171 -0.031256422 0.29710042 0.24594268 -0.1068251 0.118825294 0.19679366 0.038067218 -0.09799713 -0.19058642 -0.30670953 -0.10650656 -0.11432719 0.11334327 -0.26123667 -0.23422277 -0.06372481 0.10239087 -0.19649503 0.20243184 -0.01770484 -0.23770002 -0.34749764 0.11818204 -0.14972593 -0.1399965 0.2053208 -0.06820347 0.012627226 0.046458434 -0.03951716 -0.16656363 0.12544276 -0.51250243 -0.10240387 0.009509684 0.0033741877 0.012626694 -0.37465993 0.06149024 0.19696166 0.3574279 0.15526056 0.14553103 0.08235977 0.09514405 0.32449698 -0.20833704 0.040781934 -0.08720728 0.076137215 0.235415 0.32909685 0.21025528 -0.09515199 0.05468783 -0.47858462 -0.27230388 0.11250071 -0.22455893 0.034001395 0.2551859 0.31942242 0.14520179 0.18212864 -0.37186396 -0.08228742 0.054267652 -0.1985062 0.068585865 0.11332786 -0.17434055 -0.018569626 0.04488557 -0.045143817 0.06831794 0.12806192 -0.30753624 -0.06639073 0.3030167 0.1762237 0.27867445 -0.044034567 -0.039816428 0.02023129 -0.5075107 -0.17219503 -0.074903466 0.17101564 0.08247084 -0.050940573 
41 -0.46152142 -0.050876632 -0.5488451 -0.39000425 0.22692104 0.20642997 0.21341929 0.102648154 -0.11922488 0.3699554 0.37752122 0.14502503 -0.07051522 -0.38991454 0.15096793 -0.101392895 0.26343107 -0.05656428 0.1352019 -0.3167677 0.10942212 -0.34007186 0.21644083 -0.6654901 -0.10356928 0.28617784 0.18469723 0.3301956 -0.4329868 0.016386868 -0.05151986 -0.12780538 -0.440009 -0.042689096 0.1963534 0.42176095 -0.14623128 -0.04845367 0.11554763 0.35652205 -0.17843005 0.0013619652 0.17451009 -0.002991461 -0.06445551 -0.06829406 -0.07876285 -0.25449377 0.14335325 -0.151987 0.063148275 -0.09544308 0.045409657 -0.06151761 -0.03947887 0.15598494 0.11621259 0.20067741 -0.28405994 -0.15719014 0.2530728 0.076041915 -0.0236665 0.34847918 0.031752314 0.23847178 0.4717602 0.06455011 -0.0885259 0.3406692 -0.3539367 0.0049662464 -0.11481412 -0.29884732 -0.102193594 -0.2849245 0.16268723 0.33892873 0.34034678 0.014610538 0.29704309 -0.14460252 0.11705642 0.27300665 0.027700478 -0.07265434 -0.13498917 0.41369277 -0.025684366 0.37575367 0.17334676 -0.22261378 -0.14708693 -0.14176609 -0.24139857 0.2503946 -0.30496317 0.017695427 0.26102954 0.1969801 -0.026116133 0.37531248 -0.272613 -0.3638148 -0.3054662 -0.28338274 0.3335057 0.19434614 -0.19748269 -0.41497046 0.20516555 -0.08159469 0.07062352 0.36429667 -0.5930792 -0.08989914 0.43724704 0.020751463 0.17510274 0.06665586 0.099008344 -0.015531915 -0.03423133 -0.08351647 0.018972691 0.007484961 -0.31305623 0.04611533 
114 -0.19766752 0.013335262 -0.40343413 -0.32408395 0.3188081 0.16129984 0.18710588 -0.09840958 -0.2251246 0.14416277 -0.29514357 0.036220968 0.037602965 -0.39680052 -0.009667523 -0.13863355 0.13771845 -0.13598925 -0.1636626 -0.40833858 0.23298863 -0.027201938 -0.16072601 -0.1095767 0.033980276 0.13397028 0.41693643 -0.022560395 -0.22642042 0.119158186 -0.018427435 -0.010952192 -0.27105665 -0.20685765 0.33036113 0.4268964 -0.38001904 0.17703933 -0.06697278 0.100148596 -0.050761223 0.115779966 0.105478294 0.21700253 0.103176296 -0.14441063 -0.27077544 -0.27958208 -0.08138198 0.0021591121 0.08898964 -0.120762095 0.15696916 0.03192851 0.17293853 -0.010174586 0.041906517 0.23207587 -0.23784944 -0.1629307 0.1053531 -0.19240515 -0.13762936 -0.29799145 0.2244535 0.46625826 0.34965423 0.09749974 -0.307442 0.052648973 -0.5145711 0.10468524 -0.1872463 -0.1679826 -0.019265803 -0.688481 0.34513232 0.39588082 0.36885542 0.03481425 -0.041465215 -0.037335735 -0.26000488 0.38718677 -0.050937448 0.07539787 -0.36024997 0.1826487 -0.0374631 -0.004863323 0.22995535 -0.045734856 -0.013069528 -0.4216302 0.21209584 -0.056684494 -0.20233537 0.08566964 0.040604036 -0.00021656818 -0.19122373 0.16158567 -0.5231309 -0.15368035 -0.047439437 -0.10908066 0.036322426 0.09234966 -0.3859832 -0.12792078 -0.01966423 -0.05671037 0.1674266 0.36829183 -0.43102643 -0.14460403 0.4230043 0.054753795 0.4812333 0.33377466 0.031079574 0.26858512 -0.15260482 0.044777077 -0.13531263 0.41626024 0.03282678 -0.033457264 
22 -0.2126847 0.11271002 -0.35398805 -0.22855824 0.44518003 0.39228994 -0.07490923 0.0064395512 0.3145096 0.16536452 0.20524794 0.09306969 -0.031945527 -0.02373504 0.34800577 0.18706052 0.16376401 -0.11304177 0.15315999 -0.039021213 0.2267695 0.29121462 -0.014563833 -0.27306736 -0.028188655 0.06980696 0.10897757 0.2335208 -0.21874602 -0.12805241 -0.046927344 0.2978531 -0.25152326 -0.13497208 0.20982176 -0.22084375 0.11361842 -0.00174956 0.13913058 0.19417763 -0.060634598 -0.43625072 -0.008252172 0.35933262 0.18656476 -0.19327435 -0.009711131 -0.2586572 -0.54258364 0.022423448 0.06091124 -0.01070745 -0.05188768 -0.22445635 0.16014864 -0.15211631 -0.43166313 0.076909795 -0.44697315 -0.2560682 0.39643002 0.004075954 0.11091869 0.020832729 -0.3224995 -0.3100106 -0.080029264 -0.29460904 -0.4076407 0.287404 -0.22598906 0.04191398 0.21822444 -0.18217097 -0.23612288 -0.22402523 0.12241037 -0.23761593 -0.14747608 0.13115916 0.3205369 0.48331803 0.24763402 0.063792236 0.0052313083 -0.15793331 0.16990572 -0.03229096 0.19146307 -0.34369656 -0.3500924 -0.020901212 0.05684078 0.015863866 -0.2709691 -0.57161117 -0.057500064 -0.05120137 0.31531972 0.22276685 0.35187006 0.26432022 0.14794293 -0.16625553 0.012823955 0.21669371 -0.16544725 -0.07361734 -0.30884838 -0.21190348 0.12469282 0.24622293 0.172733 0.37906545 -0.04903701 0.40639567 0.35859045 0.14816746 0.47393647 -0.20230477 0.16046566 0.35092896 -0.3786542 0.193437 -0.13913788 0.5447602 0.08723941 0.14118457 
107 -0.2382869 -0.17853405 -0.120099515 -0.27920303 0.118949935 0.13513274 0.22648421 -0.3810654 0.19643392 -0.054689772 -0.29852712 -0.10431761 0.286911 -0.03955211 0.024118802 -0.14646883 -0.057392556 -0.21408731 -0.32383054 -0.17146958 0.00467827 -0.002608149 -0.25644192 -0.036265396 -0.0043162555 -0.05160568 0.27118397 0.12250833 -0.2712264 -0.11349812 -0.04159586 0.08914282 -0.22096118 -0.11806937 0.27468473 -0.12669986 0.1434778 0.03977829 0.055048116 0.055133566 -0.040804636 -0.3403948 0.19107011 0.25885144 0.233283 0.121663645 -0.19900149 -0.08073637 -0.41668224 0.25228298 0.038229533 -0.008094201 -0.27505982 0.0708285 -0.033709873 0.2037465 -0.30599517 -0.311362 -0.107023746 0.1827879 0.20982452 0.18756522 -0.030440545 0.09632078 0.32982758 0.053072933 0.22348215 -0.21521936 -0.27150893 0.01563391 -0.5461492 0.0691233 -0.039127793 0.09624849 -0.098927625 -0.13197954 -0.18165776 0.18365256 0.25074512 0.025998088 -0.15427287 -0.10319361 -0.10097593 0.019032232 0.054580867 0.29597077 -0.06973182 -0.14386162 0.07219072 -0.0063582123 0.21418452 -0.20644982 -0.13172472 -0.29872292 0.10165341 -0.19269766 0.09455906 0.23711422 -0.07851817 -0.055787373 0.12852998 -0.06042973 -0.345962 0.032339007 0.08697225 -0.13624783 0.034531455 -0.21641146 0.08088848 0.12837264 0.1744686 -0.25630137 -0.054623645 -0.1035844 0.12569523 0.090257555 0.25262693 -0.021688877 0.52850586 -0.21616824 -0.257681 0.2915606 -0.21779367 0.03757501 -0.30505586 0.1405609 0.10639994 0.011202194 
129 -0.13152799 -0.32885313 -0.06903855 -0.0019421475 -0.18806826 0.05402475 0.366883 -0.045632243 0.07810095 -0.26206648 -0.19868883 -0.095762454 0.16672578 -0.1528484 0.13275751 -0.12602346 -0.17599118 -0.07062513 0.15878294 0.085479945 -0.034752354 0.052508533 -0.03425319 -0.08153585 -0.28578806 -0.087824665 0.01745298 0.27231264 -0.492594 0.11407277 0.004100689 0.054778308 -0.20288199 -0.038085528 0.21792312 0.32378307 -0.22435094 0.17837149 0.06606207 0.30732283 -0.19416913 -0.24793144 -0.018253319 0.11020893 0.08914914 0.07842242 -0.17291538 -0.058155533 -0.53694534 -0.026357109 0.21056904 -0.0022849983 -0.37505737 -0.083006784 0.28362784 0.31289107 -0.37419322 0.07381965 -0.16835372 -0.32857123 0.3957643 0.15636176 -0.36909717 0.4246222 0.13158679 0.1330725 -0.0091827605 0.072520435 -0.06319914 -0.13519043 -0.33328664 0.037491083 0.20667878 0.13743347 -0.0058782017 -0.20670111 -0.067378655 0.06608364 0.19403726 0.03129804 -0.1677813 -0.31916627 -0.30020097 0.032360397 0.017790286 -0.022409268 0.065779604 0.04300662 0.10573262 0.13503559 0.039928406 -0.17719974 -0.120894976 0.040046886 -0.021228021 -0.29801962 -0.16319266 0.23966335 0.22340238 0.12874983 0.038411494 0.16409694 -0.1803699 -0.045061927 -0.07876267 -0.36188003 0.019818183 -0.21793196 -0.082998216 -0.10813902 0.23638757 -0.19609846 -0.059198923 -0.035152517 0.09950574 -0.17402108 0.06971971 0.040656187 0.27874836 -0.28961474 -0.37592864 -0.0010331029 -0.020904792 -0.12878321 -0.19161826 0.018582977 0.017278079 0.047606 
288 -0.24354953 0.119198866 -0.19522251 -0.61809653 0.48944914 0.17812064 -0.12802874 -0.16023506 0.34847608 -0.11126548 0.03215139 -0.26018912 -0.045062874 -0.08762213 0.44817206 0.1696593 0.55220807 -0.23164621 -0.02724677 -0.20201121 0.32548898 0.085919805 -0.24263895 -0.26856732 0.045341853 0.26601493 0.3596531 0.14691524 -0.22094643 -0.19905828 -0.11853764 0.3497202 -0.056888953 -0.29652727 0.16717526 -0.20997037 -0.0015110535 -0.02224171 0.043877475 -0.023500646 0.083577275 -0.37053636 0.07048243 0.6308074 0.41482222 -0.180271 -0.14102031 -0.25618833 -0.5554084 0.23700961 0.11327751 0.11798128 -0.30151007 0.092235275 0.23993585 -0.035731915 -0.53258574 -0.32115924 -0.25789154 -0.39800966 0.21581988 -0.044684142 0.33503702 -0.03905404 -0.073647365 -0.30556104 -0.029092727 -0.41474345 -0.32615754 0.24471323 -0.5554639 -0.12640178 0.11901974 -0.28369656 -0.15414898 -0.16969429 0.29858893 -0.045654118 -0.030307831 -0.18747562 0.39958042 0.66851205 0.03430486 0.14309077 0.05890608 -0.071742505 0.043632552 0.03601141 0.30259812 -0.34389514 -0.1792869 0.15850163 0.23818432 -0.29106414 -0.013977529 -0.41049096 0.04067176 -0.054877356 0.21549143 0.13229421 0.26931852 -0.09115885 0.049601205 -0.23607674 0.1250005 0.11842741 -0.20862257 0.067081094 -0.20480071 -0.105255134 -0.051597364 0.19038683 0.014515254 0.384104 -0.10593915 0.36955547 0.4789195 0.13319807 0.5358818 -0.1841102 -0.024112383 0.4215577 -0.44219604 0.13166775 -0.20225574 0.5840283 0.09596301 -0.09037519 
106 -0.12440922 -0.12564214 -0.4510958 -0.4014544 0.3042673 0.32715228 0.16491558 -0.17833199 -0.07007323 0.0022286498 -0.07376473 0.009858344 0.11444378 -0.17662504 0.14894256 0.018027836 -0.07300757 -0.032293778 0.073714554 -0.18369941 -0.11202264 0.027542364 -0.2546625 -0.4907809 -0.20469533 0.50543624 0.15392543 0.10570657 -0.58701235 -0.08038906 -0.05852724 -0.15336892 0.08345762 -0.048750106 0.0070282915 0.24983248 0.07821207 -0.02158393 0.2088333 0.22859962 -0.053134527 -0.43442392 0.08773627 0.12212432 -0.012145247 0.17441215 -0.071739554 -0.028572436 -0.22488014 0.020967603 0.23014718 -0.04922925 -0.21315005 0.007922563 -0.15974025 -0.043742616 -0.22677119 -0.33364537 -0.14908071 0.08500301 0.27391827 0.26291257 0.17563641 0.20291413 -0.03654068 0.023127105 0.06744176 -0.07592721 0.05113522 0.20938644 -0.14365663 0.011494068 0.0036342612 -0.04052875 0.12431495 0.056059904 -0.15965119 0.05480702 -0.12022354 0.1038815 -0.06335826 -0.025534952 -0.28920195 0.20093897 -0.013260962 0.2161872 0.0586518 -0.036042638 -0.02573926 0.12309349 -0.17719683 -0.13957024 -0.098019145 0.066787876 -0.22812949 -0.022534056 -0.19170327 0.2039202 0.11167983 0.14476708 0.16889006 -0.02371082 -0.3181421 -0.009396673 0.36871624 0.022010976 0.18254879 0.0043207495 -0.21444419 -0.11430557 0.38677266 -0.24090526 0.17550883 0.117002904 -0.20659985 0.1639122 0.27216613 0.080981515 0.25426558 -0.06278215 0.23966189 0.056752343 -0.23384947 -0.110005274 -0.027126111 0.19437237 -0.03653144 0.056450404 
132 -0.19282565 0.22000323 -0.36579993 -0.45824987 0.329918 0.38956913 0.07249548 -0.21027443 -0.095437765 0.36843836 -0.0059347274 -0.30095825 0.055011403 -0.15985297 0.5421446 0.08759676 0.35436 -0.45599046 -0.054309398 0.0029895164 -0.17753896 -0.23657306 -0.1875978 -0.51827645 -0.19025338 0.6026282 0.5763361 0.011838105 -0.49027154 -0.07454658 0.086256966 0.027728658 -0.1155372 -0.4303418 -0.0044780835 0.2739166 -0.24205633 0.09061631 0.34968638 0.044750474 -0.0491693 -0.30810583 0.20534047 0.21713787 -0.14153735 -0.18663757 0.058025308 -0.42019176 -0.10409977 -0.13345763 0.14893144 -0.09323832 -0.10248878 -0.16437939 -0.2382617 0.078888744 -0.13939704 -0.18154468 -0.19298016 0.284151 0.16268149 0.38498524 0.64123327 0.028550988 -0.031140016 0.15540947 0.049625542 -0.37279597 -0.2505843 0.39359608 -0.34470233 0.26021808 0.16560277 -0.28876624 -0.27651775 0.10403475 -0.14216122 0.08806026 0.21785256 0.15222768 -0.025652882 0.105526246 0.16647254 0.40707505 -0.32818192 0.17714919 -0.24974638 0.31682706 -0.132312 0.11828336 -0.06268037 0.06069633 -0.0684781 -0.085169055 -0.11135897 -0.08117586 0.08992618 0.05084365 0.077104144 -0.1940609 0.6264152 -0.0052037844 -0.44661874 -0.3608955 0.23771758 0.30035627 0.2813915 0.072050825 -0.3475331 0.35963395 0.3199879 -0.29215613 0.26471797 0.36625776 -0.32751587 0.3939225 0.49822998 -0.34151554 0.23678255 -0.18146382 0.27733672 -0.010981198 -0.2870693 0.33278844 -0.17257251 0.3580424 0.048739366 0.13658002 
160 0.25654766 0.09185827 -0.17035936 -0.2110537 0.671928 0.3848707 0.22912931 -0.07813531 0.015451565 0.48402524 -0.04208241 -0.34058806 0.19334604 0.014729064 0.2795031 0.18828765 0.336188 -0.542615 0.15124184 0.21630776 -0.076086566 -0.37536857 -0.27213973 -0.317479 -0.4431659 0.3232651 0.7699836 0.04543739 -0.1902036 0.086899005 0.40686876 -0.012638561 -0.51468843 -0.31506968 -0.03660814 0.41198212 0.13256992 0.023449708 0.38711178 0.23396704 0.026321836 -0.36208946 0.016485248 0.41290247 -0.36247483 -0.10392745 0.19315879 -0.28102523 -0.6957666 -0.32357144 0.28274864 -0.16783857 0.028965289 -0.17668772 -0.1433893 0.16813214 -0.15484801 0.09596461 -0.23865546 0.4667241 0.22872691 0.19108175 0.16353266 -0.07641562 0.1664632 0.00471279 0.2412309 -0.30964464 0.06754076 0.26829037 -0.46161985 0.08032943 0.17561653 -0.0897802 -0.3606854 0.07004022 -0.19882272 -0.08008462 0.061246675 -0.165512 -0.23848094 -0.06319779 0.130459 0.22354692 -0.18573862 -0.0059395377 -0.3191352 0.17185332 0.09888177 0.46301895 0.17413019 -0.09806452 -0.36159268 -0.5386601 -0.017442666 0.018811168 0.13177645 0.3173569 0.2989349 -0.3292188 0.24473576 -0.14444506 -0.44417754 0.052041188 0.061832912 -0.0843369 0.27839735 -0.20017228 -0.23091994 0.39561126 0.64044386 -0.42119312 0.318772 0.14905307 -0.02027862 -0.08256649 0.7494308 -0.08738864 0.43743178 -0.25904167 -0.2956727 0.16177453 -0.2571035 -0.035595935 -0.07108667 0.26962578 -0.09000969 0.29920167 
84 0.078755245 -0.055661052 -0.39000735 -0.381232 0.46413365 0.4560572 0.1327503 0.026750311 -0.029232286 -0.025334105 0.021624336 -0.23366496 0.124756604 -0.39508924 0.29391816 0.0031958774 -0.09210764 -0.2286841 0.0135612795 -0.41316998 0.16413985 -0.028251087 -0.29278314 -0.37259823 -0.16213274 0.6965704 -0.09093972 0.13690053 -0.58297247 -0.13521217 -0.1790391 -0.23468877 0.15901996 -0.39565897 -0.13958447 0.20714603 -0.20519646 0.028862426 0.29956466 0.28696704 -0.13313383 -0.5398821 0.0039004504 0.033281036 0.16872057 -0.0075631663 -0.12448618 -0.12619269 -0.43221575 -0.06319884 0.4665513 0.05949435 -0.25274393 0.041768108 -0.13956615 -0.0075214 -0.29947448 -0.1873305 0.09956286 0.32426137 0.33743542 0.3835445 0.16428569 0.16452274 -0.1822116 0.029669251 0.0051586763 -0.20160869 0.16227691 0.16055354 -0.3020587 0.026156494 0.016389664 -0.10952844 0.16310407 0.184559 -0.24796613 -0.015145451 0.06783317 -0.16647087 -0.34321028 0.09504865 -0.1315017 0.39767006 -0.12586159 0.1732678 0.13479622 -0.1706298 0.054331094 0.0044237757 -0.3620204 -0.28032634 0.011366147 0.14927764 0.18541917 0.12419545 -0.06882327 0.091978595 0.16362637 -0.24367401 0.23838253 0.03202006 -0.4296688 -0.091727175 0.14678103 -0.10763169 0.24071726 -0.11863576 0.0066934926 -0.16208902 0.34592977 -0.4631462 0.22203885 0.18243419 0.027446311 0.33302358 0.16434786 0.10678734 0.32407123 -0.14297014 0.23091151 0.12822264 -0.06021046 -0.1407606 -0.11192045 0.32015732 -0.12225821 -0.012209413 
169 -0.26468655 -0.41418502 -0.32205924 -0.07356636 -0.19613229 -0.10977722 0.3713027 0.08957675 -0.004413064 -0.2604801 -0.40657452 -0.045799255 0.11905594 -0.13797036 0.7353426 -0.10894052 0.38637042 -0.3323001 -0.1592202 0.106832534 -0.24794136 -0.11371314 -0.28843838 -0.101518944 -0.083609946 0.087710656 0.62262696 0.25791177 -0.28233635 -0.08901247 -0.050350167 0.117334165 -0.20014586 -0.098546475 -0.08418293 0.16845806 -0.2872612 0.059997626 0.101560675 0.26784015 0.076668024 -0.19222686 0.023696054 0.12131827 0.113833815 0.06764117 -0.032770548 -0.0050730295 -0.4411974 -0.17409481 0.036881946 0.094328925 -0.35762265 -0.18243685 0.26566726 0.5487939 -0.12459196 0.16580771 -0.01729436 -0.38626096 0.1827632 0.02970439 -0.06940986 0.32989305 0.026432665 0.020030305 -0.45286414 -0.06507278 -0.11542643 -0.18368283 -0.56099355 -0.043661077 0.14543232 0.046495825 -0.3295107 -0.079705544 -0.15457678 -0.036184046 0.3120919 -0.022959366 -0.15756004 -0.17186317 0.023852179 0.40639654 -0.4684208 0.024326593 0.06713592 -0.06826628 -0.018458465 0.12972051 0.26720965 -0.0032182299 -0.24229783 -0.10792789 0.18601528 -0.080265 -0.050880644 0.21395801 -0.12064165 -0.06385748 0.1719456 0.1548976 -0.19410075 -0.17795424 -0.058827925 -0.3346487 0.06392095 0.23348685 0.18267083 0.003945484 0.08022724 0.16913368 -0.19169284 0.17933796 0.20911126 -0.11295663 0.21161036 0.016638663 0.11158211 -0.27910513 -0.19143407 -0.036448423 -0.2217228 -0.012490852 -0.37427878 0.09963807 0.055334598 -0.0998387 
212 -0.23705363 0.12920392 -0.17096342 0.06939725 -0.07457518 0.02044586 0.22873653 -0.15761793 0.24197102 -0.17149848 -0.27343854 0.040634684 0.25312328 -0.11940927 0.34811354 -0.19220978 -0.07410622 -0.18145047 -0.22862987 0.16850471 -0.34066474 0.011459346 -0.00017142785 -0.30657282 -0.059181698 0.18236308 0.32787424 0.009641343 -0.32486436 -0.10115301 -0.014366314 -0.14799988 -0.17729731 0.010407672 0.122426026 0.15657334 -0.13803914 0.020160595 0.043259066 0.16581829 0.057396207 -0.10024522 0.3272414 0.37226883 0.113809176 0.09294639 0.10618677 0.00050037366 -0.22622499 0.16287333 -0.045465212 0.06426406 0.03290043 -0.09147152 -0.23141102 0.22290029 -0.20658608 -0.23981884 -0.19330429 0.114726424 0.19182913 0.22852662 0.24592961 -0.038208306 0.27706242 0.11237412 -0.053609762 -0.27027896 -0.17805561 0.013221786 -0.46623388 0.23951216 0.031107264 0.1272387 -0.026215916 -0.11058006 -0.22173244 0.1815238 0.12554248 0.12850104 -0.12287619 -0.025502335 0.094992444 0.19013506 -0.0981589 0.44515586 -0.19627735 0.042866513 -0.1903257 0.3212391 0.2424828 0.087496504 -0.13621874 -0.24593368 -0.06232546 -0.27464667 0.055864792 0.39540362 -0.06538352 -0.066602364 0.39948297 0.07612141 -0.30496812 -0.028143568 0.14851157 -0.07998428 0.20285974 -0.06914217 -0.1670019 0.47970906 0.4113547 -0.32755032 0.26529044 0.24569635 0.08175824 0.0015329625 0.49037254 -0.1907294 0.36385873 -0.21503595 -0.23996738 0.054971598 -0.55363506 0.30215344 -0.32159802 0.20543948 0.23048815 0.24886107 
377 -0.027052738 -0.25871834 -0.5319739 -0.098910555 -0.08794058 -0.019294545 0.2945282 0.1319069 0.16319618 0.3221657 -0.568821 0.06146348 0.0067093666 0.17584732 0.31906173 -0.27609742 -0.37449363 -0.28855306 -0.2358807 -0.13697734 -0.14141645 -0.042233717 -0.27405623 0.110644795 -0.15320787 0.24709633 -0.004773932 0.25472012 -0.2911501 0.31210244 -0.23329367 0.19710234 -0.6879967 -0.074603915 -0.032010254 0.391009 -0.116792694 0.005704695 0.052540455 0.14071485 0.017691819 -0.5307556 -0.19954531 0.08667615 -0.099146046 0.39924803 0.018914001 -0.17959183 -0.27319676 -0.24889068 -0.18783386 0.114102796 -0.041633677 -0.10058988 -0.27784392 0.11655263 -0.13721997 0.40392992 -0.1439157 0.11278808 0.25497803 0.2449022 -0.19685422 -0.016861754 0.3942679 0.17720763 -0.08175176 0.127185 0.018516755 -0.2867274 -0.17708963 -0.03276586 -0.09985698 0.166904 0.0066854185 0.052628145 -0.25570613 0.03678848 -0.06674588 -0.14708444 -0.08025852 0.10356949 -0.26329675 0.35141614 -0.19862935 0.251854 0.19378698 -0.14426705 -0.25679716 0.14326811 -0.50834143 0.14383364 -0.39777505 -0.12991604 -0.05531437 -0.111116245 -0.08711659 0.06906181 -0.050105806 0.26585788 -0.2101618 -0.18279007 -0.13654692 0.15467425 0.32288224 -0.0118571175 0.2565753 0.28554258 -0.16682976 0.05081598 0.29489475 -0.09608303 0.13218032 0.11957616 -0.089668304 -0.24948783 0.29252127 0.34085742 0.3110899 -0.23784386 0.11194849 0.41309044 -0.59488326 -0.40073064 -0.25592175 0.17135262 0.27488023 0.4590326 
139 -0.21968956 0.33641204 -0.32070872 -0.040454313 0.12662558 0.5093918 -0.0042009735 -0.07821852 0.26914853 -0.0058288765 -0.17733026 -0.052493285 0.07997556 -0.33040005 0.34070846 -0.089656934 -0.116164066 -0.18269221 -0.2018192 -0.06684197 0.07326749 0.16683026 -0.054507762 -0.31513005 -0.03884812 0.332514 0.08193852 -0.11321307 -0.4128884 -0.16879916 -0.12979935 -0.038266327 -0.20533282 -0.23377876 0.12423812 0.09688652 -0.27272993 0.15868792 0.12687142 0.07458898 -0.1794266 -0.11889004 0.21485204 0.35855812 0.21295427 0.009160061 0.046976868 -0.24531882 -0.112670146 0.12608026 0.11542729 -0.010985288 0.05126396 -0.07023154 -0.25190365 0.0053356015 -0.3487691 -0.083381 -0.3013182 -0.026809491 0.26417834 0.20573102 0.39968613 -0.17777498 -0.057945326 0.21517274 0.030028783 -0.2828307 -0.33313608 0.09185714 -0.3171148 0.3897898 0.06904148 -0.18682513 -0.097948074 -0.27030945 0.09187407 0.11389474 0.061025556 0.13047221 0.088514194 0.32971746 0.022147099 0.22655419 -0.040380392 0.26006088 -0.15535024 0.09997772 -0.18808709 -0.07340838 -0.26010683 0.15380187 -0.1074391 -0.028916178 -0.067899145 -0.34984922 0.005443266 0.1105275 0.07627642 0.091915175 0.4048121 0.18516073 -0.20920418 -0.23527873 0.17357767 0.23382731 0.032954924 -0.028012222 -0.4315662 0.19330542 0.28968114 -0.21285169 0.33935127 0.50493985 -0.1490741 0.3700612 0.32501704 -0.22384219 0.40229514 -0.04086259 0.116239496 0.24487919 -0.43134302 0.42618126 -0.21802092 0.42979267 0.19454543 0.328059 
49 -0.2072904 0.06398657 -0.46399558 -0.5022719 0.37860316 0.36872926 0.21050243 -0.058933184 -0.13348438 0.21079476 -0.006261195 -0.25236085 0.037019912 -0.3757277 0.1516305 -0.09404803 0.022179095 -0.22409604 0.029979756 -0.23772815 -0.050517485 -0.2954182 -0.082897104 -0.53576905 -0.07204439 0.5195834 0.38212395 0.032649137 -0.5792866 -0.010463736 0.0398613 -0.13787106 -0.12542892 -0.21689922 0.11808403 0.47587374 -0.3113111 0.032392904 0.124252245 0.105360985 -0.09750584 -0.16495001 0.12651023 0.124211006 -0.1660218 -0.05330874 -0.20553105 -0.27318102 -0.01150836 0.041507963 0.053310663 -0.106607415 0.084739625 0.028134208 -0.16493426 -0.04014144 -0.19080801 -0.14228198 -0.26149336 0.15252794 0.23320575 0.22403634 0.32285783 0.0841633 0.048734978 0.2793277 0.2832071 -0.124165416 -0.07796514 0.2760601 -0.1554796 0.23611847 -0.054963138 -0.20696759 -0.1227458 -0.09415247 -0.04429162 0.199755 0.15539426 0.09248452 -0.0036948994 -0.20807056 -0.19727862 0.26794776 -0.06533611 0.010950744 -0.15684533 0.31605998 -0.09066927 0.24586143 0.041061092 -0.05399409 0.031594273 -0.06917738 -0.121576406 -0.06534421 0.007629176 0.07839464 0.10430316 0.0265693 0.1715776 0.16105942 -0.5052202 -0.22781679 0.14580399 0.11329025 0.25256422 0.14985323 -0.4405004 -0.09045545 0.16470575 -0.22911322 0.23397405 0.22690079 -0.47110632 0.17793097 0.38358286 -0.26130748 0.18684995 0.08482852 0.22388713 0.034773577 -0.06397861 0.12068988 -0.028726477 0.21572372 -0.09979226 0.18148063 
137 -0.38548434 -0.42245978 -0.45325804 -0.4404687 0.15306273 -0.03125189 -0.023920115 0.097230725 -0.18917486 0.1915009 -0.034671493 0.05748859 -0.04420559 -0.18914153 0.06570342 -0.14603814 0.36738816 -0.10034898 0.14176211 -0.08022255 -0.10239661 -0.42455634 0.061116777 -0.42850438 -0.21100736 0.32777673 0.21066226 0.2314925 -0.27816674 0.34671742 -0.10809279 -0.18746378 -0.28134233 -0.015361803 0.21865284 0.57931954 -0.21109122 0.055871233 -0.052111655 0.2435198 0.1844838 -0.031721693 0.09100641 0.22906281 -0.07373916 -0.15604077 -0.2010994 -0.3865845 -0.05299234 -0.18573865 0.10282024 -0.23843177 -0.23892473 -0.06373713 0.15663779 -0.152594 0.22803825 0.0722364 -0.27573335 -0.4534681 0.09349111 -0.15775813 -0.15684065 0.19767638 0.0062968163 0.09853392 0.10119926 -0.0057848687 -0.20425558 0.10452587 -0.5079399 -0.10538532 0.051756233 -0.10341131 -0.0034268883 -0.4836029 0.19192396 0.28632972 0.38798556 0.09241703 0.17233482 0.05395787 0.026023468 0.3735509 -0.25023958 -0.03838913 -0.11078675 0.22392939 0.22075821 0.2973748 0.23964721 0.014790477 0.047431655 -0.46954268 -0.19756722 0.11819914 -0.23467003 0.0009542193 0.30270165 0.27567762 0.14429608 0.18353327 -0.31846592 -0.1678514 0.047987033 -0.16290335 0.05415552 0.11334373 -0.30419815 0.014374973 -0.041177858 -0.0693336 0.115297504 0.15780047 -0.40938127 -0.15616028 0.37375852 0.15718998 0.3241436 -0.02561877 -0.090857245 -0.049511794 -0.47885606 -0.12643336 -0.040262982 0.19452634 0.123810284 -0.102737464 
40 -0.4817119 -0.22382464 -0.6053772 -0.35698542 0.25017697 0.2699531 0.23448631 0.25278723 0.01862645 0.3023535 0.28441018 0.25539726 -0.048185278 -0.36853737 0.27246273 -0.12124072 0.35849944 0.10430062 0.20742378 -0.096084155 0.09145358 -0.38313645 0.20238441 -0.6997714 -0.2882541 0.23697646 0.26580286 0.28647986 -0.4971668 0.01966238 -0.099271856 -0.1988084 -0.48382705 0.07533115 0.23465127 0.3785847 0.15933996 -0.12488931 -1.7056274e-05 0.43265766 -0.114855215 0.05061272 0.18447867 0.20696446 -0.1421293 -0.07878473 0.025597725 -0.21992268 -0.06506086 -0.13117582 0.11670799 -0.10706744 0.06188519 -0.124931544 -0.00649978 0.26958612 0.12269218 0.28288817 -0.15803361 -0.43001875 0.30918458 0.08410908 -0.08618622 0.48619917 0.07170084 0.094754204 0.33550373 0.09559585 -0.15414783 0.32512224 -0.40675536 -0.05176058 -0.115349956 -0.2713062 -0.10577478 -0.26168528 0.2685333 0.17148124 0.2696359 -0.06028326 0.37088406 -0.14165214 0.15318419 0.16726494 0.0043885796 -0.19827889 -0.12905626 0.3539934 0.12728027 0.46875697 0.39166757 -0.11169744 -0.2668445 -0.31525296 -0.20529182 0.2255783 -0.35478178 0.18447079 0.42523125 0.22772202 -0.1335143 0.44623244 -0.18882668 -0.30976495 -0.2859105 -0.35656255 0.31053686 0.2161703 -0.24674729 -0.43577945 0.3709616 0.066696264 0.21422686 0.39865324 -0.56627065 -0.32768804 0.5208938 0.16806768 0.28571352 -0.13630304 -0.16270491 0.03545568 -0.13872822 -0.0967472 -0.01552664 0.015519723 -0.30637735 -0.0028002595 
42 -0.12436683 -0.36802757 -0.23890062 -0.33634222 -0.09827815 0.22660892 0.21367054 0.14725792 -0.005369869 -0.059354804 -0.16879244 -0.11357888 0.065920606 -0.38835096 0.084014334 -0.05035984 -0.06495354 0.121479236 0.15154165 0.053789955 -0.1257001 -0.06252974 -0.056471094 -0.19361985 -0.23871626 0.08398795 0.0780426 0.27611133 -0.5340197 0.14513205 0.015558892 -0.07363069 -0.07749228 -0.14169739 0.18676083 0.22879677 -0.16110393 0.023966331 0.073034406 0.15248933 -0.31044745 -0.17385459 -0.119955234 0.09594165 -0.18384315 -0.028053168 -0.104614966 -0.14483611 -0.29380235 -0.07436087 0.18870614 -0.03885349 -0.13661623 -0.08761453 0.08480428 0.2808246 -0.37452975 0.054251697 -0.12249825 -0.35064155 0.49811548 0.2343554 -0.10377533 0.5095931 0.0044016214 0.05104732 0.12030257 0.023401158 -0.028269326 -0.01529709 -0.20337613 0.169823 0.13288704 -0.1274468 -0.2001837 -0.07897379 0.021333355 -0.003643122 0.03972755 -0.008123151 -0.19382532 -0.27480626 -0.4314752 0.14287448 -0.24268116 -0.20356992 0.21337253 0.2509354 0.113423996 0.07895191 0.1309002 0.0103499945 -0.07892861 0.32237235 0.011823063 -0.15217791 -0.07269569 0.12264364 0.2759183 -0.034512483 0.19234604 0.32073304 -0.1501424 -0.19189775 0.035419352 -0.24399753 0.042766996 -0.06931741 -0.2719002 -0.24150857 0.17595367 -0.05552245 0.21687333 0.11715157 -0.08494412 -0.116521485 0.06497272 -0.06739362 0.32056403 -0.2854403 -0.15619901 -0.08493061 0.06726761 -0.04457541 -0.05850174 0.029856712 -0.22218023 0.032651268 
50 0.07709855 -0.17782852 -0.3546598 -0.40385222 0.40873307 0.5944001 0.032510802 0.14510855 -0.076180995 0.08178295 -0.045169663 -0.29100525 0.03057978 -0.501967 0.21065119 0.011938037 -0.13518476 -0.15572594 0.098342605 -0.22487253 0.05258139 -0.29029638 -0.23540802 -0.36439905 -0.3155415 0.68613845 -0.04854181 0.1171036 -0.6489042 0.010559972 -0.15808599 -0.41092423 0.08266704 -0.4455681 -0.085011914 0.41609666 -0.14395496 0.011185111 0.3466711 0.27218115 -0.24294692 -0.52419835 -0.073305786 0.104481466 -0.10003115 0.043875217 -0.12720412 -0.29197612 -0.4522577 -0.18669017 0.44597962 -0.05885073 -0.21709724 0.018411878 -0.14204328 -0.0916491 -0.32183868 -0.078375354 0.048635427 0.25922105 0.42522064 0.48569754 0.1615502 0.33339614 -0.21703072 0.11592191 0.059700526 -0.15890384 0.04711595 0.12849738 -0.25251865 0.13506941 0.14460075 -0.2077363 0.07987196 0.14212812 -0.21816559 -0.01604238 0.101481006 -0.09237929 -0.3965589 -0.010392852 -0.24415712 0.46317545 -0.27735877 0.04954028 0.22451441 0.014012125 0.14921205 0.11828122 -0.24958828 -0.20709582 -0.1307156 0.104412794 0.14368975 0.16589174 -0.0059926207 0.042397723 0.3231883 -0.24577618 0.39233086 0.16114219 -0.47988045 -0.13834092 0.22861932 -0.037472103 0.21832138 -0.20540485 -0.22703922 -0.06381128 0.3500703 -0.5597246 0.3572955 0.18772504 -0.009788841 0.2235361 0.2289115 -0.026402203 0.41593894 -0.22617519 0.19725408 0.024525296 -0.051891882 -0.06153634 -0.050545868 0.26167008 -0.08290975 -0.027815757 
74 -0.06689695 -0.4179046 -0.29440555 -0.30389363 -0.08521234 0.49888524 -0.03799753 0.08016683 0.034778282 0.5287534 -0.16415648 0.37006903 0.12416744 0.21637863 0.23603658 0.13640709 0.3041452 -0.27456155 -0.15433723 0.30047974 0.19214575 0.1470915 -0.32244566 0.24947283 -0.38231602 -0.058935218 0.088171765 0.6028976 -0.12690164 0.18704486 -0.020746524 0.30126208 -0.4328501 -0.3623796 0.059834667 -0.04556259 0.3025253 0.2751459 0.2922186 0.062976725 -0.38616535 -0.32495907 -0.13254094 0.0042964756 0.11421334 -0.026671736 -0.03526636 -0.32798937 -0.33330476 -0.3356053 0.121032566 -0.19845344 -0.44956887 -0.28618366 0.011952137 0.38458404 0.032093845 0.45417467 -0.09602605 -0.14898491 0.38516614 0.2717691 -0.43341917 0.19775267 -0.13392393 0.07674938 -0.08951363 0.13779958 -0.18102923 0.124126665 -0.15282345 -0.071021184 0.13102573 -0.33723447 -0.23468667 -0.089900285 -0.0664419 -0.10368107 0.0543077 0.009027292 0.036014482 -0.060217988 0.065305 0.1266605 -0.14367856 -0.17245753 0.1479842 -0.25647843 -0.21752962 -0.55169636 -0.32239938 -0.23777403 -0.43616986 0.17521508 0.045734923 -0.23092665 -0.1059048 0.09345489 0.3604516 -0.05105077 -0.01697108 0.19197792 0.08885323 -0.2563334 -0.061501615 -0.116199516 0.0034498107 -0.14569199 -0.28902397 -0.016360683 0.05970008 -0.01640153 0.18335088 0.3915751 -0.17443353 0.1274859 0.06268566 0.4250366 0.32343453 -0.44206136 -0.08707012 0.043020435 -0.24659352 -0.1431888 -0.15196772 0.4911143 0.09625155 0.123511165 
87 -0.000111379704 -0.374894 -0.22953579 -0.25145617 0.21368927 0.23762585 -0.00634746 -0.027052008 0.2394501 -0.030894393 -0.11239464 0.002821035 0.07913418 -0.18937898 -0.100497775 -0.13623923 -0.24454123 -0.00028626632 -0.04434434 -0.21296862 0.02573282 0.027820138 0.009198821 -0.17956235 -0.05196455 0.115427375 -0.14126703 0.3207746 -0.58617795 -0.035041783 -0.11212006 0.0009119379 -0.041288715 -0.3182997 0.083035216 -0.21347135 0.11783257 -0.004288813 0.14961597 0.17639044 -0.3518099 -0.5273507 -0.0071120914 0.19789447 0.0805722 0.18209687 -0.2634855 -0.18092483 -0.486297 0.11839673 0.0056891902 -0.00084012904 -0.18354571 0.035643898 -0.07135715 -0.1260334 -0.5015205 -0.25862774 -0.16957445 0.12595502 0.5051849 0.34995604 -0.112677656 0.3729614 0.03468428 -0.12276966 0.16247606 -0.123981565 -0.015393063 0.026519028 -0.13164467 0.07840284 0.23803523 -0.060728427 -0.017017238 0.070699655 -0.12261345 -0.0037361218 -0.14318213 -0.09667209 -0.26918906 -0.10210418 -0.3724893 0.097606525 -0.04797187 -0.018728908 0.50446314 -0.09836857 0.18055978 -0.2326453 -0.20996338 -0.22067896 0.004136185 0.14304873 -0.059080195 -0.298888 0.0938199 0.13178623 0.31780756 0.008654268 0.26625702 0.25733948 -0.13746935 -0.039029337 0.2492378 -0.04962559 -0.017712193 -0.20416571 -0.17091843 -0.22570202 0.1353572 -0.35156983 0.12153745 -0.02472978 0.11595157 0.21776195 0.20981698 0.09892272 0.71336406 -0.32747236 0.0086030355 0.28879127 -0.13423386 -0.058916442 -0.18009324 0.17532605 -0.066304825 0.07007859 
175 -0.25867274 0.3915245 -0.36311758 -0.12042086 -0.08297876 0.30354843 0.09568412 -0.24774237 0.39561388 0.23917572 -0.25666973 -0.089313254 0.020417582 -0.30403042 0.34315407 -0.08220953 -0.0680327 -0.2909065 -0.32340154 -0.0026189238 0.10480127 -0.015900318 0.050621416 -0.27924073 -0.06858911 0.24087864 0.01589517 -0.116542414 -0.4824348 0.023072988 0.089995496 0.0354381 -0.42984402 -0.15522218 0.2636738 -0.14235823 -0.34875557 0.2437644 0.16409828 0.14172705 -0.20642158 -0.1100391 0.15185273 0.20913208 0.20917931 -0.008311865 -0.14854416 -0.34404865 -0.08239442 0.16223389 0.18697019 -0.14923283 0.0841385 -0.13221028 -0.16984014 0.028224947 -0.20821512 -0.027091086 -0.362131 0.162136 0.12627102 0.16357066 0.4575189 -0.07581031 0.05248676 0.18723397 0.3609984 -0.18361728 -0.35449114 0.030300504 -0.46742904 0.3310391 0.08294057 -0.18417318 -0.41245106 -0.16063827 0.17631797 0.20469849 0.3329414 0.22167836 0.23951864 0.12105632 -0.0164523 0.16290714 -0.19501968 0.1929881 -0.24468061 0.055498295 -0.31405556 0.15642574 -0.2433728 0.11398349 -0.28211275 -0.07791542 -0.0369536 -0.25323537 -0.14453393 0.09633385 -0.123663135 0.18105473 0.33352074 0.16316289 -0.23270297 -0.20885924 -0.064872816 0.20843688 0.019540554 0.014896978 -0.31433395 0.32951453 0.34785956 -0.025081705 0.08288153 0.3570866 -0.22921604 0.31905445 0.23662965 -0.48858526 0.40414804 -0.0082636075 0.07714807 0.31144926 -0.3116313 0.4611725 -0.35948727 0.2443518 0.0937118 0.5186613 
20 -0.16430071 0.16998582 -0.312325 0.13664936 0.037501328 0.21941067 0.47018623 -0.05718218 0.025750527 -0.23760633 0.0698722 -0.14312391 0.2838665 -0.07970786 0.425415 0.05658875 0.03499337 -0.21647386 0.15770316 -0.0016126882 0.15618232 0.35995623 -0.12780115 -0.16983752 -0.35960925 0.17225243 0.13571732 0.13495709 -0.15274858 -0.20581076 0.1322974 0.15294877 -0.16053277 0.05938018 -0.026494822 0.41638213 -0.27352434 0.20728974 0.19499739 0.44566324 -0.039130833 -0.088479415 0.10361248 0.0047693304 0.15881658 -0.018820465 0.09453521 0.08189745 -0.49041614 0.0255313 0.40760344 0.037072413 -0.34570965 -0.039192844 0.1428457 0.47874948 -0.24296236 0.16100551 -0.03405691 -0.147202 0.22693628 0.06779134 -0.20020248 -0.24825566 -0.059496045 0.29580218 -0.08421483 -0.053422406 -0.018312268 0.097415075 -0.40192512 0.15169056 -0.049145337 0.16339998 0.12143228 -0.2618437 -0.10193313 0.03916092 0.32118097 0.082109235 -0.13792476 -0.04290413 0.0875851 -0.09760145 0.2690308 0.34569123 -0.38627487 -0.04994748 0.107089594 0.1341335 -0.00832384 -0.31214488 -0.21137041 -0.07239157 -0.030819373 -0.23663302 -0.381795 0.44510192 0.18017082 0.044972308 -0.24347249 -0.01724437 -0.21730721 -0.14285068 -0.28145942 -0.3945661 0.16775545 -0.18399198 0.1596407 -0.039687876 0.43673533 -0.16770594 -0.020476121 0.20971535 0.048656248 -0.04900085 0.23340756 0.18359894 0.083858855 -0.18748637 -0.31406674 -0.118085384 -0.11423172 -0.18858534 -0.04793524 0.23801439 0.034294974 0.11251599 
121 -0.15201873 -0.4730013 -0.26676452 -0.32631058 -0.08680631 0.5892527 -0.06123467 0.042069457 -0.0028936234 0.54844654 -0.15938058 0.3940114 0.10356087 0.12962559 0.15896621 0.13527833 0.24269213 -0.26091284 -0.1717294 0.2775672 0.1800456 0.07588359 -0.36092636 0.19870487 -0.2911957 -0.0877538 0.09116298 0.57734185 -0.14589785 0.2058564 -0.037353728 0.24152434 -0.45420435 -0.3797156 0.1716226 -0.031138157 0.32691845 0.25338766 0.2888106 -0.038796633 -0.4329699 -0.30889952 -0.09814936 -0.043189276 0.13414161 -0.057119206 -0.017755568 -0.32792616 -0.21111953 -0.32271287 0.092948556 -0.24092537 -0.44252878 -0.27079326 -0.026668485 0.39524934 0.06749694 0.4105492 -0.088265225 -0.1440433 0.3848203 0.27457607 -0.36977044 0.3229188 -0.11724444 0.05092498 0.023635674 0.106004275 -0.18085174 0.1888924 -0.17842013 -0.095743924 0.08551269 -0.33170152 -0.1974397 -0.10074446 -0.04851341 -0.0858534 0.10065036 0.014748841 0.08659286 0.021537399 0.042294137 0.120208085 -0.094433606 -0.16383186 0.14780901 -0.1705073 -0.27019897 -0.5026446 -0.29230952 -0.20243256 -0.4515583 0.17343603 0.017892433 -0.20396002 -0.077029586 0.0038818945 0.29576355 -0.0842518 0.1003603 0.18974759 0.0011281283 -0.27368334 0.014162503 -0.15148772 -0.00574064 -0.1949575 -0.2373821 -0.015011911 0.051097583 -0.018482221 0.15721247 0.43461874 -0.1827747 0.13540395 0.054691713 0.35087627 0.2867481 -0.4228569 -0.08192522 0.024660008 -0.2010915 -0.105078645 -0.15123396 0.38867247 0.062461723 0.07349975 
48 -0.14451472 0.05901064 -0.48427582 -0.5964521 0.48358104 0.16715772 0.11025401 -0.033945788 -0.28433496 0.20343338 -0.18162258 -0.30971286 -0.07779432 -0.44793472 0.057642527 -0.10210006 0.19929872 -0.2547168 -0.0051099034 -0.46891347 0.14601707 -0.34671184 -0.22818778 -0.33211756 -0.06386128 0.6008393 0.34828863 -0.057889428 -0.38993198 0.16532126 -0.053522706 -0.15241276 -0.11856739 -0.30141133 0.14845628 0.65073556 -0.47029465 0.10476684 0.015829083 0.12918805 0.06780185 -0.05887312 0.0774715 0.18345404 -0.019606464 -0.11801526 -0.3975737 -0.3990845 -0.05432072 -0.008921723 0.16149096 -0.16753262 0.07700235 0.14140627 0.0485054 -0.2503301 0.031446777 0.020392857 -0.18131186 -0.00027018884 0.04474848 -0.05273256 0.16962408 -0.23783343 0.079646535 0.44438487 0.31743634 0.017614378 -0.1555486 0.1913145 -0.4520005 0.07700923 -0.15524144 -0.24767911 0.05512466 -0.42336574 0.22173902 0.36903515 0.42830136 -0.014444283 -0.01534878 0.017488357 -0.32821155 0.49370557 -0.13449334 0.10371471 -0.3410519 0.23761177 0.060748715 0.16120656 0.07208169 0.0045716106 0.15723243 -0.46110883 0.1106802 0.09829896 -0.14056548 -0.033002034 0.14866087 0.016010761 -0.0667069 0.005627338 -0.6797893 -0.16522992 0.10572588 0.04978403 0.1569488 0.2049146 -0.48376533 -0.027461525 0.0069159805 -0.216708 0.22592843 0.32588527 -0.5686444 0.056155056 0.46914274 -0.06992189 0.39685997 0.2731023 0.25072646 0.15673928 -0.22663756 -0.059156604 -0.030432696 0.4552835 0.021860348 0.026589153 
252 -0.43196553 -0.37966284 -0.5431608 -0.5306723 0.16699477 0.017697321 -0.05717282 0.038109615 -0.1646502 0.28891197 0.034714304 0.016058287 -0.08081724 -0.18725011 0.04943347 -0.1165534 0.28412685 -0.1398522 0.11784463 -0.24049164 -0.03135832 -0.42847267 0.015292489 -0.45223466 -0.14995266 0.46021757 0.05309131 0.21684189 -0.26627055 0.28380254 -0.20969975 -0.18653904 -0.20874582 -0.018110598 0.16665104 0.55398864 -0.22186431 0.03393849 -0.0040178727 0.19040827 0.18287587 -0.13476084 0.11111844 0.07776965 0.017244477 -0.09796606 -0.1693481 -0.41919735 0.065457046 -0.18232395 0.15404825 -0.17422935 -0.31545085 -0.0072014714 0.037121516 -0.1957489 0.23971823 -0.024366045 -0.19105488 -0.33007717 0.08099722 -0.045427684 -0.042404752 0.25173613 -0.024322828 0.083006375 0.17765643 -0.01754666 -0.14281133 0.09192374 -0.51213944 -0.17874189 -0.025892511 -0.07613542 0.1264861 -0.36167958 0.13030057 0.32212603 0.41738772 0.042506974 0.22664411 0.2499667 0.05896715 0.4493736 -0.23605312 0.114854984 -0.060706563 0.23172385 0.18640442 0.29631314 -0.0010364857 0.022358818 0.045401946 -0.39717722 -0.2345251 0.26237765 -0.26093304 -0.13051581 0.23667644 0.3375695 0.1477126 0.024202479 -0.33444202 -0.1962284 0.12259939 -0.13859084 0.11231132 0.15902632 -0.13544083 -0.04610976 -0.035075366 -0.10560431 0.042668033 0.1482971 -0.47460982 -0.10481655 0.2822697 0.17116617 0.25996935 -0.03512214 0.10879389 -0.022693163 -0.47233975 -0.23013972 -0.04823263 0.10640105 0.11997857 -0.119207025 
86 -0.13228862 -0.47450244 -0.17697155 -0.4425437 -0.15266839 0.48237088 -0.036738712 0.018624138 0.07361005 0.28601438 -0.14144656 0.23681077 0.02248987 -0.03155347 0.1206081 0.12397703 0.11423975 -0.10810941 -0.070733465 0.29814583 0.11543268 0.051598094 -0.24349673 0.0420617 -0.35086146 0.025094071 -0.049814932 0.47753686 -0.32055083 0.16500871 -0.052996185 0.101267256 -0.21483625 -0.39001045 0.19434515 -0.038112644 0.29407963 0.19343293 0.26940444 0.04330064 -0.47269017 -0.38151178 -0.19288787 0.01321658 0.08082944 0.03558236 -0.13641047 -0.26810968 -0.31053415 -0.17650662 0.24149942 -0.14786313 -0.4974507 -0.17900696 0.06619656 0.32840505 -0.13588966 0.15259735 -0.07226013 -0.22636905 0.41957614 0.3766116 -0.23146781 0.48140728 -0.07225634 0.031016435 0.043507118 0.07190865 -0.1962496 0.10276503 -0.13683808 -0.021444088 0.17049803 -0.32565793 -0.10435103 -0.024746424 -0.03596328 -0.05969656 0.085221596 0.01469565 0.056984223 -0.12605505 -0.21804948 0.027005076 -0.099452704 -0.13770536 0.27489468 -0.10307364 -0.10863933 -0.41777027 -0.21851231 -0.096290894 -0.3520532 0.3283233 0.025079466 -0.18736899 -0.09212692 0.054805916 0.3091713 -0.043527614 0.16625479 0.15319 0.036782864 -0.22548863 0.12320083 -0.13244061 -0.036978062 -0.22071937 -0.24260448 -0.081347056 0.108588755 -0.050300904 0.13929957 0.27723795 -0.15289392 0.111950345 0.050026886 0.15863362 0.38016742 -0.48780438 -0.094916254 -0.0647545 -0.06851336 -0.047891963 -0.11778872 0.29492846 0.022160534 -0.031241348 
23 -0.18451598 0.384633 -0.2734019 -0.05370408 0.2853536 0.40086165 0.01733203 0.084427334 0.48896915 0.134208 0.2600899 0.058481544 -0.13944863 -0.23188953 0.46696863 0.15951058 -0.080133475 -0.052223563 0.12971863 -0.06172555 0.29809222 0.259937 0.13302836 -0.14156592 -0.02928337 0.057594292 -0.11349653 0.23092856 -0.33008218 -0.117301784 -0.015560492 0.20366481 -0.38326237 -0.31705683 0.36100549 -0.22780757 -0.073664606 -0.024536204 0.13965887 0.25402868 -0.24452275 -0.50488025 -0.036846712 0.3526506 0.21605065 -0.1873167 -0.08468091 -0.2723682 -0.6414492 0.11399957 0.07959358 0.013213612 0.17857113 -0.31170824 0.2355609 -0.06613727 -0.5639878 0.2978913 -0.3702926 -0.1499037 0.4824394 0.12890227 0.20408574 0.061690263 -0.3317136 -0.23594525 0.047909632 -0.25653788 -0.52941114 0.28828707 -0.28030062 0.13557224 0.1784284 -0.29993513 -0.21502887 -0.24844429 0.19240123 -0.2676082 -0.016132435 0.124635495 0.30700585 0.5134971 0.2450478 0.066150956 -0.018146021 -0.11650956 0.18624228 -0.015106326 0.20817795 -0.3148703 -0.38168105 0.04391075 -0.04921562 0.09252886 -0.12736268 -0.60713536 -0.09851769 -0.0795679 0.37936008 0.067767575 0.3741886 0.36310536 0.13833736 -0.25463343 -0.12596446 0.25670016 -0.1239374 -0.21243992 -0.32642096 -0.10670777 0.19445828 0.21010123 0.2683455 0.46171942 0.027596071 0.3437269 0.403847 0.007799462 0.6445357 -0.33072793 0.11759824 0.3455558 -0.28437358 0.30771902 -0.2151758 0.56101984 0.06253181 0.15927202 
85 0.08832667 -0.1137116 -0.26515332 -0.38423848 0.40185893 0.4672989 0.04672101 0.022538397 -0.01810198 0.097971454 -0.031120345 -0.27097303 0.038119778 -0.3651034 0.12917319 -0.010882659 -0.16756122 -0.14819439 0.054476082 -0.1679877 -0.012027251 -0.23417994 -0.14682446 -0.321194 -0.27131554 0.57178724 -0.015566476 0.114142515 -0.6036784 0.038460888 -0.077615775 -0.31138745 0.03666197 -0.41747254 -0.0421445 0.33430955 -0.054948017 0.0063460404 0.29916576 0.20754154 -0.21822494 -0.5274184 -0.03413751 0.17766626 -0.12787697 0.07723031 -0.13054949 -0.27656376 -0.45916772 -0.10775083 0.3463293 -0.02618887 -0.16475748 0.030089106 -0.18547235 -0.12381952 -0.3466513 -0.17131943 -0.0030534696 0.34557763 0.3844226 0.48935875 0.17382686 0.2984036 -0.037661653 0.07553994 0.1478583 -0.18338032 0.0362126 0.11291716 -0.21886347 0.11481982 0.17265636 -0.18613327 0.09313066 0.16831687 -0.20463732 0.032781087 0.020631636 -0.11598195 -0.34971696 -0.040919356 -0.29448968 0.38512447 -0.21318933 0.06584963 0.22168393 0.038361415 0.1343175 0.10347739 -0.2305288 -0.15591972 -0.1285097 0.06599128 0.09715174 0.0802364 0.028798232 0.08231832 0.30696854 -0.22539018 0.3754252 0.06803864 -0.40399516 -0.07413857 0.2776045 0.0063418606 0.2218667 -0.23082371 -0.2640705 0.027489586 0.38103408 -0.59823245 0.332849 0.12159942 -0.021143513 0.1720481 0.3136976 -0.026407989 0.49610987 -0.2576133 0.14041296 0.081056416 -0.08975164 -0.065171205 -0.07156132 0.249639 -0.055516083 0.027903154 
211 0.2265632 0.029877588 -0.20016456 -0.23977144 0.7361918 0.3594857 0.23732814 -0.107591234 0.014056807 0.458266 -0.0640709 -0.2948958 0.19758007 0.039624006 0.25381678 0.19655149 0.30699658 -0.45127568 0.19811048 0.17440449 -0.10922108 -0.3443623 -0.2948183 -0.35874882 -0.39847738 0.26425764 0.755273 0.008546865 -0.19408873 0.07304476 0.35509828 -0.00052676373 -0.47485802 -0.23415083 0.011334777 0.3525531 0.21624674 -0.027926736 0.35225427 0.21289323 0.08745065 -0.39210886 0.013726933 0.42161506 -0.35460046 -0.10239765 0.26850858 -0.24197675 -0.7162833 -0.31241792 0.2618186 -0.13438942 0.053376336 -0.18070798 -0.104832366 0.15471111 -0.17021833 0.07746381 -0.19960289 0.4172094 0.23634237 0.16924955 0.18519707 -0.025216676 0.19766861 -0.12123728 0.22036147 -0.3106437 0.04640636 0.24369447 -0.44221586 0.0076791416 0.16007213 -0.025480501 -0.3137721 0.09167241 -0.1792246 -0.118174605 -0.0133098075 -0.154273 -0.21504635 0.027108306 0.13767017 0.20754807 -0.16771081 -0.002746608 -0.2610719 0.17815946 0.13995923 0.47711477 0.17891464 -0.062101495 -0.32236713 -0.52468157 -0.052428577 0.005571352 0.117784515 0.30663955 0.29267335 -0.30449373 0.2615478 -0.1779874 -0.38518173 0.07439981 0.112293735 -0.0993289 0.25817654 -0.21325114 -0.16154891 0.34573004 0.6682444 -0.35770538 0.28614798 0.1252566 -0.0019953083 -0.16217738 0.75415343 -0.011161186 0.4815185 -0.27745226 -0.2774163 0.20659636 -0.27574104 -0.060578015 -0.085556135 0.24176641 -0.07693056 0.22083032 
417 -0.13757607 0.16500041 -0.38610154 -0.26568457 0.5244121 0.46524706 -0.058474276 0.06719287 0.21499452 0.32818896 0.36343083 0.31959125 -0.002338321 -0.009237003 0.33220944 0.2408321 0.18882841 -0.100106664 0.19762018 -0.077028625 0.30324355 0.51781917 0.04913292 -0.21527657 0.014452696 0.067352295 0.1408053 0.63262546 -0.11354517 -0.042514723 0.04764158 0.40742078 -0.3802517 -0.36169112 0.28060982 -0.10835156 0.009966728 0.06013296 0.14682953 0.049448818 -0.11652506 -0.5730304 0.014173392 0.36790007 0.2758936 -0.3107936 0.12890741 -0.18882471 -0.58935374 -0.06553483 0.00504624 0.10667197 0.024463816 -0.32040933 0.039196752 0.050965358 -0.51636094 0.22664818 -0.485022 -0.222327 0.5890009 -0.0031320876 -0.16674203 -0.06877609 -0.20780632 -0.34555554 0.04057348 -0.33531064 -0.25471315 0.31409124 -0.24867913 -0.08848092 0.09312361 -0.30753928 -0.11103426 -0.3961315 0.110122174 -0.24446902 -0.46086058 -0.040044494 0.28084573 0.60119975 0.3170686 0.12639748 0.120709024 -0.17356946 0.22808206 0.014313103 0.110063404 -0.55138385 -0.46498695 -0.043172754 0.007665619 0.18260738 -0.17057206 -0.5751062 -0.07228042 -0.07765725 0.42898846 0.038939137 0.29681647 0.29421425 0.28986514 -0.13568477 -0.015601457 0.14372496 -0.12123738 -0.18067144 -0.31303632 -0.24479683 0.0912749 0.21536963 0.39267305 0.5003072 -0.07235957 0.29416147 0.48262587 0.5112817 0.5008838 -0.1804715 0.06905639 0.35629758 -0.40113607 0.061303873 -0.042027697 0.76477534 -0.00843041 0.05361097 
113 -0.19255048 0.05833404 0.025571961 -0.81291604 -0.06842821 -0.18812647 0.048532873 -0.060703788 0.49019665 0.011415581 0.080518745 -0.3364496 -0.006314735 0.12121861 0.33633935 0.0014885329 0.5534607 -0.3193275 -0.32068565 -0.041383512 0.23684025 -0.33281714 -0.01728076 0.069957726 -0.20542546 0.32186812 0.09588669 0.6590171 -0.23168163 0.1767878 -0.000156845 0.37333655 -0.72508854 -0.43827996 0.19931531 0.068703055 -0.12061594 0.048341017 0.08695651 0.042560667 -0.13058625 -0.39171913 0.034752835 0.6381387 0.19291398 0.0705593 -0.2966757 -0.25319475 -0.51235586 0.24881741 0.069264956 0.20869797 -0.5785582 0.2125257 0.07385879 0.50603664 -0.38294992 -0.05712856 -0.18784057 -0.2587273 0.149976 0.21822168 0.04902793 -0.0069805942 0.4480499 -0.0026472474 0.4588609 -0.1878786 -0.22445855 0.16505396 -0.70622134 -0.18398024 0.05274614 -0.4104562 -0.13216536 -0.09673185 0.28691584 0.38661948 0.31794304 -0.5603747 0.49941632 0.3414649 0.02204536 -0.07618838 0.240387 0.015485708 -0.14024892 0.1311171 0.3187975 -0.13336854 0.042621512 0.09220195 0.021354947 -0.45808348 0.17410016 -0.030922335 0.0055542337 0.15342356 0.32279313 0.09472488 -0.17553194 -0.27871984 0.17325202 -0.35507607 -0.21471177 -0.3246398 -0.0007645051 -0.07509668 0.0034380076 0.12274192 -0.21668427 -0.22682704 -0.1577684 0.08450323 -0.22572762 -0.02606095 0.4616196 0.21988952 0.63292515 -0.38128647 -0.5446414 0.24283092 -0.29531595 -0.19282539 -0.15923452 0.21312618 0.100732416 0.0037344976 
52 -0.112216085 -0.4228782 -0.02391218 -0.42235062 -0.30514005 -0.067859285 0.25052068 0.0073283324 0.0033877979 -0.09996501 -0.19630481 -0.23265588 0.046063755 -0.08203414 0.115761906 -0.0057815434 0.032601524 -0.12047393 0.041231263 0.22349142 -0.23751108 -0.17554253 -0.019729162 0.028568141 -0.2309405 0.07781175 0.08660882 0.45915282 -0.42723712 0.2968596 0.06807018 0.08535618 -0.20357671 -0.18072401 0.16227883 0.3004985 -0.24691045 0.12044252 0.18099989 0.15155561 -0.24044758 -0.32784238 -0.19399172 0.10471138 -0.10793445 0.09740775 -0.27785444 -0.1611586 -0.4080848 -0.06816503 0.13944376 -0.039305937 -0.50475883 -0.03721262 0.28801134 0.3437551 -0.3359679 -0.059923887 -0.2196939 -0.29003486 0.33156192 0.24761659 -0.19692369 0.4860847 0.15045477 0.058848754 0.07089435 0.047884602 -0.07442183 -0.13038471 -0.2851429 0.005362448 0.29682472 -0.09691171 -0.17973435 -0.03763883 -0.110377066 0.1610712 0.23598462 -0.03460513 -0.11289213 -0.32274747 -0.3954125 0.1489008 -0.22565252 -0.11985396 0.22488777 0.1509117 0.059740882 0.014804613 0.07020609 -0.08127956 -0.026719648 0.21581894 0.015778808 -0.220417 0.03645447 0.15829252 0.23652674 0.026714593 0.22910391 0.117111094 -0.07169959 -0.19891962 0.058808457 -0.3504943 -0.035851743 -0.15441597 -0.13388917 0.010850203 -0.046820987 -0.19139877 -0.086867936 -0.069761924 -0.056807484 -0.12148506 0.098658316 -0.014957969 0.39966863 -0.40294248 -0.23371263 -0.16918732 -0.01242214 -0.1340962 -0.1329875 0.047203705 0.06432082 -0.011856126 
162 -0.17547688 0.08755524 -0.19634613 0.09983973 0.06115964 0.12054393 0.39628607 -0.22823131 0.22614259 -0.1681714 -0.30540663 -0.0050794417 0.24071692 -0.055836283 0.29104403 -0.061009903 -0.1554604 -0.20483209 -0.120286405 0.05874771 0.015467523 0.04631254 -0.17951101 -0.12694724 -0.17996497 -0.031708732 0.28263888 -0.06708095 -0.27424258 -0.086162835 0.037753392 -0.026827645 -0.2856492 0.09068047 0.24251056 0.15065745 -0.0632886 0.11244254 0.051485516 0.3071294 0.04000318 -0.120725475 0.07417035 0.20855317 0.18384351 0.11194446 -0.17982186 0.03555231 -0.40771767 0.16862117 0.096739 -0.078212805 -0.060697198 -0.0026793876 0.21113037 0.20200537 -0.12278496 0.0038895302 -0.17582458 0.018262414 0.08691344 -0.007818081 -0.112709306 -0.101001605 0.14712577 0.18042557 0.06359012 -0.013212827 -0.19815695 0.013033989 -0.4172372 0.09004369 -0.08644288 0.1952518 0.018689027 -0.21560925 -0.10886638 0.12926039 0.32787505 0.15899849 -0.06954345 -0.20183358 -0.105133094 -0.028701434 0.15267251 0.26698998 -0.23415536 -0.24579394 -0.09579388 0.20834638 0.18370105 -0.19636384 -0.26858485 -0.34112442 -0.027498554 -0.34545085 -0.15897207 0.40462327 -0.06604331 0.091677085 -0.11964976 0.04379468 -0.36996192 0.027896332 -0.066870525 -0.2339958 0.12517506 -0.16417779 -0.045240596 0.12737077 0.3557853 -0.12380714 0.011447745 0.13720526 0.057822257 -0.062136628 0.37511337 -0.0045635304 0.36576146 -0.16698518 -0.26482606 0.13295536 -0.2421635 0.047460657 -0.25239956 0.24607997 0.21837944 0.13892564 
263 -0.070683226 -0.42416516 -0.26788726 -0.15964235 -0.33718303 -0.30844536 0.36039358 0.21436453 -0.039289273 0.048863735 -0.16078305 0.05959609 0.16291079 0.17857894 0.59542173 -0.3131823 0.015106512 -0.21099831 -0.22034916 -0.030541673 -0.18218282 -0.09693601 0.0988368 0.20921959 -0.24976252 0.17930993 -0.056970283 0.5583446 -0.56511116 0.3507944 -0.28111097 0.2691916 -0.50557125 -0.24834882 -0.05227552 0.27628177 -0.46390134 0.25727662 0.0705035 0.2815078 -0.03980971 -0.31651294 -0.00029744118 -0.17572933 -0.11375215 -0.08117159 0.012498202 -0.3213208 -0.29686671 -0.31083754 -0.049010657 0.20549151 -0.23488247 -0.40752003 0.045173388 0.44011098 0.07287398 0.6524494 0.1070237 -0.11952715 0.24945864 0.37287033 -0.32629928 0.26029468 0.35357252 0.18637948 -0.35567325 0.18576144 -0.23367326 -0.17930585 -0.22722946 -0.006586094 0.16812854 0.09787061 -0.09470295 0.03572179 -0.18235107 0.07188422 0.23902164 -0.15444848 -0.21290998 -0.2850875 0.12472048 0.43522716 -0.47390312 -0.039965376 0.05162067 -0.022228397 0.062337648 0.029906234 -0.015021512 -0.08281148 -0.10622537 0.048088163 0.28688452 -0.02311068 -0.1289313 0.18038276 0.13379164 -0.03329061 -0.0012911025 0.12661874 -0.023087513 -0.26215684 -0.22450519 -0.2727113 0.27677736 0.06437085 0.021224435 0.019590326 -0.012097068 -0.077879325 -0.039014094 -0.09059356 0.009348096 -0.33489892 0.019465731 0.37571743 0.23233518 -0.48150358 -0.0087821 0.08272689 -0.1112693 -0.26615506 -0.39974132 0.10004897 0.23479424 0.04293325 
58 -0.26199463 0.2084347 -0.3577184 0.07077923 0.17913604 0.55411136 0.022628086 0.043813944 0.1774941 -0.03638942 -0.081639625 -0.02768776 0.11468244 -0.44301063 0.37511867 -0.18017411 -0.21866181 -0.20185348 -0.12754475 -0.12818469 -0.16071017 -0.04668139 0.032711416 -0.51013434 -0.04649739 0.45727205 0.114797436 -0.122191064 -0.585201 -0.11705689 -0.25715178 -0.25242987 -0.2868774 -0.2655738 0.11301442 0.38230634 -0.4410313 0.106268026 0.19392805 0.20665522 -0.18930459 -0.118649594 0.23187365 0.43451902 0.0074419323 0.050977338 0.20882104 -0.3248735 -0.029737774 -0.1148166 0.09197816 1.5145051e-06 0.049327534 -0.1357911 -0.27241904 -0.02657827 -0.32288364 -0.045924302 -0.45575333 -0.000725948 0.34930772 0.2886166 0.44371676 0.0024498454 -0.09521554 0.2499369 -0.049660083 -0.35667753 -0.3491252 0.11896475 -0.3164256 0.48821813 0.25823802 -0.13482016 -0.11536333 -0.31190544 -0.03391341 0.17903283 0.10502331 0.15295419 -0.025503976 0.35353306 0.15731466 0.46279544 -0.2165075 0.3134597 -0.09375729 0.33098066 -0.20861652 0.13199499 -0.26233912 0.15758625 -0.051556963 -0.04526634 -0.23476188 -0.27005687 0.081692375 0.11303776 0.19919568 0.086119376 0.7322422 0.29392883 -0.34136373 -0.30920237 0.2616257 0.15584289 0.16945489 -0.051714353 -0.49216655 0.16816628 0.34730086 -0.5007872 0.39910364 0.5173652 -0.12319769 0.33311227 0.42003626 -0.28415978 0.46463653 -0.052091066 0.20244549 0.1761707 -0.5380032 0.46721193 -0.23338109 0.29868037 0.25522602 0.3268963 
71 0.19336912 -0.036495563 -0.23062333 -0.40630287 0.50968355 0.57156587 -0.008431774 0.18479382 -0.07358534 0.113154866 0.021740321 -0.30008146 0.05143104 -0.40990967 0.29408187 0.032551948 -0.031594224 -0.19267775 0.075326614 -0.10835055 0.0349357 -0.33082688 -0.22649619 -0.35412434 -0.3275163 0.73211503 0.07182313 0.13467412 -0.5812026 0.03448662 -0.13211411 -0.41179222 0.03172304 -0.46411717 -0.12579378 0.4646879 -0.10313331 0.01571568 0.31454787 0.1928706 -0.16517657 -0.4555358 -0.02219601 0.18693517 -0.17637685 -0.036586262 -0.04868864 -0.26754656 -0.4050356 -0.18291317 0.37689635 -0.0313745 -0.1289113 0.010852324 -0.20651402 -0.061720744 -0.23249565 -0.026918743 0.06413762 0.31268474 0.3501134 0.47885454 0.19684301 0.20832887 -0.1454207 0.11069095 0.016972456 -0.18555813 0.07209828 0.22387646 -0.20499326 0.11316187 0.099802576 -0.2642293 0.10212119 0.19825572 -0.2087809 -0.03835977 -0.0014645398 -0.18658125 -0.31941736 -0.012444528 -0.14248075 0.45700368 -0.21527621 -0.022052083 0.10562094 0.018276745 0.12787975 0.13238782 -0.14863467 -0.13465104 -0.11689609 -0.0004314985 0.2156307 0.18078558 0.0744544 0.09219523 0.32322723 -0.34064597 0.35025445 0.10838022 -0.449979 -0.12551992 0.21589786 0.00022481865 0.27084848 -0.18079717 -0.310981 0.02274217 0.35265225 -0.5553369 0.49765116 0.22743914 -0.062398653 0.2 0.3558634 0.041826613 0.34861025 -0.24459314 0.15372854 0.009745584 -0.09243079 -0.048009105 0.0076652393 0.35799065 -0.045093033 0.0009829537 
176 -0.20161553 0.19877316 -0.41659698 -0.40958375 0.19869806 0.34376866 0.0960465 -0.18139052 0.086856574 0.24626513 -0.07204635 -0.1799571 -0.03555415 -0.255453 0.34973818 0.0031061994 -0.017198263 -0.19959535 -0.05280205 -0.07236999 -0.073847756 -0.22464843 -0.050341647 -0.52775043 -0.20754442 0.6031203 0.12750822 -0.08621919 -0.6554885 0.02999393 0.02455153 -0.15802859 -0.14452454 -0.23107989 0.13001075 0.19016722 -0.22172083 0.08632955 0.26648045 0.22060384 -0.13267082 -0.31667092 0.07087663 0.1496044 -0.11889428 -0.01845954 -0.15612066 -0.33615103 -0.09298708 0.011939831 0.27811918 -0.16202605 -0.076047115 -0.11074184 -0.1399649 -0.100055896 -0.11437942 -0.17754441 -0.23124337 0.20022687 0.100126825 0.29573926 0.5923396 0.10530479 -0.13046926 0.06795488 0.23443586 -0.18087932 -0.23325934 0.30625442 -0.22239336 0.21624553 0.0984742 -0.23512523 -0.19505617 0.05715363 0.024506824 0.1324695 0.25342116 0.1851945 0.16071787 0.063930176 -0.044621177 0.21327974 -0.19759476 0.1465075 -0.15566923 0.11553864 -0.08829896 0.21621828 -0.20319445 0.04079806 -0.09980407 0.0025401 -0.1912615 -0.05650492 -0.16493787 0.047644727 0.050927095 0.12472385 0.36692974 0.075282484 -0.3387684 -0.26897642 0.15800245 0.2574785 0.17853671 0.06387832 -0.30411255 0.09291976 0.33308247 -0.13187282 0.15320209 0.23390827 -0.33760723 0.34357518 0.34729233 -0.34248653 0.3079793 -0.11368533 0.3458989 0.074840486 -0.22984241 0.22672988 -0.13941205 0.21622121 0.081031255 0.22761776 
249 -0.094761886 -0.27663004 -0.233387 -0.25288996 0.004190792 0.41322145 0.028903268 0.10402237 0.12350958 0.41700512 0.06401781 0.36522412 0.0930566 0.21096382 0.28738612 0.23445722 0.3284758 -0.2005129 0.0057095573 0.26428267 0.24101515 0.19879392 -0.28263333 0.17526847 -0.28885674 -0.09839131 0.0734999 0.6058011 -0.03336031 0.062432207 0.018165937 0.3104967 -0.35899895 -0.23706187 0.10025841 -0.115948595 0.33660114 0.14500003 0.25934032 0.1222646 -0.31172925 -0.35750863 -0.116665244 0.005023151 0.18855701 -0.08708816 0.014203931 -0.14309834 -0.4154285 -0.19043821 0.13148402 -0.16637345 -0.39884815 -0.26637486 0.1254315 0.4330224 -0.025198229 0.35583562 -0.04287271 -0.17744352 0.3679695 0.16171296 -0.36448395 0.2228215 -0.22512092 -0.07637644 -0.106460825 0.09417649 -0.12972333 0.24459174 -0.17531143 -0.16460007 0.025891 -0.2551219 -0.16997927 -0.019804217 -0.05687592 -0.21169977 0.07923634 0.0014901112 0.16200282 0.0802422 0.20537819 0.0014038319 0.015001078 -0.14119057 0.11002089 -0.2676003 -0.12046751 -0.44532034 -0.2512303 -0.2632755 -0.334569 0.1525818 -0.020212386 -0.2468536 -0.17281449 0.12449116 0.37056702 -0.054832306 -0.05173758 0.13697824 0.10475425 -0.24812828 -0.12549286 -0.21196556 -0.009593011 -0.15208168 -0.1137534 -0.09233699 0.111608036 0.11815916 0.12634851 0.42172608 -0.12876825 0.11632617 0.12916093 0.45236614 0.23726504 -0.49725705 -0.13936827 0.0076972307 -0.23823829 -0.19095977 -0.12559436 0.436689 0.0334695 0.046012 
438 -0.34615794 -0.28190342 -0.432425 -0.6248668 0.10805274 -0.12255298 -0.16972041 0.05583249 -0.075543664 0.27589172 0.038829908 0.008140438 -0.099972285 -0.17382684 0.05889931 -0.11964383 0.42701703 -0.11428372 0.013733869 -0.1754006 -0.06600513 -0.472205 0.0929079 -0.3762555 -0.12788218 0.6058003 0.033302125 0.3287937 -0.21026756 0.41091412 -0.17307061 -0.2157786 -0.28846836 -0.16210707 0.19974422 0.48529518 -0.276295 0.0282348 -0.076996736 0.10922629 0.15694848 -0.10573525 0.15929441 0.2716758 0.013247971 -0.16915527 -0.21062203 -0.4251015 0.10752917 -0.097095236 0.102440946 -0.17506605 -0.30027056 -0.008446389 -0.04332984 -0.19778895 0.28390676 -0.06646226 -0.20385468 -0.35546732 0.026474705 -0.076982796 -0.00067402545 0.0893702 0.01821952 0.003217906 0.2564706 -0.08287672 -0.14251268 0.17907229 -0.55834174 -0.15947688 -0.05262906 -0.23781458 0.08981401 -0.39585853 0.26232776 0.3862937 0.3598357 -0.08340545 0.32600635 0.358003 0.1289739 0.41168654 -0.23205912 0.07569011 -0.114148945 0.21909967 0.2742517 0.21777438 0.09759152 0.13685174 0.13067846 -0.5032379 -0.15081552 0.29235697 -0.22957534 -0.12117161 0.27393925 0.24591689 0.18926106 0.006622703 -0.23549546 -0.19958991 0.12433173 -0.06000655 0.06652377 0.15398957 -0.22079137 0.12698627 -0.1942492 -0.10097391 0.18947576 0.14024174 -0.48337376 -0.043837994 0.34689182 0.20748943 0.34819123 -0.045610823 -0.009351795 -0.04623426 -0.63306904 -0.1995804 0.017719414 0.21549822 0.14562532 -0.13585779 
194 -0.3520758 0.57605565 -0.4976648 -0.1054653 -0.035625078 0.6628567 0.05813098 0.12138351 0.3297325 0.011951798 -0.0056842314 -0.45654193 -0.0047187502 -0.5390665 0.47821862 -0.2400648 -0.33194712 -0.3087792 -0.09372479 -0.14292586 0.13406119 -0.16578841 0.19593884 -0.39913943 -0.24365108 0.7363262 -0.17322762 -0.101459615 -0.6020767 -0.11507324 -0.25810036 -0.2538573 -0.42414096 -0.42169818 0.032372322 0.7947363 -0.76074386 0.21306708 0.1639987 0.14833127 -0.26057696 -0.13759197 0.23358577 0.2223635 -0.024475494 0.0009779576 0.010092198 -0.42216504 -0.032547947 0.1744551 0.276119 0.110354625 0.011739772 -0.010739202 -0.41666934 0.11684293 -0.4304221 0.12967673 -0.16335891 -0.05764806 0.29273868 0.44401863 0.60917884 -0.14214532 0.0076170466 0.61183023 0.20474628 -0.3611331 -0.37597314 0.07290888 -0.41349742 0.6496973 -0.0075627184 -0.19673385 0.12935123 -0.3734769 0.049922276 0.32545677 0.3734369 -0.038300168 0.11259418 0.3471818 0.08007181 0.29449 -0.057187952 0.4484065 -0.33547214 0.5128209 0.048935313 0.36505875 -0.29913205 0.2480944 -0.22948381 -0.17261308 -0.0040774057 -0.10393998 -0.06476534 -0.02928748 0.1822736 0.11204817 0.336469 0.13977082 -0.39344344 -0.47580948 0.06835053 0.22955312 0.2485735 -0.052377053 -0.42606246 0.2991255 0.28384376 -0.48356107 0.3908876 0.45591578 -0.29964182 0.20619069 0.42818117 -0.44800174 0.31276456 -0.11769072 -0.030585814 0.02883306 -0.34167007 0.3285024 -0.17823449 0.2515589 0.2847651 0.37511057 
17 -0.19440271 -0.05933095 -0.35870957 -0.4275272 0.22522461 0.14961347 0.24890614 -0.4295391 0.20296766 0.18507396 -0.37085363 -0.1938178 0.10583519 -0.13195202 0.28853512 -0.026471945 -0.10554335 -0.31935945 -0.39232624 -0.54780316 0.23497339 -0.16257808 -0.4609366 -0.07936455 0.08451827 0.16157012 0.120257154 -0.077675276 -0.43968844 -0.17468521 -0.16571909 0.075808994 -0.20035772 -0.2167772 0.18615663 -0.2590664 0.018954292 -0.0026046608 0.22305663 0.06950281 -0.03770039 -0.6255736 0.006954129 -0.0077857496 0.294572 0.12200388 -0.1907892 -0.18040809 -0.37536556 0.09453757 0.19742247 0.07538554 -0.15259075 0.06705874 -0.0044240346 0.078152984 -0.21069391 -0.1311252 0.08905293 0.46885276 0.09262985 0.30355257 0.35717037 0.1421942 0.21474238 -0.06847007 0.41175324 -0.1449192 -0.23092301 0.011876312 -0.53530943 -0.15858316 -0.14530344 0.06631899 -0.0450486 0.2226282 -0.10950742 0.12893747 0.3462446 -0.06179624 -0.07466592 0.30486697 -0.15859376 0.2867833 -0.09705009 0.31866422 0.051364426 -0.2251864 -0.056101784 0.09570878 -0.300622 -0.1418973 -0.26846144 -0.17432442 0.18568572 0.12602617 -0.095459744 -0.078267604 -0.32767832 -0.022870678 0.07230767 -0.28013584 -0.37486827 -0.045336943 0.1241852 -0.0047738804 0.15130225 -0.0713213 0.37489322 -0.026625311 0.30959573 -0.10472886 -0.29886526 0.016608508 0.020297388 0.118065074 0.18155156 -0.106491685 0.4567291 -0.099676505 0.28455076 0.51142865 -0.08980014 -0.12727731 -0.42382553 -0.0012753542 0.031257153 0.005644792 
103 -0.18194112 0.63522947 -0.26909214 0.10456368 -0.09237378 0.511466 0.15616494 0.16178212 0.3816582 0.16421352 -0.106573336 -0.17326331 -0.2684129 -0.50090754 0.50423384 0.05481717 -0.45725492 -0.085976295 -0.0907856 -0.030566296 0.23442622 -0.22850907 -0.15078044 0.17295755 -0.28934306 0.32883227 -0.24105011 -0.22645096 -0.36121684 -0.00025836757 -0.10346128 -0.32887048 -0.5322781 -0.424998 0.43572655 0.36627612 -0.16593997 -0.024992919 0.12909397 0.30054238 -0.37403482 -0.339443 -0.14316453 0.13105229 -0.013798938 0.037259016 -0.38740772 -0.34701732 -0.42592275 0.1544932 0.21499704 -0.20176783 0.2767909 -0.201273 0.20805727 0.07356733 -0.15650412 0.6825957 0.035021335 -0.02818618 0.19775398 0.32072198 0.50882024 -0.1502358 -0.31550127 0.4127267 0.17302914 0.070380986 -0.74733895 0.35361594 -0.32912362 0.37863284 -0.1606974 -0.42114037 0.092043266 -0.3256743 0.18325473 -0.02387337 0.81836367 0.18762083 0.27770755 0.3849437 0.066759005 0.11131625 -0.049334373 0.30422106 -0.29440284 -0.07984951 0.123025626 -0.013736065 -0.1678208 0.17655385 -0.38332596 -0.33072042 0.09658001 -0.26135087 -0.21101846 -0.077299096 0.28606614 -0.08500912 0.019323828 0.20490977 -0.41653153 -0.3953574 -0.11736931 0.23674826 0.12812784 -0.20048226 -0.3862625 0.25934887 0.28799307 -0.050244663 0.3850675 0.5922565 -0.16800624 0.16343273 0.4535048 -0.33557516 0.6357372 -0.42059538 0.14576986 0.062192757 -0.23137878 0.3055551 -0.18424086 0.49289653 0.3008038 0.123623274 
178 0.0071563898 -0.38447514 -0.29627556 -0.34516156 -0.15102713 0.38349324 -0.02886755 0.08306395 -0.010570267 0.5259434 -0.34164077 0.39675152 0.07678165 0.24719524 0.25630638 0.084541395 0.07187863 -0.18651758 -0.3328588 0.22308035 0.13026492 0.18565859 -0.33616987 0.3504192 -0.30113035 0.037250564 0.010310802 0.47985205 -0.21986419 0.27384314 -0.107237756 0.3168316 -0.4721693 -0.27236256 0.043060184 -0.05182977 0.30755964 0.2643984 0.23501836 0.012230084 -0.33459213 -0.33559573 -0.14902055 -0.11186079 0.023558443 0.043615405 -0.021554416 -0.30456007 -0.22315511 -0.29075018 0.11586552 -0.10841666 -0.32884532 -0.29511538 -0.14404275 0.33418143 0.10857984 0.52024907 0.052661087 -0.059522096 0.24954467 0.36740553 -0.23414548 0.113264166 0.06978986 0.1309016 -0.0645551 0.24322006 -0.16414568 0.04527705 -0.056450687 -0.031051597 0.074829966 -0.25019068 -0.21761039 0.023628134 -0.037279308 -0.08732072 0.040124737 -0.05905483 0.07690294 -0.03289997 -0.050248 0.15165803 -0.219195 -0.11532188 0.100965284 -0.255257 -0.25753435 -0.48351705 -0.37770665 -0.111327104 -0.41405967 0.13162166 0.16832088 -0.13061482 -0.1307984 0.07545558 0.18135935 -0.018329747 -0.11168533 0.06905233 0.08961718 -0.16459648 0.03925128 -0.08285817 0.023154153 0.008808758 -0.2590408 -0.04342526 0.10271317 0.07932327 0.180188 0.33484706 -0.21119301 0.028842367 0.02113041 0.42960492 0.31854856 -0.39979842 0.09059954 0.24678718 -0.22056484 -0.18222353 -0.23701766 0.3946993 0.1099419 0.25998172 
283 -0.018247547 -0.17486973 -0.42805514 -0.45022592 0.38019004 0.29479504 0.13579796 -0.10691597 0.16112925 0.030420825 -0.36253527 -0.23426086 0.08102424 -0.30081913 0.38105544 -0.059215326 0.043483622 -0.2439461 -0.23806925 -0.5036958 0.31538492 -0.16898361 -0.5517009 -0.19212687 -0.045862928 0.46150923 0.04536088 -0.10473246 -0.53164774 -0.15120791 -0.25936735 -0.057095636 0.031421226 -0.24218686 -0.008101276 -0.18642004 0.045110334 -0.022321464 0.124315545 0.14304213 0.011525718 -0.45901486 0.015568386 0.10694983 0.30207786 0.03244617 -0.204236 -0.15482117 -0.42348602 0.054950036 0.34746268 0.023490489 -0.18980885 0.11709569 -0.028840799 -0.036740255 -0.18915127 -0.11591101 0.2194049 0.19522959 0.13605842 0.25333786 0.2719347 0.15887213 0.0005249959 -0.12145952 0.06832628 -0.093541816 0.0040832125 0.058508895 -0.46030033 -0.13275939 -0.09887425 -0.008787101 -0.082301326 0.25223622 -0.015114632 -0.09776835 0.23193452 -0.19992882 -0.11150813 0.21477747 -0.21700324 0.31629136 -0.17253757 0.07381163 0.056833733 -0.33871308 0.061294325 0.099539645 -0.2482933 -0.10680396 -0.088055916 -0.22058094 0.33370334 0.1564388 -0.11715644 0.033974435 -0.122811005 -0.0910531 -0.0027118134 -0.12861891 -0.40018985 0.016992936 0.09933458 -0.03773262 0.11163662 0.1401557 0.14192554 -0.1899818 0.3227519 -0.022322726 -0.004317641 0.105528735 0.05529055 0.22529048 0.055411454 0.0022040503 0.30469513 -0.10460333 0.20421867 0.4650883 -0.12510401 -0.15343389 -0.31220442 0.13285103 -0.118358836 0.04502545 
5 -0.27491444 0.3953949 -0.41554323 -0.07485802 -0.11081391 0.6050762 -0.011070672 -0.025881462 0.4172423 0.051125344 -0.25262588 -0.23926677 0.072176255 -0.3853872 0.33971837 -0.11490143 -0.077242844 -0.20187248 -0.15339795 0.14194722 0.20096317 0.03145828 0.04539872 -0.28606257 -0.23501953 0.34068975 -0.03196331 -0.22685042 -0.44863966 -0.08911802 -0.08943392 -0.056675807 -0.332723 -0.14283124 0.069644496 0.17245203 -0.32750237 0.28571004 0.09323159 0.07782918 -0.24846654 0.0942452 0.20400839 0.20894526 0.15523264 -0.033055414 -0.0050221356 -0.33582643 -0.060157955 0.2542875 0.3294664 -0.07764757 -0.015918495 -0.05864734 -0.30235013 0.12642696 -0.31907064 0.051081933 -0.15453053 -0.2577193 0.20035027 0.2283722 0.4505911 -0.09968208 -0.008204361 0.35579994 0.17040762 -0.21711846 -0.3013663 -0.039948106 -0.39930966 0.51540977 0.04125327 -0.15261161 -0.19945233 -0.31794843 0.25912488 0.12330943 0.2447949 0.07040657 0.23125915 0.20851475 -0.059965115 0.04848894 -0.090168945 0.16927549 -0.33888474 0.25161186 -0.06134922 0.21251802 -0.12789199 0.22437061 -0.29718918 -0.1633939 0.03044262 -0.24888188 -0.11718264 0.1048124 0.05417331 0.19063368 0.20658807 0.16418588 -0.19527602 -0.28892648 -0.0032696582 0.17180018 -0.038862944 0.028798671 -0.42864257 0.26927382 0.3300893 -0.032717165 0.25448924 0.4454788 -0.24763684 0.21628547 0.19163194 -0.44387814 0.23896526 -0.07680466 -0.20458363 0.16965827 -0.3028456 0.38459992 -0.22951835 0.2666453 0.12777376 0.49537066 
174 -0.16226295 0.113142446 -0.4020743 -0.37249994 0.52496773 0.5642032 -0.09562125 0.003937839 0.23366883 0.44270313 0.28122982 0.2992223 -0.030190945 0.06830761 0.3655526 0.31448063 0.26381388 -0.19206826 0.103922985 0.0066649527 0.3536112 0.44196475 -0.070479326 -0.17225403 -0.035255946 0.029294793 0.21190146 0.5914466 -0.12201665 -0.060021695 0.059474412 0.46928954 -0.41872358 -0.37932742 0.26485372 -0.24145758 0.19809811 0.08699153 0.21070978 0.031409062 -0.15986016 -0.60090494 -0.03618578 0.34448454 0.28820685 -0.27912894 0.021676209 -0.27024588 -0.61986804 -0.0829526 0.024935653 0.01869074 -0.05457964 -0.29023927 0.058306005 0.043074932 -0.4734247 0.20578301 -0.4978866 -0.16489062 0.5492591 0.054669257 -0.10735527 -0.05177658 -0.23112951 -0.34566042 0.05560022 -0.32080752 -0.29250827 0.36815935 -0.2405435 -0.099594 0.1328429 -0.35511923 -0.20948288 -0.29370925 0.07989854 -0.27877948 -0.36110744 -0.010507608 0.33730575 0.5516216 0.26955777 0.08818273 0.107422866 -0.21649607 0.2352979 -0.0852994 0.043726943 -0.64116615 -0.5053962 -0.08614314 -0.07299508 0.1416941 -0.18144405 -0.6294394 -0.018697552 -0.09652062 0.40349638 0.03268279 0.29540858 0.27109903 0.2576527 -0.15181713 0.009372412 0.17088202 -0.137779 -0.18728341 -0.3417854 -0.2269739 0.090288065 0.22271629 0.31507903 0.5459933 -0.11343779 0.41589174 0.47724095 0.45100302 0.51818085 -0.23779827 0.12574543 0.39914125 -0.3782433 0.10343488 -0.08007964 0.82584625 -0.01381984 0.092128776 
177 0.014914278 -0.45096654 -0.32732487 -0.0033504793 -0.23208947 0.07400338 0.24025391 0.15137273 0.0046678544 0.40039808 -0.39287183 0.22612178 0.10175351 0.29987597 0.4283117 -0.060032994 -0.057372503 -0.34864753 -0.31344092 0.17080887 -0.10013426 0.047614098 -0.2814566 0.41196346 -0.24430478 -0.07123709 0.15405248 0.38063687 -0.142579 0.22630188 -0.107493125 0.339283 -0.6385131 -0.13045831 -0.08685949 0.07592125 0.09423818 0.1558178 0.2643292 0.17254584 -0.1311447 -0.42769316 -0.20112602 -0.21009214 -0.10897177 0.16062625 0.09481508 -0.26093218 -0.35124362 -0.43959025 -0.025686854 -0.025604293 -0.15919976 -0.36418656 -0.09398156 0.33442083 0.124318555 0.7052365 0.035342056 0.13125445 0.23149586 0.31529528 -0.2936786 0.118084304 0.21736832 0.16155292 -0.26916456 0.20015563 -0.18186074 -0.2423692 -0.12537925 -0.00018312369 0.1136688 0.0875966 -0.27365246 0.1345305 -0.30871284 -0.12437424 0.12875871 -0.0076814727 -0.23214617 -0.1659845 0.029486056 0.33221436 -0.44462478 0.017608413 0.16903841 -0.23415941 -0.22765005 -0.10195442 -0.24298978 -0.122050546 -0.5375015 0.037624773 0.16912208 -0.08691892 -0.05249953 0.13984123 -0.03668432 -0.00787645 -0.059887767 0.021883545 -0.01201022 -0.046637658 0.009980814 -0.20026717 0.15260157 0.07180543 0.014949251 0.08523023 0.20076108 0.053188227 -0.053896617 0.09869042 0.08576981 -0.23380654 0.08897153 0.32682753 0.25330666 -0.44171867 0.095123716 0.23072596 -0.21584252 -0.26805547 -0.39770812 0.13024525 0.2179875 0.28560916 
232 -0.13733412 -0.41233233 -0.3539581 -0.08613922 -0.29822364 -0.31881118 0.3735191 0.1427774 -0.072148465 -0.011415995 -0.16545455 -0.025680864 0.09985047 0.050205965 0.49181312 -0.17125052 0.103904784 -0.20143107 -0.08624144 -0.006089589 -0.26605374 -0.10055488 0.016471947 0.11353667 -0.20219463 0.13883051 0.12956807 0.46384212 -0.3446521 0.27266166 -0.089941695 0.19891734 -0.41481566 -0.07219825 -0.04308051 0.295793 -0.44435632 0.14585376 0.12027944 0.37674817 0.040048502 -0.326061 -0.059801478 -0.10282724 -0.11159412 0.009640744 -0.024199562 -0.20634545 -0.38910943 -0.30790898 0.041614234 0.08310313 -0.30533752 -0.33252433 0.1701296 0.37730575 0.0019004451 0.50439024 -0.01452928 -0.19783546 0.23532131 0.16518295 -0.29671264 0.25209102 0.20124066 0.0995513 -0.324351 0.10546763 -0.16165507 -0.2978731 -0.36327156 -0.023957698 0.22481337 0.16601993 -0.22892094 -0.06169409 -0.19290781 0.035175797 0.31156603 -0.027443053 -0.25575542 -0.22186239 0.058300875 0.46189633 -0.5690951 0.03184897 0.09709262 -0.019765964 0.11690306 0.17329891 0.07017374 -0.10609043 -0.1810081 -0.011456526 0.12705216 -0.022289867 -0.15507133 0.20988439 0.088057816 0.066792145 0.06833953 0.11695461 -0.09319518 -0.14393504 -0.14157219 -0.3293339 0.14841889 0.11369852 0.119316325 0.076168984 0.026588146 0.005033196 -0.17310019 -0.11308061 0.10515212 -0.3431378 0.07105799 0.23898935 0.2628475 -0.36258724 -0.039179724 -0.0038072919 -0.23880923 -0.29100534 -0.36377734 0.028785644 0.16475776 0.0729118 
164 -0.15829225 -0.043916196 -0.26330045 -0.058334492 0.30576777 0.2983007 -0.013484861 0.22052445 0.18095152 0.14311533 0.33670202 0.18344823 -0.01675184 -0.009655808 0.56910443 0.16249554 0.34837294 -0.19111726 0.25841898 0.031376716 0.23200433 0.3454997 0.00659529 -0.09941054 -0.039021056 -0.02944399 0.12484271 0.57764965 -0.1074829 -0.09593597 -0.057833035 0.403862 -0.24177329 -0.32041544 0.11442073 -0.114230536 -0.1344978 0.06602816 0.1293907 0.14750977 -0.07950335 -0.40224078 0.0047144736 0.21949677 0.27148163 -0.33746603 0.15006217 -0.20551287 -0.5550885 -0.16431434 -0.029140864 0.06110294 -0.0795338 -0.3537916 0.287123 0.107844114 -0.40309638 0.3577105 -0.2821726 -0.32551694 0.50799644 0.0025306784 -0.21135104 0.1654219 -0.36204764 -0.29624176 -0.37311366 -0.22444169 -0.28860745 0.18628055 -0.2356692 -0.09531786 0.2305618 -0.2264817 -0.21685416 -0.20575835 0.03339087 -0.39320427 -0.23855002 0.027286172 0.1403061 0.4170923 0.40783167 0.23820819 -0.115430646 -0.298699 0.2980813 -0.04998752 0.13664861 -0.44471008 -0.3517157 -0.07093583 0.041619647 0.20494616 -0.05679878 -0.52589023 -0.050376836 -0.071905114 0.43654546 -0.015464945 0.36368883 0.33849818 0.24532567 -0.2573772 -0.17298773 0.07270754 -0.09884478 -0.06896456 -0.22568612 -0.19093654 0.023455748 0.2700518 0.21013328 0.42603642 0.073911525 0.2460074 0.24941383 0.39096004 0.28548118 -0.34429008 0.039956804 0.16887121 -0.30549765 0.082178846 -0.16476327 0.5849812 0.033147953 0.0029466618 
183 -0.019304376 -0.1690706 -0.5274935 -0.13403104 -0.06954683 -0.019801233 0.23653519 0.15575759 0.21057525 0.2731878 -0.45214897 0.02418328 -0.032652084 0.12613608 0.3289944 -0.24287929 -0.34245962 -0.2777119 -0.24145675 -0.20675734 -0.037095252 0.026289457 -0.22299255 0.14753981 -0.10451505 0.31326967 -0.10593381 0.2996623 -0.20736517 0.2536041 -0.24615592 0.2182479 -0.6351353 -0.11458318 -0.0685338 0.35378194 -0.17707288 0.002444717 0.05591691 0.11975093 0.019340465 -0.5624016 -0.19597515 0.10282899 -0.009085492 0.37277597 0.006122558 -0.16615827 -0.28229633 -0.1992617 -0.10556096 0.1772866 -0.050116945 -0.055775367 -0.29387963 0.08139424 -0.18744932 0.3843967 -0.13151714 0.09993102 0.24897969 0.2207834 -0.1738176 -0.10568487 0.32466832 0.14871348 -0.05249565 0.07917926 0.03418695 -0.2944073 -0.19176385 -0.04619592 -0.095369644 0.11914474 0.048740465 0.024741074 -0.21136023 0.047566734 -0.10848197 -0.20954353 -0.032160413 0.24644676 -0.21562786 0.35505652 -0.15596654 0.26515883 0.21138069 -0.16341777 -0.2025356 0.06669983 -0.59834313 0.14417794 -0.3354522 -0.085855335 -0.006994145 -0.07633145 -0.08486013 0.013207403 -0.02795069 0.26971588 -0.22798796 -0.21722911 -0.05164739 0.13872235 0.29452217 -0.0074423812 0.20339647 0.2568036 -0.1039865 0.023112211 0.23159711 -0.09938551 0.12222262 0.13169688 -0.07087355 -0.19243604 0.24640684 0.37508687 0.31381848 -0.18725102 0.1281702 0.42166093 -0.5756657 -0.4085588 -0.22675069 0.19937243 0.24281035 0.41429052 
105 -0.06653132 -0.23330903 -0.5853066 -0.14668712 -0.13911392 -0.093357764 0.29889503 0.12560947 0.20495635 0.29281577 -0.5439047 0.04775728 -0.042366695 0.12900521 0.3520844 -0.27915505 -0.40248227 -0.27088773 -0.22610472 -0.186417 -0.14400357 -0.059073526 -0.24636638 0.074069835 -0.10914602 0.3181067 -0.07451005 0.25269157 -0.31195733 0.33103457 -0.24213234 0.16899703 -0.67373663 -0.05698414 -0.013472591 0.3622749 -0.19124177 -0.014365329 0.029174378 0.15376917 0.043555416 -0.5788177 -0.23551033 0.06657138 -0.06341359 0.41327113 -0.05035127 -0.16138178 -0.24617364 -0.21061419 -0.16132449 0.13050851 -0.021834126 -0.10683189 -0.25957072 0.076167226 -0.12936024 0.36770368 -0.1809799 0.07177133 0.22887118 0.2030535 -0.14190227 0.011743299 0.3261243 0.13426347 -0.06427897 0.13069017 0.03657675 -0.28860143 -0.1818061 -0.046205293 -0.11075029 0.16083466 0.012974583 0.056968722 -0.22891791 0.03970888 -0.054590717 -0.13570163 5.152746e-06 0.16720313 -0.29165336 0.3867225 -0.23390423 0.2729593 0.23160948 -0.1777825 -0.26114252 0.18555778 -0.5670663 0.18778999 -0.3843727 -0.09079419 -0.09699781 -0.087577246 -0.12752289 0.024689443 -0.087276004 0.34753433 -0.19541715 -0.18474443 -0.13321187 0.16645753 0.34615347 0.008753701 0.22874953 0.33160084 -0.14601423 0.022962948 0.28732997 -0.019699028 0.10390584 0.11174074 -0.12128376 -0.21362247 0.26168835 0.29070786 0.29449776 -0.20445055 0.17413093 0.404515 -0.62118524 -0.39709646 -0.26102772 0.15784276 0.24473614 0.45701632 
51 0.015963137 -0.19592474 -0.32738283 -0.47072512 0.3505264 0.46586564 0.08046479 0.10935072 -0.17083177 0.10578215 -0.07149683 -0.2935691 0.0030575239 -0.48083135 0.14214732 -0.0030456032 -0.1297577 -0.111112535 0.15689106 -0.2059242 -0.0059189973 -0.22745138 -0.1368893 -0.40347007 -0.22671317 0.52214384 0.03341124 0.17073672 -0.6512785 0.06782867 -0.109925486 -0.27534622 0.09739553 -0.3940506 -0.017282644 0.40733665 -0.24790946 0.02902637 0.28568676 0.17871217 -0.22121592 -0.47446704 -0.10068249 0.07189477 -0.12731056 -0.0031767853 -0.12877548 -0.2777724 -0.3965372 -0.18936245 0.33860886 0.032725237 -0.14004546 -0.010687491 -0.09022033 -0.06009112 -0.3978752 -0.083622724 -0.057144456 0.17873108 0.4641324 0.44191626 0.104524 0.3477248 -0.10808491 0.11008084 0.105708785 -0.129527 0.017843142 0.04454883 -0.21878193 0.1307957 0.15342885 -0.17014296 0.03076643 0.090832934 -0.19095656 0.039936293 0.023585606 -0.03490247 -0.41047683 -0.118843526 -0.3324405 0.46835706 -0.27443394 -0.039012358 0.25672475 0.15720214 0.08198502 0.086322404 -0.21099864 -0.14202492 -0.035178248 0.2259181 0.09837196 0.071831904 0.038022634 -0.011542728 0.24869 -0.20706654 0.37740326 0.20353608 -0.4091173 -0.14160794 0.21617855 -0.020687776 0.17517875 -0.17335528 -0.2713022 -0.12812893 0.29316285 -0.45542052 0.31129506 0.17927013 -0.10945298 0.15791757 0.23160346 -0.054352235 0.3875178 -0.13584217 0.20821889 0.025028484 0.05441721 -0.03339551 -0.047443178 0.2683234 -0.12757888 -0.058197994 
215 -0.13675933 -0.37332663 -0.35941124 -0.16494091 -0.349872 -0.3398085 0.43785274 0.14750183 -0.009652023 0.092245944 -0.20449382 0.08120489 0.15646657 0.18278475 0.5788819 -0.31800288 -0.057456627 -0.1818255 -0.22530057 -0.07614862 -0.21197768 -0.08212353 0.11679618 0.19046077 -0.22147326 0.16605875 -0.07498913 0.51195514 -0.54841435 0.37769985 -0.23772596 0.24900223 -0.56643033 -0.16173522 0.03379471 0.28007212 -0.50339824 0.2652346 0.051865388 0.29384327 0.020935994 -0.3036536 0.0058160247 -0.20975824 -0.12813231 -0.068050385 -0.0303176 -0.30040964 -0.238567 -0.2571553 -0.06671683 0.18489811 -0.15170434 -0.42484966 0.049592577 0.39665037 0.099470146 0.6565506 0.04223141 -0.084675625 0.17906663 0.29304433 -0.28337055 0.18602706 0.38627648 0.19832096 -0.29114386 0.20857234 -0.27919266 -0.19549866 -0.23232304 0.0065045636 0.13539854 0.16016898 -0.091672234 -0.02120335 -0.17673406 0.123568766 0.28754178 -0.099680774 -0.16505954 -0.2845475 0.11890785 0.45096573 -0.48169985 0.027578233 -0.002452041 -0.048490126 0.02491478 0.11440237 -0.00040140352 -0.08721405 -0.141392 0.0067452053 0.21339633 -0.048716355 -0.1786767 0.21395023 0.069334395 0.071622655 -0.06497004 0.11247918 -0.066701256 -0.21989077 -0.24237786 -0.2579564 0.28692916 0.09979148 0.020471329 0.045389682 0.006318986 -0.0071694665 -0.07499256 -0.14331952 -0.05207975 -0.38129166 0.040464792 0.34746382 0.2608288 -0.43223867 0.035734836 0.11349578 -0.16371092 -0.26671165 -0.43479574 0.09304771 0.2679759 0.11713031 
233 -0.23143208 -0.63242316 -0.34042153 0.009166312 -0.19245754 -0.11360119 0.22062504 0.26551428 0.04361935 0.11894837 -0.3074086 0.08988782 0.057362907 0.08911346 0.43498188 -0.24514692 0.40905958 -0.38469967 0.022525579 0.040097274 -0.09156033 -0.29839188 -0.19083147 0.030760394 -0.087476455 -0.101170525 0.31073618 0.50373816 -0.12331534 0.22236435 -0.108696714 0.26197925 -0.408945 -0.13354722 -0.028318545 0.17755026 -0.2714979 0.064227566 -0.07696055 0.16012685 0.017803298 -0.07721517 -0.05911206 0.12349796 0.04241089 0.03287234 -0.07258412 -0.18428683 -0.20890205 -0.34614825 -0.35639295 -0.05573108 -0.16431226 -0.12127899 0.27548724 0.2039577 -0.027466292 0.36155042 -0.22305575 -0.34253037 0.2486267 -0.15687466 -0.56073403 0.3016993 0.009028282 0.0051061623 -0.37720227 0.11786739 -0.011785037 -0.16296744 -0.3102554 -0.16967317 0.13169119 0.0039545246 -0.36595124 -0.10582647 -0.08789123 -0.109729216 0.113482356 -0.057426684 -0.09802027 -0.18867013 -0.0102079045 0.3262907 -0.31178442 -0.27528554 0.27084413 -0.10611847 -0.10112366 0.008292927 -0.017311119 -0.050518982 -0.13783766 -0.12881298 -0.026671095 -0.1968381 -0.0029636761 0.033077706 0.17794923 0.090693906 -0.03828019 0.21818835 -0.074208036 -0.11925611 -0.18525615 -0.1952911 0.08778397 0.28667092 -0.1575191 -0.07009764 -0.15415117 0.08069021 -0.07520713 0.10939293 0.049214948 -0.0978989 0.044163156 0.23488955 0.04673178 -0.2198512 -0.22208719 0.03855119 -0.39281794 -0.22031875 -0.16318835 0.14008348 0.048144747 0.11750005 
262 -0.31237274 0.17296953 -0.5985286 -0.40878883 0.4490405 0.34457695 0.28048736 0.088505305 -0.2842159 0.27837342 0.26023793 0.021489576 -0.042199112 -0.53928185 0.22336186 -0.13330741 0.115694 -0.11611475 0.06918519 -0.49979937 0.12328081 -0.14625025 0.11900623 -0.5793092 0.04722415 0.47413403 0.32647663 0.24470288 -0.5377544 -0.03573161 -0.021043466 -0.084405415 -0.26507485 -0.27464917 0.15511964 0.58948433 -0.5157913 0.034183506 0.10127551 0.21716957 -0.16119961 -0.042686127 0.20661497 0.08272064 -0.08578739 -0.16108662 -0.06724226 -0.25562888 0.116169736 -0.114006035 0.024710312 0.005949624 0.2913705 -0.05383701 -0.10725188 0.04385875 -0.103805065 0.17034666 -0.32914898 0.06484587 0.30207816 0.10347937 0.1193011 0.0027228168 0.06241731 0.40048108 0.37869972 -0.027575905 -0.13073674 0.3261952 -0.24783207 0.1725531 -0.12565506 -0.34059608 -0.060724728 -0.35085326 0.14750558 0.31622165 0.12619501 0.02074413 0.0543238 -0.11595988 -0.033296958 0.45388213 -0.027022142 -0.036236055 -0.19477671 0.46069118 -0.15875845 0.18124658 0.014774389 -0.15292071 0.036591128 -0.0073466627 -0.03962523 0.06329302 -0.17989497 0.015914861 0.20318274 -0.013109228 0.04793338 0.36216682 -0.4190094 -0.35644132 -0.1472933 -0.02517953 0.3394861 0.20462489 -0.43332797 -0.34745806 0.15287766 -0.19715904 0.28935832 0.46066368 -0.5869025 0.04404479 0.47811297 -0.035771847 0.22152995 0.29333922 0.31721994 0.08338448 0.025921954 0.08593884 -0.0012105419 0.2587268 -0.23675911 0.0962335 
281 -0.11335989 -0.28643385 -0.22657228 -0.0066589057 -0.1734868 -0.17022824 0.3450735 -0.10674595 0.07045813 -0.1255165 -0.449136 -0.098928645 0.24479046 -0.0071680625 0.25581077 -0.099276476 0.08166192 -0.27305937 -0.057855677 0.11343713 -0.22151956 -0.01220028 -0.081548914 -0.010096083 -0.16527322 -0.017767541 0.33671024 0.14383319 -0.21610036 0.09549908 0.102643855 0.07931519 -0.28526935 0.0409459 0.026150228 0.16953862 -0.28249058 0.16730225 0.097412944 0.3137356 0.07915874 -0.1889532 0.03715395 0.11582488 0.04609416 0.08825557 -0.07399456 -0.09772059 -0.552136 -0.07743234 0.11482251 -0.0022401952 -0.21892202 -0.15347354 0.12485052 0.26802173 -0.17778929 0.045442585 -0.15864152 -0.14709242 0.22159912 -0.0049070716 -0.18795335 0.043981217 0.20534326 0.06843771 -0.095645495 -0.022430638 -0.112978615 -0.31919375 -0.56533855 0.120891005 0.17012833 0.23298289 -0.26552758 -0.22634521 -0.17160991 0.13223802 0.27568513 0.123779975 -0.31727794 -0.25400487 -0.02930105 0.23409747 -0.32887906 0.18326667 -0.08158582 -0.05463823 0.10092374 0.25260973 0.27956495 -0.11768249 -0.17792484 -0.20160772 0.011104653 -0.19218619 -0.0713121 0.3589402 -0.003896033 0.060894545 0.15449384 0.091468915 -0.20259723 0.018968785 -0.08065818 -0.30574065 0.012512792 -0.1112931 0.063514054 0.24287872 0.18697225 -0.10373451 -0.10173171 -0.046041444 0.17060567 -0.19178632 0.19329695 -0.047454633 0.39174664 -0.25431287 -0.3593139 0.041286223 -0.3286249 -0.0588122 -0.31283092 0.10410161 0.1111785 0.15278687 
135 -0.011029876 -0.011956059 -0.45830524 -0.37716103 0.21113636 -0.10901067 0.10183512 0.21168165 0.07580737 -0.05175386 -0.10600169 0.35264388 0.07925087 -0.11517063 0.045599204 -0.1593533 -0.11696818 0.31906927 0.06159213 -0.28265128 0.07338924 0.57574576 0.13345815 -0.09308277 0.0018068169 0.19143236 -0.092552334 0.5443492 -0.28351524 0.30987737 -0.1394273 0.23654632 -0.299793 -0.10371609 0.32729942 0.24786112 -0.3354533 0.052765027 -0.27321455 0.043723196 0.085871585 -0.2651239 0.004232535 0.39935118 0.15717158 -0.195532 -0.026622472 -0.001118922 -0.3473725 0.11455246 -0.03124563 0.26712823 0.13234802 -0.19852027 -0.05533167 0.05951859 -0.34068218 0.33060488 -0.3079552 -0.6387426 0.4411285 -0.14343391 -0.49930787 -0.2782255 0.23112758 -0.051757734 -0.048010636 0.0042140502 -0.09504861 -0.06225182 -0.225439 -0.05230354 -0.16851191 -0.063326545 0.17521068 -0.69483316 0.3309101 0.057977494 -0.49870777 -0.20971242 0.09494352 0.23945126 -0.19941504 0.16949038 0.030337503 -0.079922006 0.06282538 0.0049706465 0.25182435 -0.36660644 -0.09115503 0.18158555 0.28606144 0.018854842 0.05427953 -0.38403887 -0.25827825 0.14648685 0.30981594 0.22797155 -0.31113705 0.26637775 0.18625864 0.052930534 0.085737176 -0.06568121 -0.12935482 0.12035314 -0.4547336 -0.37374 -0.06366586 0.31166118 0.5868338 0.2165717 -0.18606731 -0.25902846 0.28506643 0.75772285 0.53942835 0.027013877 -0.16262826 0.3768172 -0.49541748 -0.2506607 -0.050770342 0.6607276 0.050929837 0.027133144 
19 -0.23062946 -0.4461999 -0.37983844 -0.38696516 -0.19294477 0.4947992 0.0045573744 0.046919774 -0.040795267 0.48312944 -0.16657588 0.29238155 0.008039034 0.016684936 0.16470441 0.1299148 0.29229257 -0.26560995 -0.12460456 0.26647922 0.2713967 0.0932975 -0.25030646 0.1773827 -0.39250872 -0.01688456 -0.0034654732 0.4845954 -0.075129405 0.20470086 -0.009806267 0.2128247 -0.37918237 -0.31583396 0.13856919 0.09383309 0.2125554 0.3270091 0.24023531 0.08053517 -0.39629328 -0.10519338 -0.13530251 -0.04998103 0.15262245 -0.018995764 -0.16885637 -0.3474799 -0.1673459 -0.2761031 0.27588645 -0.23014958 -0.48505634 -0.15778525 0.076490626 0.31973204 0.11379036 0.35666406 -0.10254618 -0.3325008 0.28170294 0.15777004 -0.42983663 0.21553077 -0.1499158 0.21591458 0.036506332 0.20233338 -0.17719747 0.07853052 -0.210653 -0.02576365 0.10669373 -0.32750893 -0.1558693 -0.24907878 0.080241285 0.035565574 0.29616648 0.057716656 0.12047819 -0.12641482 -0.09658908 0.07930246 -0.07917612 -0.11629796 0.027330823 -0.12688775 -0.18313496 -0.4198428 -0.17891869 -0.20554076 -0.42401856 0.10768654 0.019173332 -0.11868605 -0.209625 0.06560066 0.30213642 0.05453064 -0.07693997 0.15194342 0.0023579244 -0.23974384 -0.11384257 -0.2125802 -0.049172834 -0.13202772 -0.26558173 -0.021993639 0.017536072 0.0041687563 0.0600519 0.40904164 -0.28880537 0.08290373 -0.022159826 0.2355596 0.20305532 -0.31886202 -0.12929088 -0.09499548 -0.096155666 -0.09690443 -0.07239621 0.3413525 0.023648253 -0.002802666 
