546 128
62 -0.21087176 -0.022846112 -0.31505352 -0.61321396 -0.06728114 0.51202387 -0.24033184 0.18284704 0.3520153 -0.8618785 0.02221333 0.2516101 -0.66442084 0.8406466 0.1523679 0.4693309 0.25003704 -0.0035605999 0.028664373 -0.05861738 0.7643549 -0.122001104 -0.019894617 0.33210844 -0.08481597 -0.25608006 0.05122183 -0.092782415 0.3962125 -0.33286077 0.21241666 0.53653914 -0.26468593 0.036912438 -0.18501213 -0.1045103 0.1375955 -0.101720884 -0.20458189 -0.09465397 -0.1110117 -0.21180737 0.17345935 0.24283111 -0.053466707 -0.19977684 -0.32953063 -0.3832117 -0.22153522 0.53786933 -0.038228534 0.27215484 -0.059395593 0.27651685 -0.22257432 -0.13919333 0.28188294 -0.61353403 0.12896003 0.21644166 0.12687303 0.11056292 -0.09156098 -0.23660715 0.4397232 -0.015957039 -0.32889515 -0.36125433 0.015409932 -0.2202433 -0.23318833 0.29045647 0.19128475 -0.059731387 0.59533393 0.16266245 0.20795938 -0.16809162 -0.22733551 -0.8819397 -0.08141961 -0.12688297 -0.1836223 0.14903633 -0.09830153 0.28307256 -0.17365487 -0.3505717 0.4063696 0.10726603 0.40623894 0.46790835 -0.3010574 -0.122138225 0.2161828 -0.3185612 0.18629472 0.23026319 -0.6276768 -0.05047827 0.2637747 0.26420113 -0.3437577 -0.104515366 0.1903712 0.31420162 0.02019016 0.37390512 0.08177654 0.029248413 -0.7770326 0.17658143 0.37799084 -0.18927512 -0.21367306 -0.3032273 -0.22780715 0.091275096 -0.470543 -0.109482676 -0.3565088 -0.005410582 -0.28571945 -0.29098734 -0.2544317 -0.14411637 -0.28076994 -0.084183976
63 0.08627281 -0.16708863 -0.478104 -0.44010192 -0.5705679 0.58530444 -0.13034914 0.097293876 -0.3136036 -0.24315153 0.04217133 0.056915257 -0.39240348 0.036500543 0.17599441 0.5387838 0.8936505 -0.062200557 -0.21528617 -0.34895802 0.5660685 -0.22873878 0.22445607 0.7181129 -0.0010921495 -0.3230334 0.4159799 0.12186114 0.4702655 -0.23544739 -0.024576854 0.46510953 -0.57422125 0.41065004 0.04922316 0.48778212 0.058343727 -0.23355642 0.06469418 -0.022179248 -0.028870957 -0.05005943 0.187697 0.30398646 -0.21168892 -0.4630316 0.016828688 -0.06569169 -0.22677107 0.6134143 0.23194638 -0.28874746 -0.24497415 0.023117384 0.015817584 -1.2990707 0.5019522 -0.4221173 0.5732055 0.46391723 -0.55024743 -0.19023024 0.26714763 -0.41769233 0.2682526 0.04173277 -0.8656237 -0.030675724 0.1745302 -0.08760382 -0.07753152 0.32250628 -0.62076145 0.018745119 0.22003014 0.025763284 -0.19264491 -0.33833355 -0.527007 -0.24339066 -0.08622191 -0.0732245 -0.54870284 0.27669513 0.24527779 -0.076418184 -0.40315324 0.6057751 0.14857484 -0.10528973 0.53731287 0.3796624 -0.008383163 -0.10857085 -0.15012407 -0.2061389 -0.0009498461 -0.1940106 -0.23591697 0.30963165 0.16242892 0.5555342 -0.008378498 -0.2552262 0.044515062 -0.2770756 0.44220468 0.11640449 -0.17017977 0.05874077 -0.39394686 0.2291502 0.27932796 -0.12932989 0.5244976 -0.08984473 -0.47011608 0.3298205 -0.12233341 -0.5205112 -0.37734962 -0.26489016 -0.6689189 -0.47671765 0.111385874 -0.017333817 -0.21215194 -0.059383344
21 0.6246078 -0.6291202 0.25000784 -0.094173156 -0.36020952 0.25221187 -0.17871524 -0.23701324 0.13852584 -0.6328151 0.14774628 -0.55379635 0.40415025 -0.020471664 0.046135012 0.2649063 0.67358375 -0.11821818 0.5093643 -0.40156543 -0.5670501 0.27219003 0.6637441 0.03838765 -0.1464557 -0.65183866 0.30066535 0.30013287 0.21116255 0.16395761 0.26675195 -0.31402957 -0.57798576 0.45787928 0.14805198 0.17562984 0.24639048 0.12469892 -0.06427021 -0.34314144 0.10960251 0.4375338 -0.24611086 -0.11214035 -0.6515663 0.005392673 -0.37559333 -0.5102726 -0.31544825 -0.111469924 0.27976948 -0.12912264 0.35396987 -0.39248207 -0.6133995 -1.0804119 -0.025496917 -0.50186205 0.6023386 -0.10469751 -0.039292965 -0.3954713 0.18135971 -0.08563775 0.13539828 -0.50278425 -0.13900098 -0.17007543 -0.60928696 0.48755378 0.16546866 0.012160309 0.11482891 0.42239982 -0.115249634 0.48760447 -0.022354096 0.08694287 -0.1812662 -0.69666076 -0.25634962 0.104124956 -0.28299278 0.45948222 -0.11320403 0.15823779 -0.23314556 0.12718989 0.17208304 0.2972113 0.6111174 0.5054415 0.4006615 -0.10335825 -0.43433082 -0.3687174 0.2199904 0.3806419 -0.26448864 0.34256706 0.33738446 0.6369712 -0.22198139 0.13422453 -0.40769184 -0.25428146 -0.23678504 0.0303054 0.0059157377 0.28594667 0.15504593 0.23822585 0.31034568 -0.08784094 0.048083957 -0.112421736 -0.5624718 0.09217977 -0.5903142 0.13110755 0.26669788 -0.791433 -0.51253796 0.00625846 -0.25522733 -0.18424493 0.16605484 0.07481589
115 -0.31266886 0.051889986 -0.33172113 -0.123634554 -0.47481477 0.35679212 -0.16694003 -0.4168936 -0.1844606 -0.17706892 0.11097499 -0.2300866 -0.14965744 0.6612626 0.18892065 0.36952803 0.5453591 0.23923682 0.07682274 -0.06440843 0.12577769 0.35709965 0.33216262 -0.10914101 0.06563735 -0.108180046 0.38380387 -0.6731808 0.18222669 0.30333638 0.77159745 0.0032835514 -0.29079348 0.05738204 0.21000805 0.26661453 -0.07740276 0.07496604 -0.07753312 -0.25172547 0.46301436 -0.17383984 0.36769897 -0.16951478 0.21602452 0.28124532 0.13649552 0.020931331 -0.10723388 0.37301272 0.14722498 0.17428367 0.36852804 0.35176775 -0.23059544 -0.2420343 0.2604226 -0.47114676 0.3160813 -0.03403911 -0.32348555 0.49183765 -0.16048825 0.25465897 0.12576948 -0.5999045 0.038976107 -0.06344263 0.05206877 -0.022908885 0.039955087 0.29031032 0.07593468 0.38666084 -0.5047026 0.06568737 0.11545572 0.21408252 0.40024555 -0.63024944 -0.48474044 0.15191025 0.28569758 0.26750013 0.23600358 -0.028260665 -0.3811367 -0.11448123 0.37832713 -0.02267803 0.60085624 0.33195993 0.20084305 -0.31584948 -0.0717185 -0.24829958 0.45959958 0.2771583 0.033821158 -0.39100543 0.5008661 0.45322892 -0.08550289 0.37208048 -0.2730595 0.04295458 0.07926328 0.08982798 -0.20100722 0.3823949 -0.36380234 -0.08287605 0.3705318 0.512103 0.049015332 0.23868544 -0.3965328 0.39291054 -0.06872522 0.2867818 0.243964 0.15153328 -0.75082785 -0.44119895 -0.0038751273 -0.17137334 0.08413594 0.18630306
2 0.40826562 -0.6772569 -0.13178994 -0.43874872 -0.28491068 0.32482815 -0.047279786 0.020386891 -0.09853214 -0.53414804 0.070542604 -0.47505236 -0.71223587 -0.15093628 0.56133676 0.09933069 0.7023291 -0.079897396 -0.115469195 0.16589725 0.034594797 0.31386992 0.11816029 0.4238477 0.026620785 -0.680016 0.70276284 -0.1188871 0.33029297 0.24103318 -0.23829898 0.3877923 -0.053844117 0.66164154 -0.38685384 0.82434213 -0.039683018 -0.27095008 0.29851922 -0.17809203 0.34615794 -0.31042448 -0.124789104 0.7824296 0.12045201 -0.13348855 0.15331319 0.41556686 -0.16320728 0.3399902 0.6267846 0.29166007 -0.004589666 0.4951439 -0.70257145 -0.66601676 0.5528997 0.0047518946 0.41266268 0.568867 -0.43236518 0.45289308 0.06020384 -0.39550003 0.13483775 0.17452234 -0.32027858 -0.60066664 0.35786647 -0.05497264 -0.5917042 -0.09337167 -0.38371587 0.30609804 0.14303201 0.30540445 -0.1358566 -0.32910094 0.5009566 -0.14389248 -0.36454108 -0.10766372 -0.2845516 0.4729654 0.17590326 0.0136629315 -0.3211778 0.44023284 0.03373413 -0.30323336 0.33354077 0.63337094 0.38353854 -0.029660057 0.31658405 -0.28682446 0.21751146 0.14204575 0.41869158 0.33228 0.21044415 0.3322199 -0.46921915 -0.4245992 0.3457926 0.019943694 0.43105814 -0.33231434 0.09188432 0.42281133 -0.16781084 -0.043350782 0.14328489 0.083633475 0.6236964 -0.21137379 -0.6002366 -0.13249502 -0.18544486 0.06903381 0.21838918 0.08648901 0.19794694 -0.16424802 0.12746482 0.082422264 0.0684342 0.3145661
4 0.03802067 -0.466389 -0.64100647 -0.63220584 -0.22615848 0.18810649 0.024660936 0.09600828 -0.22211485 -0.40346858 -0.11463509 0.17147805 -0.649041 -0.054209616 -0.07621465 0.03211212 0.8685323 0.1995703 -0.20148933 -0.34719223 0.4634274 0.25751528 0.19848916 0.48812374 -0.094201855 -0.62763464 0.52000695 0.09130836 0.5107251 -0.093578495 -0.20011304 0.6840246 -0.07272741 0.3761539 -0.26681787 0.70107484 -0.048138205 -0.15015481 0.15767992 0.101730004 0.073376924 -0.012021463 -0.11058491 0.42572653 0.040643286 -0.23063248 0.29535407 0.06778553 -0.43275282 0.67442226 0.14934751 0.17350973 -0.21845093 0.43715513 0.073212825 -0.9295752 0.52798223 -0.43793038 0.52077466 0.44153765 -0.3213175 0.18845683 0.14151497 -0.5365662 0.10938591 0.23770969 -0.63535 -0.514403 0.029434452 -0.16147858 -0.36269945 0.32153514 -0.2068661 -0.03150918 0.5307444 0.2654463 -0.100484475 -0.03389948 -0.07120512 -0.33192843 -0.30445182 -0.27346984 -0.25363928 0.498916 -0.049660396 -0.011256412 -0.32585055 0.38094223 0.1778161 -0.19315207 0.44205996 0.44756976 0.0708665 0.109855115 0.16551775 -0.47062504 -0.117641725 -0.106494874 -0.17240797 0.05994723 0.03196381 0.39984283 -0.12814659 -0.3984845 0.34977996 -0.10470576 0.23212473 0.3619925 0.07809889 -0.06125265 -0.52890104 0.14705725 0.20534529 0.1978685 0.646679 -0.1435408 -0.37277228 -0.25784993 -0.10591962 -0.23793443 -0.09912902 -0.11236869 -0.5603541 -0.4972326 0.08892914 0.09682165 -0.1516734 -0.064907365
13 0.04945638 -0.38587597 -0.39946845 -0.19161639 -0.12482696 0.34672382 0.311712 0.13603225 0.044839263 0.46605927 0.03252858 0.11671762 0.7796326 0.14327434 0.1348123 0.3914943 0.15810624 0.39603293 0.3900808 0.68058777 0.2404039 -0.2599439 -0.11622949 -0.20218723 0.4898856 0.05870473 0.1733122 -0.08384767 0.32744503 0.49677745 0.0693449 0.09576368 0.09810596 0.13116527 0.010408677 0.14508764 -0.2775453 -0.555622 0.49112284 -0.21389553 -0.3442126 0.11873678 -0.38289937 0.25020468 -1.0015005 0.14093702 -0.120837495 -0.45131928 0.6544656 0.3803284 -0.7526559 -0.1028293 0.19928747 -0.22021589 -0.7217336 -0.35375732 0.1896788 -0.6305285 0.3085009 -0.19223666 -0.73443234 -0.39883894 -0.2864082 -0.50123835 -0.22338463 0.21272425 -0.57578534 0.15373002 -0.18889229 -0.13878818 -0.050871335 0.08763648 0.18245116 0.7765699 0.13341787 0.22277586 0.4864685 0.22598508 0.13446508 -0.29548258 -0.10423437 -0.08576019 -0.10006284 -0.108259775 0.2606077 0.33380628 -0.24398048 0.2588486 0.7651206 0.0061136656 0.16230693 0.4886506 -0.41168073 -0.059003077 0.33981246 -0.08014396 0.07208583 -0.013655352 -0.25811613 -0.1621804 0.5763957 0.5763367 0.017602203 -0.4246849 0.16088247 0.72834563 -0.23534776 -0.20429096 -0.36522996 -0.16359696 -0.46810743 0.11226815 0.28262225 0.13221756 0.12127034 0.25250077 0.074315205 0.56116015 0.15679602 0.6327224 -0.64116174 0.031335376 -0.13264284 -0.53294 -0.60989875 0.98434657 0.39489824 0.55457646
170 -0.0223507 0.21035026 -0.45704094 -0.16460152 -0.26572973 0.22724348 -0.35070834 -0.38496304 -0.059494518 -0.35919374 0.30700332 -0.19667439 -0.19437453 0.30854598 0.8020145 0.21331531 0.5025928 0.39251328 0.067070544 -0.346062 -0.3237539 0.7663611 0.28663108 -0.056370564 0.18619525 -0.21340835 0.44941622 -0.6355984 0.32422075 0.28711733 0.5531422 -0.047942463 0.22828288 0.39561144 -0.0371228 0.2148997 0.20263183 -0.12978202 0.34012526 -0.5015191 0.39438373 -0.28053766 -0.17457934 0.082972944 0.44899887 0.4685626 0.12247403 0.045021296 -0.040818572 0.6856623 0.0978237 0.24107696 0.14611645 0.067359604 -0.9968433 -0.19928421 0.39900106 -0.09555591 0.3335346 -0.17489868 -0.14590639 0.41834253 -0.1186883 0.55457175 -0.20213127 -0.0048994296 0.0026679537 0.15228532 0.059047822 0.10574731 0.42095032 0.18170565 0.087985024 0.24853343 -0.5102612 0.59882003 0.5664116 0.2004252 0.116222925 -0.5900006 -0.35823062 0.24388252 -0.08967021 0.26007044 0.15408744 0.34382784 -0.32481772 0.23532745 0.6325115 -0.11630653 0.7797816 0.6565424 -0.18462789 -0.23741432 0.10811726 0.27480087 0.5579837 0.47064105 0.13086046 -0.69939816 0.6241379 0.53842646 -0.083474845 0.38199696 -0.31262615 -0.039059434 -0.7190509 -0.01761066 -0.030815141 -0.03102025 -0.072255105 -0.22378214 0.28917032 0.34542224 0.013430904 0.14901234 -0.1564286 0.20850468 -0.5500079 0.076636925 0.37430608 0.032702133 -0.9520183 -0.16395614 0.09190754 -4.4786742e-05 0.43433025 0.586781
41 0.82814765 -0.32805568 -0.10949631 0.4202494 -0.1628854 0.31250566 0.3948211 -0.4679011 -0.1925483 -0.18566208 -0.05213216 0.17020577 -0.3755917 0.026927963 0.51063114 0.43510225 0.11856838 0.4829086 0.35951507 0.2755712 0.19244765 -0.3757848 0.070780285 0.33076498 -0.03474515 -0.119668834 -0.1823197 -0.031218939 0.5420322 0.29839066 0.31783524 0.011083168 -0.42015684 -0.17358136 -0.14364189 -0.30068433 -0.11854537 0.16733015 -0.23310512 -0.08372857 0.6069941 0.010630128 0.38287222 0.31054828 -0.29869908 0.016010756 -0.14277187 0.055649158 0.07572024 -0.25735667 0.06760843 0.715958 0.4811572 -0.08388105 -0.39333665 -0.054503344 0.56096673 -0.47847068 0.08550737 -0.06292111 0.08010687 0.01301488 0.16270302 -0.6082623 0.31968248 -0.35758555 -0.30060837 -0.23433863 0.18060803 0.06101975 -0.3561882 0.6028313 0.20888546 0.40886804 0.054645672 -0.3691328 0.42328003 0.31433618 -0.017837139 -0.21279852 -0.062457055 0.25273013 -0.3348253 0.21709825 -0.26975375 0.39967403 -0.020637562 -0.19926006 0.25925127 -0.3085991 0.4714838 0.4098145 -0.72886896 0.6875639 0.36443573 0.1710937 -0.2176116 -0.330622 -0.33720973 -0.07485805 -0.06731329 0.6238769 -0.41008335 0.09898027 -0.06526672 -0.26788443 -0.20698206 0.08539053 -0.22624843 0.061239608 -0.21559377 0.424787 0.008095579 -0.09286927 -0.07479797 -0.5330141 -0.3491847 0.017501485 -0.20717235 -0.12310551 0.09661205 -0.06499951 -0.065305404 -0.74554396 -0.13795464 0.097260535 -0.0697926 -0.33337983
114 -0.1301167 -0.006775354 -0.012906578 -0.22344446 -0.887809 0.3837737 0.62068397 -0.0042500156 0.20469777 0.2760599 -0.0077522383 -0.17493992 -0.10785734 0.9871891 0.04931035 0.25401416 0.6790875 0.61795735 0.37161663 -0.10406594 0.3179684 -0.0008532684 0.6954344 -0.41648978 -0.26534376 0.52807355 0.069964424 -0.6345866 0.22994116 -0.13724431 0.6387769 -0.4187194 -0.3429283 -0.16455817 0.011345382 0.09432779 0.2656679 -0.321373 0.18969119 -0.25298962 0.0017809303 -0.19564024 0.58913803 0.19374885 -0.033821687 -0.2731023 0.34460324 0.23176496 0.40715683 0.7628608 0.022457082 -0.12474938 -0.29265672 0.725075 -0.25488037 -0.53814006 0.17372969 -0.034813304 -0.27845597 0.5400313 -0.093688734 -0.14764516 0.00793644 -0.21554561 0.12079513 -0.27397272 0.21228486 0.012941203 0.13257736 0.24664831 -0.053456802 0.6399017 -0.06682001 0.44360238 0.6427401 0.34357536 0.2699043 0.54158175 -0.5293717 -0.35323846 -0.053482626 -0.08817288 -0.08491038 0.04584292 0.25502998 -0.1480735 -0.480908 -0.2968274 0.24831961 -0.097201586 0.34764013 0.49667975 -0.15776561 -0.58368874 0.069140986 0.20768656 -0.29833597 0.0046661203 0.02673997 -0.17519018 0.14308245 -0.13541767 0.4680125 0.15199699 -0.17564212 -0.051862568 -0.40182567 0.1742434 -0.8127403 0.51243925 -0.1010191 -0.53256255 0.697706 0.102375165 0.27060837 -0.3413216 -0.43198845 -0.3695461 0.05287937 0.050380204 0.19378865 -0.10495044 -0.105092295 -0.071241245 -0.42301446 0.060878858 0.26342297 0.44835097
22 0.517992 -0.4019435 0.15632118 0.012144135 -0.26591685 -0.045249246 0.041187778 0.27309924 0.45943072 -0.089469835 0.041746445 -0.282166 0.18726516 -0.14958008 -0.07023928 0.1601548 0.2557741 0.19881478 0.26509553 -0.33672774 -0.17154332 0.2698587 0.77761716 -0.23867114 -0.07175841 -0.8110395 1.0377309 0.47566855 -0.07530576 0.32102773 -0.12947457 -0.36523366 -0.7257475 0.47430855 0.22920384 0.0023178833 0.11482456 0.05815347 -0.031812456 -0.62245256 -0.39625865 0.3383864 0.14040628 0.026834527 -0.6549291 -0.1266159 -0.654051 -0.5896 -0.13796282 -0.28743547 0.6565911 -0.23373874 0.40251812 -0.29137725 -0.8140842 -1.1231214 0.41104984 -0.6279862 0.56001925 0.11563365 -0.38538107 0.12560952 -0.026645971 -0.088096194 0.14061329 -0.03664902 -0.30804813 -0.16901739 -0.35236776 0.61921966 0.0063963216 0.15760626 -0.27390665 1.0354369 0.23967376 0.7326794 0.3467774 0.23598948 -0.25116736 -0.37736142 0.18501785 0.14809589 -0.25491285 0.494987 -0.31853664 0.26310834 -0.21865177 -0.10565193 0.09440079 -0.26550028 0.23360743 0.7291731 0.49186176 0.05940933 0.24618213 -0.2940047 -0.045949217 0.16887185 0.19937007 0.41053516 0.6603347 0.1337928 -0.46534264 -0.016796974 0.25706825 -0.7597531 -0.06935763 -0.02864779 -0.270309 0.46491337 0.11736972 -0.36757222 -0.062032193 -0.19237718 -0.15073283 -0.06861446 0.019045273 -0.06739317 -0.49866074 0.13397844 0.13683695 -0.24042284 -0.40555698 -0.16265774 -0.6924038 0.2682414 -0.30292213 0.38978347
107 -0.093549095 0.32714665 -0.05842196 -0.30784702 -0.12985557 0.5747282 -0.21113889 0.21457273 0.094709374 -0.4318189 -0.19309437 0.03293169 -0.3132373 0.45847678 0.25909698 0.07767737 0.5872673 0.5042137 -0.52914256 -0.39085615 0.5442942 -0.16216975 -0.091629356 0.35563046 -0.08370315 0.015384751 0.1289486 -0.5341132 0.19002569 -0.09710156 0.11445452 -0.018298177 -0.10718428 0.06672956 -0.051363353 0.5584867 0.16301368 0.10190765 -0.2557999 0.35582167 -0.32222646 -0.24794419 0.37324712 0.16038644 0.23389556 -0.36759982 0.3236642 0.010326659 -0.65393645 0.64471567 0.053240765 0.13398643 -0.34693587 0.32850546 0.3462522 -0.6956905 0.36771238 -0.08761927 0.7877091 0.3627211 -0.38706198 0.09093462 -0.035978917 0.27032802 0.24991107 0.38510215 -0.659458 0.099971 0.41287547 -0.13611875 -0.31775546 0.34852052 -0.47110045 0.19582675 0.29927346 0.3141108 0.2418247 -0.18188287 -0.22975688 -0.7032385 -0.11532672 -0.09185301 0.20554411 0.38135996 -0.05759737 -0.2660177 0.05171894 -0.08309197 0.6115231 0.3130544 0.679221 0.87684166 0.3247366 -0.23518647 0.4445191 -0.40112615 -0.21281873 -0.048363343 -0.1396215 0.06410336 0.53707796 0.3918852 -0.4429915 -0.6083594 0.08747302 -0.32920143 -0.3812477 0.039320726 -0.10016486 0.23708239 -0.5407303 -0.10835535 0.37408757 -0.08939897 0.24472864 -0.5792883 -0.1802049 0.09240968 -0.012355708 -0.07438213 0.001385303 -0.06389913 -0.8171755 -0.184345 0.19673836 -0.44473088 0.1659007 0.1685801
129 -0.04648719 -0.7223175 0.092782065 -0.21166451 -0.7551789 0.3591864 0.5882999 0.34144515 0.1405945 0.73869574 -0.27712226 0.10071737 -0.34144795 0.31044155 0.21412385 -0.24142581 0.44438177 0.30150914 0.1694641 0.0010020193 0.52907735 0.040453598 0.18243745 -0.20870933 -0.2729721 -0.21342574 -0.14545427 0.107442886 0.35180736 0.123508684 0.042024743 -0.19878744 0.11071505 -0.19621605 -0.11165927 -0.035644125 -0.20551045 -0.07410165 -0.06966914 -0.3159495 0.0050763506 -0.10003907 0.60143137 0.48709828 -0.16531691 0.19892922 -0.19079454 -0.388873 0.38698798 0.35747904 -0.6978592 0.21051587 -0.23127499 0.3569512 0.04898752 -0.07171943 0.6158104 -0.4359916 -0.044182733 0.11769068 -0.6950638 -0.4589035 -0.35978612 -0.40275583 0.083607346 -0.4572418 0.012876699 -0.04607913 -0.0055900896 -0.022846213 0.91496927 0.39980432 -0.028906543 0.5100092 0.15713532 -0.040099796 0.3935047 0.18584692 -0.0045443964 -0.13078462 -0.3182638 -0.11252147 -0.01718327 -0.0726567 -0.07769747 -0.048265573 -0.12183501 -0.32752734 0.42993587 0.08401852 0.6951367 0.054013472 0.2896844 -0.1641426 0.004900053 -0.24941903 -0.41688493 -0.5278831 -0.5333843 -0.3133071 0.10132663 0.74088836 0.04563567 0.1574379 -0.16114564 0.14713705 -0.5938568 0.11020524 -0.12230462 0.28134188 -0.12988138 -0.24210241 0.53432953 0.010725328 -0.18099353 -0.041575987 -0.31107342 -0.27549306 0.38926646 0.24342182 0.14971852 -0.3593488 0.42879552 -0.19304492 -0.41631344 0.45061335 0.35315853 0.5103941
288 0.16245413 -0.047385596 -0.124392934 -0.40580684 -0.04852673 0.09268515 0.061374966 -0.3942018 -0.13590804 -0.359428 0.09458478 -0.38176063 -0.030938147 0.25507146 0.46750024 0.33637458 0.5989996 -0.027003346 0.55460024 0.3422144 -0.38144574 -0.043027952 -0.05884137 0.0958471 -0.08785513 -0.47246262 0.044607837 0.018899914 0.51900303 0.21069685 -0.16845919 -0.30845493 -0.7190442 -0.113456964 -0.40445936 0.5336811 -0.33137017 -0.3251208 -0.19883798 -0.27890822 0.38861683 -0.3656803 -0.50656104 0.044037938 -0.11678842 0.29549298 0.037737615 0.35855156 -0.25169024 0.10733944 0.54755694 -0.038329456 0.054499216 0.17856583 -0.09990887 -0.60705805 0.43800676 0.16020377 0.54805547 0.22424051 -0.48005044 0.40627646 -0.31198093 -0.03224663 0.027134605 0.03262137 -0.2674571 -0.11418485 0.112577334 0.21371351 -0.20763816 0.33981475 -0.31830835 0.39376357 -0.1344648 0.21126333 -0.08228817 -0.012700439 0.4443719 0.34341037 -0.29151535 -0.08172363 -0.115947455 0.16077203 0.08772645 -0.34563237 0.010295083 0.268052 0.4166939 -0.2359717 0.42766154 0.4256769 0.51011604 -0.11404817 0.53679276 -0.20741121 0.2820823 -0.05608716 -0.21644367 -0.11949514 0.43205887 0.31879568 0.28649855 0.41074735 -0.5309436 0.1340639 0.09203155 -0.22511366 0.2707429 0.44869235 -0.045775115 -0.019974232 -0.092769764 0.3157114 0.5884219 0.24684581 -0.5312143 0.27375165 -0.08920051 0.4362446 -0.019499732 -0.61761427 -0.09729784 -0.45477057 0.07722096 0.2035346 0.23781681 0.31720403
106 0.32501718 0.27681047 -0.14222513 -0.24236573 -0.18370622 0.00016666099 0.39702958 -0.17417632 -0.33592352 0.16266643 -0.029195137 0.2425419 -0.18279192 -0.23238096 0.5226322 0.34537533 -0.46064508 0.58589053 -0.26502946 -0.36792034 0.607637 -0.0002659025 0.66711044 0.39442083 -0.2058007 -0.11700904 0.2231088 0.010655462 0.74739546 0.3756754 -0.32112074 0.127572 -0.3912557 -0.09043669 -0.6076984 0.22109327 -0.014520119 0.21858858 0.17638548 -0.21581908 0.2009344 0.01863568 0.32681438 0.17331351 -0.26106933 -0.39600614 -0.05142404 -0.31057647 0.5060033 0.34499392 0.17214529 0.34828076 -0.57298577 0.35246766 -0.37662783 -0.34923008 0.4452763 -0.660812 0.14068049 -0.063533135 -0.30327716 -0.58653134 0.31590882 -0.15979548 0.17421526 0.10919762 -0.277717 -0.23297355 0.036316995 0.60322535 -0.0830985 0.21618883 0.14740342 0.32774517 -0.34550592 0.24952516 0.007310681 -0.11301312 0.3555049 -0.32864934 0.3521309 -0.2344215 0.2996417 0.37469742 -0.18068762 0.0660406 0.36342126 -0.14134376 -0.08804961 -0.43375686 -0.058782715 -0.13844433 0.53900117 -0.21391758 0.65017545 -0.5461209 -0.03636575 0.040281147 -0.6248488 -0.13515809 0.58012253 0.0549987 -0.281932 0.6848671 0.11445099 0.2429999 -0.72603554 -0.10494053 0.4200407 0.41959277 -0.20537612 -0.26631767 0.31801403 -0.22701117 -0.88716394 0.21374954 -0.27853718 -0.1638741 -0.34400895 0.14674966 0.17715913 -0.14260744 -0.069154866 -0.7090937 -0.61951786 0.18969886 0.9037488 0.19196975
132 0.22309163 -0.5332576 -0.2847047 -0.08460603 -0.2718779 -0.24007332 -0.119201235 0.0018646894 -0.113350525 -0.52675784 0.28236064 -0.15223446 -0.41601554 -0.46592718 0.6809834 0.09848139 0.4197085 -0.08970528 0.04379999 0.17821233 -0.17068417 -0.62339514 0.4333116 -0.16879576 -0.34764072 -0.38913834 0.5035513 0.0781525 0.5299358 0.61727065 0.27690595 -0.014397685 -0.33963448 0.12445598 -0.20592545 0.5784815 -0.00953359 -0.5409959 0.11955622 -0.2644947 0.67956764 -0.57638586 -0.49409485 -0.08717077 -0.1846037 0.13530166 0.26076654 0.66374606 0.18930957 0.064566396 0.24720325 -0.36668846 0.07973454 0.5895371 -0.16013046 -0.58647364 0.4226489 -0.24866964 -0.06401966 0.69734704 -0.23499912 0.59713864 0.21763714 -0.073454104 0.20720273 -0.10667148 -0.053635012 -0.3601208 0.56548804 0.060167614 -0.52002233 0.36766645 0.23784666 0.42936134 0.2106357 0.77804875 -0.13243367 0.45906857 0.32168153 -0.005116974 0.2341921 -0.36407834 -0.19233173 0.43790707 -0.054311346 -0.21491529 -0.17792295 0.44618833 -0.12972376 -0.4358575 0.08470438 0.75323755 0.56741804 -0.38780034 0.34555665 -0.37863675 0.35200128 0.052832533 -0.112233385 -0.34644744 0.44853732 0.7434219 0.17166163 -0.39970732 -0.09768335 0.21481112 0.21592563 -0.021000482 0.50315744 0.39611363 0.10986843 0.06350888 0.019478662 0.39467573 0.546401 -0.19397327 -0.9556368 0.15985326 -0.2543842 0.6561471 -0.12257986 -0.679365 -0.3061705 0.06592724 0.13735873 0.54970133 0.13242634 0.51608205
160 0.0053944355 0.14555381 -0.112073384 -0.027649267 -0.89662176 -0.07715877 -0.06390036 0.5297441 -0.108799554 -0.46858236 -0.07019167 0.18670684 -0.788958 -0.20530292 0.5715667 0.1374549 0.32262594 0.39293188 -0.3339026 -0.3136972 0.4541819 0.72686034 0.08650348 -0.05895205 -0.74822295 0.019482229 -0.3681251 -0.35988694 -0.06523958 0.56692374 0.38677382 -0.3016245 -0.05401903 0.34709063 0.0131820105 0.016660172 -0.76032925 0.00095249177 0.19146815 0.29964536 0.1898631 0.18299374 0.038441397 0.58750427 0.068604976 0.28505513 0.28980222 -0.07120996 0.117501125 -0.474854 -0.26141486 0.088090934 -0.08363494 0.23805714 -0.32347792 0.17835988 1.2141603 -0.08790836 0.017695151 -0.3618302 -0.61582506 -0.3389276 -0.41913724 0.04590643 0.45667478 -0.30683482 -0.38068604 0.043666866 0.33657983 -0.6041003 0.10976135 -0.13981035 -0.44508478 0.61975604 0.28065196 0.30129007 0.05471645 0.23855285 -0.6680356 -0.074874304 -0.41433233 0.10524078 0.072242126 -0.24763262 -0.059410248 0.34805897 -0.010479209 -0.27224907 -0.51907474 -0.1110645 0.46067166 0.5886291 0.024535554 -0.45843607 0.6188743 -0.23999277 -0.32751578 -0.11821577 -0.658165 0.4497319 0.38518187 0.6181014 -0.37267923 -0.30139247 -0.032233384 -0.71770906 -0.319393 -0.35450765 -0.22468564 -0.25896907 0.032711323 -0.25737262 1.1528143 0.29396066 -0.47896656 -0.29062003 0.01143229 -0.40675113 0.29684785 0.446788 0.06677924 0.24448171 -0.036790445 -0.11412202 -0.10713589 -0.09378631 0.32187852 -0.12973772
84 0.32765222 0.03710979 0.36192244 0.20742844 -0.109373055 0.48753625 0.5329523 -0.57840145 -0.016911052 -0.36333767 0.15675372 -0.092808776 -0.5209398 -0.3116993 0.63511163 0.15946557 0.70964885 0.26858905 0.7846817 0.41056165 -0.20945032 -0.017024606 -0.40649062 0.18544762 -0.46013632 -0.5124678 -0.06454503 0.15618396 0.5553217 0.33545503 -0.13195747 -0.46954295 -0.5448325 -0.26434657 -0.20316333 0.426163 -0.34815723 0.035319477 -0.27049512 -0.5033726 0.29523355 -0.53014517 -0.50008523 -0.17779857 -0.23451324 0.02476979 -0.27852374 0.18150127 -0.08695813 -0.059184786 0.5414032 0.06504914 0.16884336 0.20608899 -0.058275975 -0.32168344 0.3773702 -0.77319473 0.2663975 0.024997227 -0.5035204 0.42384264 -0.15435246 -0.18542846 0.4123611 0.10076248 -0.38512245 -0.056255497 0.03627256 0.1326661 -0.19207156 0.06563068 -0.15554827 0.41501468 -0.19167075 -0.022585154 0.3072973 0.39814484 -0.021923043 0.10626513 -0.15840715 -0.25657186 0.25798085 0.78653634 0.19299552 -0.39377177 0.49402627 -0.001000284 0.2687091 -0.026611123 0.06407871 -0.03222064 0.37533522 0.3075953 0.24012676 -0.3421415 -0.17855795 0.050395608 -0.23054801 0.190344 0.4483612 0.5444348 0.56428766 0.44213933 -0.20979725 0.20227091 0.0056709824 -0.22782563 0.14423294 0.5132332 -0.25658315 -0.055315334 -0.17297632 -0.17221443 0.37095827 0.23838101 -0.1864412 0.24971898 0.011828173 0.09939096 -0.25066927 -0.43959916 -0.38459358 -0.7055523 -0.28487563 0.018090285 0.5945954 -0.03522715
169 -0.0168975 -0.42680407 -0.61103857 -0.10262714 -0.35514098 0.21753587 0.026106326 -0.6753048 -0.24286745 -0.077389844 0.044794712 0.10180022 -0.35230076 0.5238104 0.5059989 0.094956905 0.37290978 0.07305979 0.12369018 0.006508462 0.1742354 0.76970243 0.21379772 -0.23297647 -0.27026355 -0.24053673 0.19485533 -0.45291454 0.21846665 0.06778241 0.7373842 -0.26696885 -0.06967606 -0.017180076 0.3595155 0.065971114 0.18553644 -0.092761226 -0.054050714 -0.463512 0.27275044 -0.10830211 0.23029289 0.03790383 0.35950404 0.021239864 0.17545803 0.2298975 0.31373426 0.65760475 -0.19291303 0.07571758 0.40308264 0.23356752 -0.59134036 -0.50764686 0.21574299 -0.3962192 0.1588288 -0.10860848 -0.24106367 0.23059301 -0.1497453 0.26640192 0.041730147 -0.36085838 0.27421477 -0.34724247 0.008363492 0.26668626 0.2498726 0.28393567 -0.14323534 -0.09452491 -0.31715167 0.33048785 0.56641364 0.52274317 0.023390682 -0.53512806 -0.27033305 0.16902314 0.09809739 0.41640598 0.30095562 0.037746668 -0.23078214 -0.13464555 0.5466006 0.0002112203 0.8100917 0.62253 -0.12778045 -0.2987196 -0.18385158 0.017379427 0.1563487 -0.11378649 -0.11672677 -0.28509542 0.5794446 0.58296394 -0.105491266 0.1276222 -0.16295202 -0.113931045 -0.24783723 0.16136289 -0.29937726 0.26460132 0.11131086 -0.010124241 0.22902228 0.7062289 -0.36253637 0.086676426 -0.5186922 -0.19626904 -0.1252469 -0.27364188 0.19054502 -0.31879506 -0.7001488 -0.43873182 -0.3089603 0.072477415 0.4487283 0.44657996
212 0.13227804 -0.2438176 -0.43207952 -0.105808444 -0.1988551 0.07459185 0.1324033 -0.33717862 -0.3196236 -0.07739343 0.6787546 0.08579631 -0.33087823 0.0061229113 0.06535407 0.11620588 -0.18841216 -0.4798929 0.37309724 0.35150248 -0.66528183 0.25437573 0.62043226 0.06455599 0.32227013 -0.1301938 0.33009818 0.33079493 -0.010969767 0.18769927 0.30805835 -0.0001642602 -0.32856604 0.13615172 0.15464975 0.79286826 0.09568704 0.0053644106 0.10278925 -0.21182078 0.14181826 -0.28974074 -0.02921013 -0.37130603 -0.4629847 0.1377163 -0.094111316 0.027041864 -0.4382085 0.060468983 0.15893425 -0.08350307 -0.07664274 0.23068482 -0.020582102 -0.7727625 0.4393158 -0.477471 0.35717618 -0.038425025 -0.22127794 0.20914267 0.4531056 0.08895264 0.26881427 -0.38873267 0.17195994 0.1516762 -0.3097952 0.28583556 -0.22731511 0.35743308 -0.047499597 0.11481738 -0.25096437 0.7067671 0.4769008 0.19504203 0.5202454 -0.13460109 0.07922227 0.14099306 0.16845527 0.5449941 -0.19545485 -0.63499135 -0.24213032 -0.1440553 0.09649964 -0.12341853 0.5042089 0.091033265 0.45366693 -0.13891771 0.2592942 -0.42242986 -0.114269055 0.21539623 -0.3041227 0.09441764 0.9284456 0.44143692 -0.1249156 0.565057 -0.07794488 -0.24280533 -0.5404415 -0.07203827 0.23105283 0.665429 0.05446528 -0.03290478 0.2036502 -0.21830477 0.009693228 0.4377739 -0.16910207 0.36774158 -0.17831801 0.51157284 0.271345 -0.28469452 -0.6444491 -0.46890444 -0.27435666 -0.10332503 0.0100469515 -0.054304015
377 -0.07704978 0.053602535 -0.56800425 -0.25071853 0.30362728 0.1620023 -0.34052178 -0.3001573 0.15770765 -0.038915753 0.07601876 0.086363465 -0.5656043 -0.5135842 0.33196995 -0.33086666 0.5865713 0.2928946 0.15842937 -0.2279952 0.2989703 0.042329416 -0.23879796 -0.13652262 -0.14936787 -0.10665432 0.53921044 -0.65964836 0.5064932 0.74917054 -0.20944715 0.28721315 -0.12511988 -0.1323396 -0.24163795 -0.095375024 -0.0018509977 0.2688507 -0.1415192 -0.15997043 0.20470779 -0.24619694 -0.486058 0.6711709 0.19977656 -0.21563813 -0.02626931 -0.2621756 -0.07707151 -0.1400717 0.3770811 0.0976726 -0.4756591 0.35765314 -0.38533613 0.08086981 0.046003394 -0.26018664 0.07212029 -0.30533248 0.1905849 -0.19287093 -0.07254034 0.057141077 0.17158876 0.23232667 0.33629745 -0.10634894 0.0906214 0.12525986 -0.64613295 0.103565775 -0.035573017 0.285903 0.27557293 0.41315338 0.1878534 0.07077833 -0.6739995 -0.49242896 -0.265253 0.29131618 -0.6535799 0.15621087 0.32468566 0.2614472 -0.11816497 -0.03569283 0.09926935 0.011959368 0.085134596 0.5124842 0.21890089 -0.035081744 0.37906325 -0.13373026 0.44333848 0.11289892 0.35792074 0.40905288 0.04232165 0.6737586 0.33961764 -0.12210158 0.058847 -0.45958734 0.078915216 -0.9509219 -0.3831343 0.8552002 -0.12734386 0.17743377 -0.35167542 0.03741839 0.54586124 -0.29181293 -0.3299979 0.13625081 -0.83876157 -0.25115517 -0.6086047 -0.7089616 -0.44370103 -0.18026206 -0.1665002 0.22977278 0.24663009 0.42517817
139 0.21396859 -0.28780693 -0.026230522 -0.012211145 0.07475392 0.21509093 0.5572781 0.34689468 0.33389068 0.04989044 -0.0067808554 -0.4132352 0.11378381 -0.6206897 0.46548182 -0.32696557 0.40267166 0.22710226 -0.041753948 0.2829475 0.8025405 0.4562225 -0.34601977 -0.29956475 -0.23864852 -0.21729721 0.026374215 0.41905212 0.15969689 0.7705266 -0.3079519 -0.20135105 -0.31866762 0.49936748 -0.20282345 0.2900239 -0.42786628 -1.1008239 0.015890459 -0.037200484 -0.11758147 -0.03022363 0.35834986 0.5482196 -0.069974296 0.42446196 0.20528172 -0.42494738 0.5707732 0.09514093 0.01299961 0.11819523 -0.42044744 -0.08492393 -0.31209117 0.19499435 0.56638354 -0.66692317 -0.03495288 0.34741914 -0.7454498 -0.46297088 0.05839237 -0.32364705 0.19304033 -0.10999937 0.088484876 0.28758544 0.11958457 0.051812682 0.29859364 0.05537963 -0.43110543 0.722004 0.46158886 0.82898104 -0.008945761 0.08410947 -0.003037539 0.37298977 -0.5757964 0.1555951 -0.024842614 -0.21461786 0.43291685 -0.027946386 -0.36988327 0.038808804 0.5507051 0.14942142 0.7129727 0.18039992 0.74033713 -0.024142392 0.10982962 -0.3102266 -0.21735522 -0.6709905 -0.08045313 -0.22535667 0.5828106 0.786275 0.15844058 0.053383704 -0.50112224 -0.31314674 -0.2963646 -0.051168367 0.2606198 0.2159249 0.10114239 0.099056646 0.42690885 0.30759102 0.22436449 0.13528582 -0.33898085 0.08491135 -0.02988785 0.25105616 -0.07141055 -0.5745781 -0.12608182 -0.25832912 -0.16744861 -0.21719764 0.12633416 0.31324288
49 0.10191679 0.13150552 0.38117245 0.28238127 -0.20193593 0.28307217 0.420536 -0.32583153 0.06954979 -0.35634112 0.4747885 -0.96844727 -0.36556643 0.0967235 0.8044799 0.32459053 0.38669798 0.44716737 0.5424197 0.5241906 -0.49341375 0.035792228 -0.1850052 0.09506931 -0.5673297 -0.21308146 0.205815 0.12673898 0.05444998 0.26709732 -0.052901734 -0.5556524 -0.45744038 -0.37155265 -0.08132823 0.23123217 -0.31157032 0.13337126 -0.16325065 -0.51110345 0.6450751 -0.46331602 -0.54621917 -0.26424903 -0.4210294 0.2188999 -0.25384673 0.25569156 0.067159645 -0.054260306 0.8242695 0.26502088 0.06516382 0.4640146 -0.54666585 -0.35545594 0.50077164 -0.66900045 0.17129117 0.034956787 -0.1544448 0.3343345 -0.10733431 -0.52655196 0.4649662 0.062387574 -0.27886245 0.27524108 0.10068866 0.5144374 0.05827495 -0.19159156 -0.07893053 0.40805954 0.40378776 -0.20904668 0.45290348 0.2103066 -0.24576369 0.036410417 -0.26785734 0.08436468 0.07343037 0.5984808 0.3766029 0.26059294 0.2662251 0.11806086 0.3592986 -0.3101263 0.24027923 0.5882927 0.043919433 0.27783167 0.44943118 -0.5438276 -0.14521767 -0.13839102 0.09834653 0.4336238 0.7051455 0.22859791 0.5703648 0.559274 -0.44156134 0.68266046 -0.020851446 -0.6815169 -0.47806314 0.5496861 -0.08780628 -0.07651917 -0.069069445 -0.14079484 0.3982569 -0.14343545 -0.4742224 0.34957212 -0.06432491 0.13973013 -0.21240923 -0.44805792 -0.19430542 -0.64591277 -0.182196 -0.28033993 0.124468714 -0.19620202
137 0.20034283 -0.23924288 -0.1658485 -0.1855925 -0.10987019 0.32427764 -0.22372605 0.09905574 0.18754636 -0.70076126 0.3043925 -0.30686724 -0.34958124 0.16447315 0.58488154 -0.3375021 1.4193913 -0.07575056 -0.44540662 -1.0053474 0.12583417 0.2126288 -0.006051176 0.80731404 -0.25640413 -0.6315642 0.5754999 -0.4691763 0.25930923 0.32654828 0.42244318 -0.47477105 0.004035115 0.4635928 0.12414597 0.43773657 0.3100745 0.015781919 -0.15735307 -0.33756506 0.22121453 -0.23012021 0.41995242 0.18312386 -0.3021835 -0.44347492 0.0037050974 -0.14821418 0.097531565 0.51763093 0.40559536 0.0078009753 -0.29073134 -0.06087567 -0.03237784 -0.72838 0.64015925 0.038326245 0.14438269 0.71980584 -0.4569478 -0.07681938 0.34314522 -0.22041473 0.007943332 0.21070552 -0.8636097 0.23076056 0.24466164 0.36300415 -0.4110992 0.23496342 -0.4396565 -0.16335903 0.2555615 0.63430226 0.060450338 -0.20353304 -0.027155796 -0.37887752 0.32167873 0.0343493 -0.40369102 -0.140277 -0.14000368 0.09473599 0.044821925 0.39653614 -0.02798931 0.18371387 0.97539747 0.37567538 0.5134272 -0.06275269 0.0026043733 -0.30689457 0.16876431 -0.33593667 -0.2639747 0.51726943 0.43410143 0.17107458 -0.51554006 -0.33550343 -0.12487727 -0.47663042 -0.05397324 -0.1328087 -0.1954882 0.3375869 -0.18847401 0.39366257 0.27659902 -0.24447231 0.6655386 -0.30941105 -0.47849566 0.23486266 0.15011145 0.27874723 0.112830475 0.18329147 -0.6956498 -0.39952004 0.5346493 -0.49532053 0.15872268 -0.04918946
40 0.72518075 -0.061202127 -0.66581494 0.29070413 -0.48644194 -0.3442777 0.27705708 -0.58183885 0.199103 -0.16525263 -0.26631638 -0.42898154 -0.05633343 0.19626296 0.04197048 0.11765714 0.5566435 0.68266445 0.02112779 -0.28257445 -0.01601588 0.61417425 -0.40726125 -0.1373131 -0.49808687 -0.22224437 0.19112352 -0.13395357 -0.0923395 0.34680945 0.40755606 0.12438426 -0.074991375 0.30667114 -0.14075725 0.36521342 -0.14722635 -0.60532355 -0.048470818 -0.04059808 0.2651097 -0.49038407 -0.2156075 0.09713773 0.15157214 0.403498 0.59945226 -0.18706636 -0.2292149 0.32223678 -0.251611 0.037030514 0.20070937 0.0009464654 -0.54734546 -0.022553204 0.5889451 -0.24574459 0.005225982 0.32767674 -0.2405612 0.06779302 0.54440635 0.1817588 0.11386559 0.2921745 0.12808818 -0.35496998 0.22768702 -0.39987856 0.21843834 -0.16344655 -0.17184049 0.9591363 0.25826892 0.15469924 0.594994 0.35716116 0.010089124 -0.24865387 -0.00236867 0.30978256 -0.48452336 0.4606015 0.4841 0.15573569 -0.23636562 0.05233986 0.48489225 -0.20244282 0.5870128 0.5726076 -0.29610243 0.1849032 0.5678538 -0.2176534 -0.066390365 -0.4644256 0.011339776 -0.3562776 0.5736128 0.29702097 0.1866599 -0.07080272 -0.12682858 0.033412907 0.05502631 -0.048726324 -0.5416902 0.07128179 -0.2954687 0.077256896 0.0031011116 0.7864993 0.49170646 0.3785474 -0.09575162 -0.024802944 -0.12861998 0.6295946 -0.75714165 -0.33899528 -0.1898432 -0.40005514 -0.2186235 0.7815438 -0.39458433 0.29887676
42 0.3644422 -0.21818237 -0.27932414 -0.19638728 -0.52691036 0.21225706 0.27423623 -0.22446689 -0.49839824 0.019351559 -0.13143006 -0.051054608 -0.2941833 -0.44911748 0.2576733 0.32528853 -0.18414643 -0.0768523 0.39460427 0.068011105 0.21258123 -0.013096802 0.036522746 0.4764126 0.14660989 -0.1801916 -0.11821627 -0.18309452 0.2031319 -0.008291438 -0.06653151 -0.2587729 -0.16956711 0.03584786 -0.432968 0.32530636 0.021860037 0.05558187 0.09145217 -0.01681357 0.6428389 0.075369805 0.4009729 -0.17672126 -0.25363526 -0.07708088 -0.034351304 0.1815212 0.1086836 -0.24983084 0.13544044 0.5783081 -0.042995065 -0.13105989 -0.19904262 0.1021102 0.4051822 -0.49486777 0.018171 -0.5082485 -0.20616443 0.14787416 0.40373084 -0.2869419 0.31859633 -0.69191873 -0.017082332 -0.13245408 -0.24964151 -0.28169793 -0.16697186 0.05274963 0.21230082 0.70045483 -0.25599855 0.4611312 0.24093273 0.025178 0.18509921 -0.9116071 0.08632589 -0.3506093 0.13623492 0.6576023 -0.25787115 0.21549912 0.13149007 -0.5775679 0.58855003 -0.007674305 0.03847058 0.18188749 -0.16036512 0.15572084 0.47222605 -0.014058645 0.62956786 0.22195217 -0.54878926 0.092069894 -0.09203666 0.1804802 -0.027600646 0.6582181 -0.39583758 0.23208992 -0.6064245 0.25174263 0.014256857 0.1420149 -0.25823668 0.44041073 0.35266677 -0.055346396 -0.16047786 -0.1370656 -0.45060053 0.2505955 -0.45513102 0.34528452 0.03349863 -0.8063853 -0.40295318 -0.50467515 -0.66092056 -0.08942342 0.33696553 -0.34462392
50 0.14253177 0.17854924 0.0562855 0.05547448 -0.24128172 0.04051123 0.45741057 -0.25306523 -0.1927667 -0.09663465 0.47371668 -0.62310225 -0.45586082 0.1078055 0.59784454 0.25225857 0.23571275 0.44108996 0.6706084 0.68797714 -0.54951984 -0.23095122 -0.1101565 -0.1763154 -0.26878452 -0.2459724 0.07080548 0.1500416 0.25785688 0.15209194 0.12993981 -0.35228252 -0.48661965 -0.42450985 -0.16691342 0.4256119 -0.28726727 0.13110217 -0.096834935 -0.3493106 0.6929359 -0.41420925 -0.6018236 -0.11643756 -0.49935168 0.26016513 -0.18847306 0.2933728 0.07183762 -0.10485664 0.748319 0.19515121 0.055977635 0.43667576 -0.43767285 -0.39656273 0.61616796 -0.44510493 0.36185524 0.20722981 -0.05209005 0.35762748 -0.042978365 -0.1968941 0.3112763 -0.16962437 -0.18101431 0.38773325 0.20612893 0.12893496 0.01046813 0.09271238 -0.42896912 0.6035533 0.24386811 -0.07333027 0.25844234 0.13264829 0.001592472 0.13949078 -0.35393128 0.093935564 -0.094880626 0.64705545 0.33430678 0.19327046 0.3764461 0.22803424 0.4079742 -0.45553407 0.32121953 0.5669249 -0.11896087 0.41214436 0.62078154 -0.28627896 -0.4851021 -0.07543895 -0.082490325 0.25076878 0.68436456 0.19973473 0.469988 0.44834104 -0.4212689 0.48662224 -0.27727103 -0.49114794 -0.34199497 0.37467298 -0.07611439 0.09238524 -0.14577538 -0.32958934 0.3742145 -0.18394706 -0.4992166 0.17560592 -0.060959738 0.20652726 -0.3123045 -0.44100428 -0.27919084 -0.5849023 -0.15104406 -0.06436118 -0.042461857 0.009106723
74 0.7237967 -0.42933187 -0.26488906 0.20506309 -0.0786196 -0.09168189 -0.18688653 0.19743586 0.13754024 -0.21532854 -0.15864263 -0.18544115 0.048580244 0.021706872 0.24088107 0.14452654 0.48476407 0.0036555328 0.1475798 -0.5004559 0.09971893 -0.12092408 0.3592506 0.24656166 -0.03290088 -0.07556756 -0.23742794 0.40142244 0.190047 0.16488427 -0.37139747 -0.13186733 -0.3585366 0.6823714 -0.118601546 -0.018806746 0.12493058 0.30312642 -0.2088885 0.10682533 0.5622565 0.6113341 -0.089995414 -0.352623 -0.7287784 0.14209281 -0.10112649 -0.4299435 0.124610804 -0.2519815 -0.2976552 -0.22306065 0.0360823 0.18805398 -1.1323227 0.010319581 0.7074599 -0.2508879 0.35776508 -0.5400173 -0.18049124 -0.21130179 -0.009267501 -0.0070329467 0.19489273 -0.78796226 -0.23494934 0.055342305 -0.3324595 0.007183012 -0.18202302 -0.16048352 0.43643725 0.36335483 0.2993384 0.85772645 -0.10471074 0.23525114 -0.65650177 -0.6843146 -0.1780834 -0.02718112 0.12672241 0.45520732 -0.5944116 0.05539695 -0.29155388 -0.028616693 -0.05366412 -0.17533784 0.28589454 0.14238101 0.059877854 0.062494416 0.2505458 -0.12136212 -0.0021185938 -0.21078242 -0.25818384 -0.010591282 0.40540403 0.71287704 0.01839795 0.29896986 -0.039058357 -0.123992555 -0.051554784 -0.229063 -0.24650657 0.3369112 -0.09359915 0.34421113 -0.055997387 0.23806877 -0.10707907 -0.29694447 -0.11357137 0.12949383 -0.5709473 0.29487944 0.09178996 -0.89076656 -0.6837975 0.15929323 -0.07674275 0.23977084 0.19746639 -0.07975536
87 0.58387446 -0.46178645 0.14225012 -0.12537663 -0.21729782 0.24453676 0.34943768 -0.62062 -0.29928344 0.068123505 0.12670527 0.38210365 -0.31854177 -0.5484759 0.5777256 0.5647766 0.4908202 0.3063166 0.58148175 0.1218053 -0.020000752 -0.7113199 -0.040074773 0.4430227 0.020496812 -0.53045166 -0.0046921712 -0.17947853 0.5552919 0.2355343 0.12270561 -0.7443499 -0.2864147 -0.26946005 -0.12813444 0.37822947 -0.36659262 0.36966127 0.0051558805 -0.30980277 0.99233395 -0.058493223 -0.01163653 -0.15033247 -0.36043918 0.32936996 -0.26205006 0.5366954 0.30443925 -0.60223585 0.5909782 0.39075124 0.1382217 0.026546717 -0.23822175 -0.40702617 0.35251856 -0.5650493 0.11401688 0.030705946 0.036144197 0.18454836 0.33031964 -0.37141353 0.115596496 -0.59632915 -0.0033410562 0.033297274 0.26366362 0.0511078 -0.36504862 0.2219813 -0.19875185 0.28278306 -0.3018273 0.33546257 0.37227696 -0.109406024 -0.30753535 -0.034448247 -0.19548915 -0.14487231 -0.056939114 0.40124986 -0.3519162 0.30637333 0.43381074 0.080924764 0.51032573 -0.20589355 0.5406925 0.11625865 -0.2534291 0.25699928 0.26806816 0.1890523 0.11147237 -0.086360015 -0.4432238 0.08054721 0.17463896 0.26233125 0.23090583 0.6943008 -0.32622924 -0.38019335 -0.22177601 0.14670916 -0.20862278 0.12990111 -0.19169499 0.55865264 0.20050801 0.037171 -0.2710754 -0.43443912 -0.49369687 0.26709595 -0.34434044 -0.070976354 -0.007665926 -0.5125856 -0.3520421 -0.9447326 -0.2543282 0.077903636 -0.25808728 -0.47158173
175 0.003511344 -0.14984046 -0.39618036 -0.32146412 -0.28613314 -0.011585569 -0.16829884 0.16337718 -0.2791486 -0.34865618 0.2627958 -0.24454595 -0.31950453 0.19855386 0.826189 0.14959472 0.6391482 -0.32245338 0.14951777 0.08107532 0.12856725 -0.05752056 -0.5151958 -0.1961262 0.07887804 -0.3379792 0.25989652 0.12190885 0.30579838 0.16077152 0.045047984 -0.13712004 -0.7681203 0.00037676765 -0.5072252 0.25398695 0.20499767 -0.4868982 -0.16533352 -0.51427037 0.37161773 -0.47897893 -0.34362262 0.2593787 -0.12850577 0.018680207 0.33587947 0.3459152 0.084991485 0.21225342 0.4266963 -0.1916941 -0.14713329 -0.033896398 -0.1595309 -0.4754947 0.3438138 0.16369916 0.255458 0.6136772 -0.30310103 0.33646703 0.11801247 0.12569658 0.07581247 -0.3207908 -0.31302303 0.09191457 0.17175226 -0.06994357 -0.096917 0.36531258 -0.3528776 0.6707997 0.011296184 0.7924269 0.025712952 -0.15950818 0.6336597 0.20869593 -0.10049539 -0.24001092 -0.29449752 -0.03629511 -0.101399854 -0.29562524 -0.40521201 0.30299088 0.08793185 -0.14533252 0.62525874 0.5545796 0.4893244 0.16618745 0.19763616 -0.37775972 0.3030356 -0.17414103 -0.59818965 -0.106817126 0.7747472 -0.0680287 0.23462488 -0.20734985 -0.21662481 0.21263905 -0.030928433 -0.12871298 0.29432774 0.5887037 -0.014962627 0.19977252 -0.06612322 0.010254941 0.13338715 0.12665379 -0.8794511 0.18052545 -0.11352599 0.4301769 0.11267543 -0.5050635 -0.43786854 -0.4525279 0.46198872 0.094837405 0.041488547 0.07707094
20 0.26153353 -0.28637442 -0.13625394 0.14856493 -0.34892115 0.43729705 0.25916713 -0.25863156 0.24845539 -0.33068392 0.113086 -0.07963326 0.6247473 0.09095452 0.17898272 0.3151613 0.40783563 0.50265193 0.4390446 -0.026278075 0.32661828 -0.18346764 0.23210675 -0.17820571 -0.00023011511 -1.0714965 0.4915056 0.428874 0.19586278 0.11038247 -0.025562292 -0.60341674 -0.32081637 0.64917845 0.11817256 0.44432202 -0.02691371 0.4506349 0.22618724 -0.6486906 -0.25815243 0.50360525 -0.032974668 -0.2484982 -0.6069041 -0.0706287 -0.5341154 -0.7709609 -0.17848371 -0.23996602 0.6297079 -0.23287095 0.1064203 -0.5037326 -0.6613612 -0.88360065 -0.010890996 -0.8538107 0.70421773 0.15029101 -0.3659682 -0.26954272 0.11363622 -0.24645045 0.43029305 0.22917865 -0.13187456 -0.28175265 -0.49269024 0.45622697 0.114100695 0.29010278 -0.10594388 0.78092605 0.38335055 0.77271324 0.41920552 0.36454764 -0.58047336 -0.36257464 0.013007473 -0.021717215 0.12672748 0.54555196 -0.19284715 0.29778463 0.083917685 0.14056578 0.44464976 -0.07810332 0.14311299 0.34635592 0.14668974 0.69346124 0.04054611 -0.3164589 0.05836918 -0.15268134 -0.13647176 0.8869284 0.5346961 0.3846991 -0.33666646 -0.1599415 0.55961967 0.024636317 -0.2023051 0.33997506 0.17962438 0.28098556 -0.06635336 -0.0061022593 0.010140478 -0.1584207 0.1173854 0.13175853 -0.26395032 -0.22069107 -0.45390454 -0.2393468 -0.14017415 -0.9009356 -0.46993953 -0.4075513 -0.5342887 0.047949646 0.028087292 0.3807149
121 -0.020454993 0.22494026 -0.3281269 0.10300114 0.10351027 0.19200501 0.304338 -0.5854631 -0.15653826 -0.3162871 0.37337646 -0.1488423 -0.42689386 0.5459155 0.6104923 0.09747318 0.68440586 0.22611606 0.3733585 0.2451036 -0.13359782 -0.26151574 0.001332269 0.08900338 0.1143141 -0.6253312 0.01680832 -0.15013506 0.93661743 0.041730296 0.056118473 -0.55893904 -0.4238107 0.0561158 -0.42678535 0.075547 0.18988305 0.36636496 -0.107591026 -0.3951701 0.32451892 -0.5755427 -0.06969211 -0.23696071 -0.28487173 0.014999898 -0.26027593 -0.17507157 -0.5354138 0.18072961 0.58894867 0.11176025 0.02859159 0.14996175 0.019366045 -0.21919729 0.5508329 -0.27072588 0.13451417 0.046206817 -0.3322304 0.6905407 -0.009415928 -0.23472622 0.1399193 -0.33591175 0.1808876 0.09264416 0.016566256 0.26630205 -0.053692278 0.2050402 -0.2013039 0.5090553 -0.07145036 0.4785482 0.10389275 0.49483326 0.45381352 0.044898283 -0.41959083 -0.044842407 0.014624838 0.35174584 0.05595143 -0.73934203 0.22812563 -0.034206137 0.5328417 -0.0777582 0.3833585 0.3621034 0.5783681 0.22836256 0.5076132 -0.36983368 -0.19355933 -0.22944282 0.0007866281 -0.11787262 0.3492985 0.24145731 0.2116877 0.5661858 -0.32567868 0.12322912 -0.19975477 -0.015012338 0.3830035 0.62226313 -0.28742945 0.18437423 -0.014535157 -0.19513142 -0.10004972 0.36037698 0.085442364 0.3535206 -0.25453633 0.010622402 -0.4448924 -0.19192387 -0.5657836 -0.7270431 -0.2969796 -0.45949286 0.24495839 -0.25144127
48 -0.18145537 -0.0031021233 0.088328 -0.3615106 -0.33270448 0.032057144 0.05181449 -0.22584629 -0.098878026 -0.5987844 0.3759037 -0.1361787 -0.6125663 0.5278272 0.22523881 -0.07226826 0.41130167 0.27191606 0.2776825 0.3125664 -0.19753125 0.18516013 -0.3268791 0.2421328 -0.45705283 -0.74701685 -0.49628913 -0.15962717 0.5070368 0.37086925 0.5258046 -0.1305406 -0.4243332 -0.3635573 -0.54144746 0.3017018 -0.25579178 -0.3280273 -0.17104745 -0.24558683 0.9149965 -0.7104774 -0.8232643 -0.011053914 -0.04656087 -0.09283205 -0.043193456 0.42488512 -0.2612142 0.78149307 0.2354363 -0.029846177 0.3156226 0.22200169 -0.17980237 -0.70140433 0.518218 0.13378434 0.010014095 0.58053285 -0.46390912 0.42363927 0.13789982 0.39695403 -0.23319441 -0.46716613 0.0148695735 -0.25863013 0.1405547 0.03728067 -0.21657807 0.22282276 -0.20854855 0.7839305 -0.043392736 0.27980694 0.031552646 0.30327415 0.47828272 -0.027263073 0.23907277 0.10602489 -0.33879292 0.33930194 0.32423228 0.032774784 0.017407661 0.18212019 0.07818733 -0.33413985 0.38412443 0.57515514 0.3401813 -0.18396737 0.5800054 -0.2656181 -0.19526093 -0.2373338 -0.1871534 0.12572485 0.481261 0.08010761 0.1006739 -0.09664368 -0.41570225 -0.16328704 -0.19232349 -0.11854217 0.13479134 -0.23168245 -0.146715 0.017852575 0.024605786 0.11066523 0.33890757 0.073127605 -0.52061045 0.022436012 -0.27195477 0.48563725 -0.48025578 -0.76534986 0.27812353 -0.10049078 0.09425015 0.47408882 -0.15381582 0.09855019
252 0.17615263 0.09602305 -0.4759532 -0.21624608 -0.24674466 0.09835687 0.13898382 -0.3249813 -0.3477548 0.030744012 0.27573788 0.024999479 -0.20315318 0.21546492 0.21357496 0.21992812 0.46731296 -0.39035597 0.7616406 0.15595894 -0.3726969 -0.015825074 0.23548625 0.041304767 0.059525415 -0.3352663 0.3020539 0.1645788 0.46603373 0.24367343 0.14137773 -0.23074771 -0.79144657 -0.30932024 -0.33118427 0.55815744 -0.0050251316 -0.5413199 -0.04831806 -0.26047143 0.4806514 -0.6429846 -0.37029472 0.023303 -0.47723705 0.2722469 0.0012320662 0.5167904 -0.099039905 0.10031299 0.36693987 0.31186977 -0.16374984 0.18301107 0.03213454 -0.12857461 0.5900147 0.1319332 0.4765312 0.17831098 -0.59588045 0.41258526 -0.07263629 0.07146468 0.00486371 -0.22045055 -0.37320772 -0.11540138 0.13627969 0.06281529 -0.24131937 0.07700844 -0.2166479 0.4747756 0.020583231 0.46337655 -0.14130393 -0.15424399 0.47985947 0.24992238 0.17235173 -0.29082832 0.026774377 0.48235387 -0.03603058 -0.4089 -0.23350519 0.08760503 0.17636065 -0.48401242 0.41344428 0.23254818 0.45598045 0.11016496 0.45213336 -0.18371029 0.2604235 -0.017880395 -0.57690716 -0.31000564 0.41381127 -0.008801787 0.19084612 0.23477621 -0.34648603 0.11353158 -0.043813743 -0.22931604 0.13299327 0.34019056 -0.4627055 0.14668629 0.15987083 0.292032 0.21467178 0.2780025 -0.23708415 0.39903498 -0.18493637 0.5753292 0.2219534 -0.4717939 -0.63160104 -0.46315295 0.1229529 0.3704335 -0.08538991 0.3055026
86 0.47093564 0.20488982 0.4013687 0.38995907 -0.21519825 0.5418551 0.46515062 -0.3819583 -0.032013603 0.08759222 0.18464813 0.12375321 -0.12854962 -0.35805672 0.4816576 0.26607743 0.0753535 0.048365682 0.37542227 0.181745 0.07126636 -0.2977765 -0.6309968 0.0017527178 -0.017206792 -0.11872132 0.3900938 0.573685 0.39234167 0.1153834 0.22425857 -0.11512904 -0.22985423 0.15499505 -0.26770857 0.17998171 -0.06180472 0.3847681 0.22749129 -0.64030796 0.91500705 -0.55362076 0.13983041 0.058834195 -0.91284436 -0.16649021 -0.37298712 -0.17531127 -0.117261454 -0.5697487 0.48166364 0.44685063 -0.15379757 0.1379271 -0.16904546 -0.20859917 0.02426999 -0.59654117 0.32905364 -0.575106 -0.058462735 0.13139686 -0.17950208 -0.18585406 0.5277885 -0.15251005 -0.30132306 -0.12357291 -0.2080306 0.16405201 -0.089245334 0.20794715 -0.17625536 0.4824105 0.27664056 0.18011668 0.28223518 0.3795341 -0.24319538 -0.4003363 -0.2899775 -0.27549103 -0.07080974 0.72041845 0.30323154 -0.07711634 0.430506 -0.58243567 0.09589653 -0.031757805 0.015742006 0.0001427053 -0.26819652 0.51726156 0.2915578 -0.20557266 -0.18774532 0.26792166 -0.17138897 0.5824652 -0.09672849 0.12274051 -0.08422723 0.4123396 0.46254048 -0.16139732 -0.6937385 -0.12580237 0.24817984 0.28888473 -0.06577785 -0.08443543 -0.26433516 -0.25911373 -0.020554036 -0.023939 -0.23794585 0.5446835 -0.31929275 0.170278 -0.0006653774 -0.51190925 -0.56587714 -0.5238765 -0.5004385 -0.26702577 0.2500346 -0.087366946
23 0.2717068 0.39100197 -0.008639633 -0.050829608 -0.53177583 -0.06739878 0.43123507 0.10720182 0.07222708 -0.23609893 -0.12825765 0.25727043 -0.48020783 0.5304057 0.52731323 0.6218339 0.723506 0.32583976 -0.10511995 0.020320792 -0.06080551 0.58023113 0.3274727 0.20101725 -0.23345682 -0.29635647 0.33330113 -0.13027763 -0.060114805 -0.26888862 0.48670837 -0.24030712 0.26362416 -0.09666704 -0.22981651 -0.034620296 -0.004985368 -0.12758555 -0.14232607 -0.073405944 -0.02355026 -0.28633672 0.7872817 0.36065987 0.09119173 -0.20585836 0.03617276 0.52375734 -0.69343436 0.57892203 -0.12694706 0.30215064 -0.108761825 -0.21438773 -0.66964763 -0.17610306 0.45363563 -0.6217132 -0.1453927 -0.60819006 -0.51965517 0.22890791 -0.29284266 -0.030234765 0.10037253 -0.49792776 0.0036805673 -0.65185124 0.20473543 -0.22243823 0.2579185 0.52086866 0.55028784 0.4753076 0.3917325 0.15036887 0.58703804 0.30750367 0.22011879 -0.38312384 0.048511073 0.16307853 0.04646959 0.6357957 -0.013779183 -0.034202065 -0.36718348 -0.4665405 0.19027016 -0.11550437 0.2989159 0.7854806 -0.12190877 -0.17720355 0.17386822 0.15778129 0.0009554151 -0.3990557 0.28049633 -0.15582983 0.50229526 0.76101416 -0.31445184 0.09388568 0.6044136 -0.010678399 0.38889286 0.28508636 -0.14406756 0.1618234 -0.25695542 -0.29562062 0.026784565 0.44387466 -0.43247572 0.5346755 -0.271453 0.5457476 -0.034144666 -0.053223044 -0.26981473 0.2930484 -0.7621611 -0.1834327 0.1424701 0.15798378 0.101646245 0.17378236
85 0.75137985 -0.12006614 -0.06907387 0.17526487 -0.048092797 0.18281908 0.566747 -0.4108865 -0.20438197 -0.42357674 -0.36187363 -0.027814325 -0.23789626 -0.19858216 0.7084432 0.23087995 0.3500409 0.43456432 0.27179828 0.023859132 0.13814834 -0.58087313 -0.25139785 0.5205852 0.13575937 -0.14525549 -0.26353312 0.0984517 0.12651351 0.049772307 -0.15771465 0.043621726 -0.20230493 0.13595173 -0.26811028 -0.043315347 0.1607196 0.5003424 0.018834442 0.301261 1.0415192 0.09097099 0.19609879 -0.12825292 -0.4025143 -0.035458084 -0.2685863 -0.17516863 0.12661304 -0.33131197 0.46598488 0.5175299 0.09442279 0.17792031 -0.84176815 0.18118393 0.301699 -0.6455904 0.18557058 -0.22508234 0.14749436 -0.27401847 0.08449467 -0.7224992 0.2634303 -0.71689713 -0.25300607 0.05955558 -0.08627244 -0.08469056 -0.37443167 0.13519685 0.15856239 0.4174467 0.08697768 0.34052977 0.36194614 -0.015510804 -0.32051587 -0.58930147 -0.21205325 -0.27507845 -0.32875803 0.5485012 -0.4198766 0.3101995 0.2029919 -0.24521954 0.33578637 -0.15507102 0.24650691 0.31745544 -0.4631939 0.35004294 0.4232572 0.18788373 0.0056465603 -0.03679338 -0.20426978 0.11534237 -0.085010625 0.32583597 -0.09360717 0.4009759 -0.26365003 -0.029563535 -0.23437423 -0.010115819 -0.28947645 -0.14842199 -0.22665675 0.69084024 0.16817501 0.22249794 0.084164694 -0.4552029 -0.31395152 0.3099892 -0.64651215 0.09255485 -0.13350569 -0.58096284 -0.3658213 -0.32709533 -0.32792163 0.28727323 0.08754143 -0.58273935
211 0.107618004 -0.7914601 -0.597349 -0.6651683 -0.36059278 -0.4320141 0.09850172 -0.22927397 -0.25651583 -0.07895656 0.16632932 0.64664704 -0.69545925 -0.026825488 0.15954198 0.046414144 0.59606665 -0.08396264 -0.018939504 -0.56401825 0.22305869 -0.25452963 0.123157054 0.6297589 -0.09172783 -0.1888544 0.18977144 0.02745425 0.8693529 -0.24335839 0.63109773 -0.0911402 -0.30844283 0.008619866 -0.2756723 0.43198448 0.20788415 -0.13661133 0.09126017 -0.37194473 -0.052261904 -0.773031 -0.06263005 0.73085815 -0.49051118 0.018507099 -0.09336983 0.030093942 -0.02077061 0.11807697 -0.4282857 0.07553711 -0.35571837 0.1860289 -0.07569094 -0.6313522 0.77404463 -0.36246163 0.12496792 -0.33257845 -0.72584194 0.2228109 0.6438491 -0.54373246 0.589115 0.2320992 -0.516224 -0.2732224 0.30790547 0.39402336 -0.65835893 0.40102932 -0.25757456 0.17056769 -0.47124326 0.14476591 -0.17533527 0.20971522 0.44162852 -0.1561778 0.38033864 -0.17524023 -0.5538795 -0.23093379 0.3420148 -0.4534156 -0.08110743 0.051280625 -0.37011978 0.24960947 0.19752964 0.5012311 0.49257028 -0.41523835 0.05342962 -0.07614501 -0.10310087 -0.23838808 -0.68019843 0.5006866 -0.31753907 0.15249439 0.03575267 -0.022466382 -0.3100033 -0.039035447 0.024121609 -0.155598 0.47548515 0.25401455 0.056141414 -0.11471202 0.6281725 0.23924981 0.32602993 0.35840818 0.1023922 0.2319819 -0.1642974 0.6339645 0.4517355 -0.3700526 -0.15608652 -0.15479398 -0.22420287 0.16421375 0.44256157 0.33287078
417 -0.26663858 0.418913 -0.214097 0.24618936 -0.6185279 0.41314527 -0.2135898 -0.091286555 0.13734029 -0.10686388 -0.017380178 -0.04504235 -0.23620285 0.80314666 0.14777872 0.13671155 0.7024053 0.91965854 0.12858748 -0.51340187 0.59927154 -0.055148084 0.21567875 -0.0370582 -0.37585244 0.12714423 -0.4350553 -0.25392026 0.35627556 0.121331446 0.40665945 -0.14835657 -0.12376599 0.28435895 -0.21690732 0.36293936 -0.16252974 -0.53215367 -0.22566588 -0.006555653 -0.25020272 -0.39211085 0.039234065 0.29267368 0.20986137 -0.36996478 0.23356545 -0.2650578 -0.029601077 1.1434263 0.033582635 0.37490413 -0.29429278 0.9541695 -0.24294569 -0.59814113 0.7476162 0.043282494 0.00032027383 0.47901806 -0.10119782 0.25344822 0.08598673 0.5466642 0.614472 0.16546854 -0.64504015 -0.13947926 0.46141297 -0.015959168 0.014943409 0.41036776 -0.030768381 0.11054838 0.42773438 0.6067162 0.33212924 0.32054698 -0.28437126 -0.90492296 0.36320397 0.026531601 0.08436337 0.22023955 -0.07133918 0.053493585 -0.054203253 0.07673993 0.47100797 0.14474244 0.6002079 0.6382319 0.30887073 -0.4116599 0.5079514 -0.00045937757 -0.38896522 -0.03691184 0.17664461 0.47150224 1.0692083 0.18787889 -0.039365582 0.06850467 0.41362026 -0.22738634 -0.5984877 -0.030936992 -0.47265533 -0.15443088 -0.28017247 -0.6000408 0.432399 -0.26896143 0.20817724 -0.3104449 -0.035656247 -0.18535936 -0.37933815 -0.20099112 -0.33129182 -0.4654851 -0.32795805 0.0006156454 0.37445423 0.10352975 -0.014247458 0.27230012
113 -0.36717448 0.10374988 -0.26609305 0.023527626 -0.89682573 -0.1558092 -0.035554357 0.085119754 0.21362902 0.18697576 0.11355562 -0.434923 -0.32066905 0.70795256 0.22184096 0.5075488 0.20833871 0.6953747 -0.25804764 -0.23400357 0.4021838 0.60378283 -0.01941683 -0.19278081 -0.6535887 0.33634517 -0.20793608 -0.38018474 0.011977936 -0.08228639 0.5547539 -0.46854338 0.13492462 0.42091256 0.24022378 0.28535488 -0.5966241 -0.26951873 0.20163523 -0.67121905 0.36755377 -0.3995519 0.33914962 0.030357597 0.44245288 -0.065941036 0.34006023 -0.13111873 0.3090418 0.45245004 0.2907677 -0.004611546 -0.46992072 0.90674365 -0.44120282 -0.8473464 0.7603708 0.22342703 -0.40076792 0.14340037 -0.24742885 0.19185096 -0.54094636 -0.16943683 0.07743589 -0.08527801 -0.03840942 0.16212778 0.17571256 0.06924325 -0.38569763 0.48024452 -0.15271042 0.42448622 0.59060395 0.5333351 0.34503093 0.71919954 -0.097609535 -0.283449 0.023610683 0.21764798 -0.18105727 0.3021342 -0.06160438 0.022274964 -0.18790574 0.13256773 -0.15942422 -0.11423904 0.07163056 1.0269475 0.4463174 -0.6929743 0.40997973 -0.14522344 -0.3341712 -0.093796834 0.27684066 0.4817538 0.9489407 -0.06969878 0.015247985 -0.116570115 0.18583307 -0.2598495 -0.4688937 0.38764963 -0.6756061 0.10841675 -0.37408042 -0.37548703 0.518329 -0.36631522 0.08426446 -0.10560082 -0.44090673 -0.093019724 -0.23241125 0.51562315 -0.23421857 -0.27569652 -0.14467224 -0.1854207 0.09227946 -0.44448993 -0.034256 0.029730754
52 -0.4352076 -0.1322767 -0.22937004 0.23270713 0.020424979 -0.45321527 -0.2214144 0.0045356746 0.45401484 0.12343982 0.32387468 0.16001451 -0.26903558 -0.32778203 0.10250951 -0.14950794 0.77220213 0.89398247 0.43772256 -0.32917786 0.22489034 0.13776754 0.13347943 -0.19539414 -0.32241696 -0.4577935 0.32176784 -0.34565926 0.15621313 0.7140127 0.12193813 -0.2852344 -0.32772958 0.70453227 0.19037758 -0.010965138 -0.22912785 -0.06057977 0.23528413 -0.42531443 0.22549297 -0.094362415 -0.14005977 1.0312066 -0.28834575 0.03889411 0.36708635 -0.38251805 -0.16531396 -0.10278348 0.1493986 0.13228807 -0.4264787 0.1647181 -0.5400392 -0.9974083 0.016079681 -0.58520764 0.037512347 -0.6314491 -0.012654046 -0.041880913 -0.322738 -0.021600246 0.5773104 0.17097719 -0.011891113 -0.03697785 0.4987241 0.09049472 -0.103847966 0.27997828 0.072230846 -0.5760232 0.20362023 -0.10632528 0.14549206 -0.40934917 -0.5121275 -0.10252702 0.027777614 0.35622543 -0.44457984 0.023119185 0.069603644 0.3536128 -0.38122362 -0.29438713 0.32237384 -0.34059438 -0.07077255 0.14051448 -0.273101 0.07029722 0.50940776 -0.023124564 0.21845345 0.13544776 0.33229876 0.65261257 -0.26137096 0.94721085 0.32352802 0.57118845 0.27755862 0.08654522 -0.03276982 -0.87077516 -0.11712282 0.6569395 0.056524515 0.049191114 0.15288424 -0.107473806 0.36120707 -0.011476715 -0.4978324 0.4393947 -0.22418126 0.24494225 -0.18304972 -0.5503999 0.31334496 0.031461842 0.17721356 -0.13847964 0.022315772 0.64495295
162 0.05862524 -0.033333085 0.22873856 -0.2080396 -0.007926644 0.16912186 0.3185366 -0.28960407 -0.19143867 -0.44905 0.055119216 -0.5415753 0.011580777 -0.13783792 0.63381976 0.32573545 0.63629955 0.17238732 0.6252126 0.4659844 -0.36102366 0.06683688 -0.10487145 0.345283 -0.5897887 -0.4959237 0.32482708 -0.18551983 0.5347766 0.3929691 0.088336065 -0.65258026 -0.30301335 -0.042908926 -0.25675288 0.3496637 -0.3677525 -0.07933776 -0.22567266 -0.26812822 0.24377014 -0.30682522 -0.45373985 -0.18316716 -0.10387568 0.21207868 -0.4203662 0.27586353 -0.05588861 0.05282914 0.8251176 -0.0051938645 0.2785529 0.15074411 -0.21924356 -0.5570935 0.31875122 -0.23522674 0.45685336 -0.050279934 -0.7752941 0.45481 -0.21324614 -0.13579509 0.20195317 0.40103632 -0.6720551 0.17749606 -0.027452856 0.3735162 -0.23340221 0.10759928 -0.24368252 0.26114765 -0.2036242 -0.011097432 0.3021774 0.11243855 0.21344873 0.092873886 -0.13207431 -0.19004153 0.07079932 0.3518959 0.099986695 -0.011794718 0.3597642 0.3253718 0.4130447 0.006292723 0.04166458 0.44474804 0.6551845 0.0973314 0.5617177 -0.01787256 0.3079003 -0.010558342 0.1435497 0.15253486 0.36110598 0.38274872 0.4008643 0.27914035 -0.58091336 0.19294369 0.15977477 -0.3346534 0.026479365 0.43717197 -0.032399386 0.07335342 -0.2680901 0.1482907 1.1374718 0.11586218 -0.5265751 0.3129905 0.13659911 0.47361353 0.15149857 -0.38796008 -0.054452386 -0.62439 -0.075105496 0.026142221 0.61085415 0.38550088
263 -0.2664791 0.15448387 -0.1883348 0.27344167 -1.0385163 -0.43485007 -0.19258156 -0.1441884 0.3714792 -0.14003089 0.034483068 -0.20265774 -0.18697263 0.44173107 0.36553594 0.42046934 0.28759557 1.0413812 -0.16826712 0.12891977 0.6131768 0.61547095 0.0024538303 -0.09654977 -0.7799862 0.4157569 -0.20790024 -0.3416518 0.5003891 0.26695955 0.56490785 -0.53333217 0.25283942 0.28883135 0.023276396 0.48876768 -0.3737794 -0.18344735 0.22282906 -0.48280573 0.3969033 -0.34784392 0.19317113 0.2794078 0.4709166 -0.13890816 0.43155605 -0.28240466 -0.20856887 0.41178292 0.11319158 0.0172845 -0.5357503 0.98494214 -0.35391855 -0.2786272 0.33112827 0.21599452 0.13790171 0.16522197 -0.294871 -0.0005323262 -0.16904339 -0.011836972 0.35689604 0.3287383 0.2139292 -0.18229845 0.3474898 0.038331985 0.044506453 0.42704806 0.12512514 0.6545233 0.4782837 0.69717944 0.3418168 0.31982562 -0.17428 -0.15119918 0.14977902 0.15517119 -0.12587735 0.712128 -0.4551411 0.021069344 -0.1449232 -0.28308976 -0.08992229 -0.03848079 0.31850362 1.1789244 0.045589145 -0.5797874 0.48394227 0.19524759 0.016337039 0.06513008 -0.08266088 0.31148684 1.0495034 0.19413944 0.05162702 -0.22547682 -0.058590412 -0.32350963 -0.5464708 0.27604362 -0.53098935 0.17566022 -0.2327744 -0.3830805 0.47173476 -0.08858799 -0.15507635 0.08743177 0.0017465295 -0.11174661 -0.13655125 0.82611334 -0.07352926 -0.32999012 0.19864787 0.19693705 0.10787107 -0.23705876 -0.17142913 -0.09915751
58 0.38137066 -0.09457188 0.001242901 -0.26848412 -0.15521553 0.12092172 0.06778901 -0.0008275544 -0.2971278 -0.72635096 0.20821708 0.2501296 -0.18544286 -0.07486565 0.632108 0.20790821 0.5278143 -0.18378687 0.33793703 0.2811548 -0.33107913 -0.08139953 0.00591967 0.36547607 0.01893409 -0.32227895 0.25607455 0.09602026 0.75002575 0.36028546 0.27816308 -0.13963977 -0.50545067 -0.13430011 -0.36758295 0.5090327 0.09493103 -0.21367018 -0.44220296 -0.5904317 0.351392 -0.7372869 -0.5604103 -0.20650882 -0.411633 0.38521832 -0.28894642 0.22748806 0.023996944 0.16107579 0.49763143 -0.013611428 -0.43814814 0.40734574 0.16131659 -0.937668 0.31706044 0.24856932 0.3738341 0.29332846 -0.26776204 0.65882283 0.2287131 0.11841055 -0.015059033 -0.16501495 -0.291001 -0.13579163 0.14377214 -0.118850596 -0.08380202 0.24692823 -0.01906417 0.38687298 -0.19056688 0.44053128 0.04536794 -0.00408268 0.36651316 0.16000037 0.13820629 -0.03751306 -0.2925478 0.025491197 -0.15862696 -0.075645685 -0.17069365 0.33213827 0.3435992 -0.38354135 0.28281346 0.2271974 0.44874495 -0.28888914 0.70930237 -0.25105238 0.121536486 -0.27190003 -0.13743253 0.22798018 0.18612087 0.19857328 0.27962282 0.11858114 -0.46033436 0.17143719 0.14288923 0.07254644 0.045803577 0.29894295 -0.0026170353 -0.054364752 0.123879924 0.36614218 0.46632037 0.23928727 -0.40260935 0.2099464 0.026793936 0.569655 0.24964544 -0.5458912 -0.45366693 -0.059546933 -0.03207519 0.3547901 0.003380068 0.6732797
71 0.13636939 0.121115 0.23651797 0.18619096 -0.1996639 0.29442328 0.24167794 -0.28432387 0.14394566 -0.4100135 0.33556 -0.7883847 -0.3135442 -0.02652599 0.8206468 0.12269588 0.57054675 0.27072546 0.61654705 0.50354755 -0.3726546 -0.048449725 -0.23944414 0.24766997 -0.65462464 -0.46439952 0.47394925 0.052349806 0.2892945 0.40239635 -0.08440695 -0.45760375 -0.16779691 -0.10996394 0.027433943 0.46324205 -0.52486855 -0.008945433 -0.18460856 -0.44366202 0.5150931 -0.5730357 -0.47631475 -0.16686004 -0.32020378 0.14135171 -0.0938127 0.186672 0.22558273 -0.12897684 0.88283753 0.049972434 0.23918287 0.27343133 -0.44096443 -0.31464496 0.51784134 -0.6555218 0.45630226 0.13019963 -0.4505172 0.47145894 -0.26112437 -0.36735314 0.37830618 0.22191936 -0.5684969 0.24340706 0.009443968 0.26873672 0.12715195 -0.08842934 -0.25943023 0.2584211 0.11460319 -0.18828848 0.32166713 0.1902761 -0.047375705 0.02593574 -0.1983877 -0.025172576 0.29823622 0.6607861 0.20776092 0.03533009 0.21004756 0.1634908 0.12501186 -0.03678776 0.43660775 0.27524158 0.26270214 0.46292847 0.2599007 -0.23775858 0.05287412 -0.18487358 0.003911245 0.16549818 0.585311 0.3912536 0.32561052 0.69198287 -0.3919285 0.38089833 -0.15677865 -0.6492675 -0.09811021 0.53754467 -0.19681592 0.030030433 -0.14357151 -0.13075174 0.5886794 -0.040061876 -0.35026437 0.2865966 -0.07412154 0.07478723 -0.15989603 -0.46480545 -0.29503173 -0.76969373 -0.058760803 -0.18527633 0.119734965 0.066599466
176 -0.1978553 -0.47649726 -0.109805614 -0.026659615 -0.06791526 -0.045369115 0.30742738 0.55550164 0.22035694 -0.35588712 -0.27437508 -0.39233834 -0.7189989 -0.41961798 0.29426944 -0.25423583 0.15161248 0.5651225 0.006343345 0.39427316 0.015359935 -0.35617805 -0.430547 0.43375313 -0.4093231 0.011492709 0.7676408 0.1733237 0.37079796 0.5366035 0.16722748 -0.054710492 0.3907339 0.17120706 -0.20281973 -0.4722047 -0.7082717 0.24626431 0.11440092 -0.1524735 0.3094932 0.33501816 -0.18361765 0.47465578 -0.03853343 0.15634756 -0.17336878 -0.76648206 0.21479592 0.018539518 -0.12487035 0.3842413 -0.09874057 0.08428041 -0.62359595 -0.3842792 0.53237516 -0.8422976 0.2560091 0.38540182 -0.508839 0.022194477 -0.33760998 -0.400814 0.32888252 -0.4279996 -0.19407918 0.37630087 -0.08548509 0.25698808 0.41744772 -0.03817186 -0.04299641 0.40042967 0.39465013 0.08646072 0.20145911 -0.11564896 -0.835467 -0.11599616 -0.15687576 0.031374313 -0.94158375 0.18369693 -0.18307483 0.5004294 -0.1913034 -0.05709453 0.033031683 -0.11848008 0.554832 0.41005313 0.5499063 -0.23386481 0.18347141 0.09793128 -0.059945647 -0.109429166 -0.10535466 -0.47244543 -0.33997762 0.1201576 0.3246014 0.06952962 -0.6275295 -0.65043 0.20711842 -0.3531578 -0.6062523 -0.17366426 0.035070088 -0.12284067 -0.38024342 0.009079621 0.5892853 -0.387294 0.03209217 0.02760812 -0.42751983 0.23975258 -0.018440446 -0.5607119 -0.16617537 0.12683995 -0.040764038 0.06894837 -0.2906532 0.19177276
249 -0.47054678 0.11370421 -0.82111853 0.14056079 -0.42370307 0.22005938 0.3022277 -0.23877747 -0.6701992 0.13289984 0.13951384 0.42987898 -0.55745125 0.1210299 0.6061613 0.5633235 -0.19732213 0.32351404 -0.2820005 0.38656327 0.12493179 -0.023591058 0.55796087 0.26398954 0.13153547 -0.22354746 0.5249091 0.0062578185 0.07847886 0.080164954 -0.059349738 0.011375198 -0.36653566 0.33440953 -0.39867273 0.2994304 0.060265362 0.11800713 0.12043264 -0.3819289 0.34816942 -0.0042605284 0.6022591 -0.025795707 -0.048032764 -0.34996605 -0.10764448 -0.31568944 0.14943153 0.5557482 -0.035457708 0.4262263 0.115296684 0.30611894 0.08763149 -0.38868213 0.42901322 -0.54785144 0.23003778 0.125834 -0.45568782 -0.0021106289 0.07357253 -0.09788295 0.05423609 -0.29392534 -0.044400495 -0.7050153 -0.55610347 0.60880756 0.36639804 0.26156765 -0.13782749 -0.0516114 -0.26942134 0.40726566 0.5313373 -0.0008448378 0.28030285 -0.026247168 0.15880519 -0.0004773825 0.19221766 0.49814793 -0.6960459 -0.25560787 -0.0015579937 -0.8265423 0.10695566 -0.21533479 0.6223192 0.048378382 0.42137492 -0.0030628724 -0.26195556 -0.11541614 -0.22811031 -0.22080398 -0.1856952 -0.0997561 0.16130713 0.21667755 -0.41053784 0.29013675 0.12674563 0.24622378 -0.19508737 -0.26202276 -0.22545642 0.41360915 -0.030777484 -0.34032008 0.077572115 0.3701523 0.15274602 0.36345404 -0.30737668 -0.14735414 -0.08304481 -0.047160514 0.4526584 -0.563997 -0.6133449 -0.4874679 -0.41182524 -0.24755058 0.5889822 0.16192494
438 0.5764614 0.01838921 -0.2704795 -0.2706915 -0.32988462 0.22794789 0.15090059 -0.7038542 0.071793325 -0.4778206 0.015423687 0.006940257 -0.38319394 0.42298675 0.0018225396 -0.30761582 0.56842333 0.37929463 0.18428054 -0.48082882 -0.046338193 1.0030822 -0.29939282 -0.21205081 -0.17893621 -0.48258513 0.3127772 -0.5407911 0.19417089 0.060224492 0.69535786 -0.2819971 0.14848539 0.13954104 0.092902325 -0.27353442 -0.15357605 -0.29603502 -0.38572627 -0.37739092 0.28440598 -0.076828144 0.0022438886 0.3944931 0.12650649 0.67614216 0.47561404 -0.14400283 0.19004364 0.41432327 0.04117432 0.47660708 -0.094126105 0.049764343 -0.75021994 0.02146499 0.43022665 -0.13232882 -0.010327307 -0.3428742 -0.13465202 0.043043192 -0.03493303 0.018626923 -0.26200482 0.31550276 0.10491567 -0.42239386 0.30651954 0.36737508 0.16819203 -0.24424496 -0.2366893 0.43545988 -0.4183091 0.27289286 0.75716496 0.3241338 -0.2405101 -0.6994362 -0.25450185 0.34063247 -0.43179864 0.34691024 0.9489588 0.20681547 -0.45119795 -0.05808247 0.39626503 0.11657595 0.62174666 0.872325 -0.20130563 -0.065487206 0.0055309404 0.018458929 0.006581052 -0.17069413 0.5368666 -0.014782687 0.66926664 0.34788325 -0.17548147 0.0061823493 -0.2257748 -0.321582 -0.29347765 0.104443744 -0.5214757 -0.23981516 -0.4075259 0.029045925 0.23115978 0.9180881 -0.0111340415 0.2648432 -0.18266961 -0.23443212 -0.2935694 0.14896879 -0.034249388 -0.17982616 -0.7588261 -0.1606953 -0.42035234 0.17544118 -0.37527674 0.60501176
194 0.116329506 -0.7119729 -0.49364302 -0.54994696 -0.009253775 0.29381362 0.1433758 -0.09451379 -0.25718147 -0.2958396 -0.08076293 -0.27122822 -0.46804318 -0.085436575 0.17814255 -0.24134025 0.95624226 -0.06510651 0.10396489 0.13757007 0.24716909 0.45949814 0.20696549 0.48096302 -0.056891464 -0.6640059 0.73371094 0.064780354 0.6187817 0.24802035 -0.17820044 0.5732184 0.056843437 0.7600606 -0.34544858 0.69154704 -0.080846526 -0.17639132 0.41046655 -0.27694383 0.039540708 0.13002367 -0.45501605 0.90129 -0.073666826 0.31605992 0.035263997 0.21957909 -0.12247735 0.4322829 0.004854496 0.37816784 -0.36082387 0.5872618 -0.67069644 -0.72727275 0.5528272 -0.25968552 0.3898643 0.35610342 -0.53404975 0.42801908 0.25322372 -0.3959193 0.24084638 -0.11749338 -0.20573372 -0.40665117 0.31882557 -0.24638315 -0.32105526 0.05563407 -0.25986266 0.29450876 0.25416064 0.3833395 -0.46072 -0.36133137 0.56666166 -0.18294984 -0.32756177 -0.34876442 -0.48632324 0.60565704 -0.0067165447 0.062259316 -0.15842341 0.2830886 0.39667788 -0.3926519 0.29394102 0.7280576 0.43929768 0.2375248 0.23112431 -0.103934735 -0.0109363 0.16197746 0.24954695 0.5512024 0.028647898 0.2196605 -0.29098937 -0.39651793 0.11394271 0.051456623 0.5091083 0.105020806 0.1848032 0.23976727 -0.51694405 0.16030501 0.11962251 0.13883029 0.6901377 -0.11020923 -0.5081195 -0.29097468 -0.15628852 0.15655157 0.086162776 0.042122357 -0.04007313 -0.16774777 0.16397753 0.34640428 0.08678345 0.3207526
17 0.55012697 0.05172098 -0.21251735 0.33950186 0.16039895 -0.20671976 0.09571145 0.14094247 0.08259138 -0.45414633 -0.13697666 -0.22136444 -0.30195233 0.068746954 0.21187651 -0.1043056 0.76273704 0.47462603 0.2667637 -0.12379055 0.10875278 -0.40588015 0.13940786 0.7482865 -0.33254093 -0.016346248 0.23447579 -0.25646138 0.28874332 0.06899094 -0.16095181 -0.0045284373 -0.19825195 0.6400609 -0.39009976 0.13010673 -0.29691002 0.35537946 0.19996276 0.18348595 0.4724506 0.5184649 -0.04443509 -0.18264699 -0.4870673 0.11651951 -0.35294825 -0.038691536 0.22258161 -0.37797517 -0.22132643 0.34783232 -0.34503207 0.42200494 -0.9022847 0.110369705 0.7183535 -0.59246063 0.42390642 -0.2623367 -0.17260173 -0.10508906 -0.019299114 -0.3721639 0.11642315 -0.38326195 -0.24715687 -0.03036894 -0.33724347 -0.11065339 -0.30197945 -0.08961234 0.43185762 0.02021805 0.24005288 0.53213394 0.09844509 -0.11702156 -0.8104638 -0.49612495 -0.202067 -0.18466783 -0.338549 0.6028825 -0.1121226 0.3636009 0.11366167 -0.049426757 0.06391413 -0.24195738 0.05952231 0.30809447 0.04808171 0.01451598 0.226048 0.37458444 -0.12753342 0.11396978 0.14047405 0.082175426 0.26026958 0.070672125 -0.024826473 -0.21752383 -0.12955186 -0.23203164 0.14991069 0.003351785 -0.5390121 0.07956001 -0.16154633 0.44764906 -0.34535885 0.1485013 0.08960925 -0.23931447 -0.10354616 0.09176549 -0.5832728 0.30190963 0.11504139 -0.78132683 -0.7940013 -0.083797395 0.083882295 0.031974792 0.38099405 -0.058930576
103 -0.22932221 -0.087237686 -0.286586 -0.20615332 0.28273696 0.20468938 0.22631185 -0.124328405 0.21262622 0.23553745 0.11325421 0.32466125 -0.34997624 -0.42900878 -0.15155923 -0.38030854 0.61643106 0.7123368 0.2792461 -0.16993234 -0.015741121 0.18011111 0.13498941 -0.28732735 -0.19972607 -0.34032556 0.82623774 -0.39736792 0.14497127 0.53624135 -0.2767763 0.37872267 0.1361234 -0.21671638 0.18635719 0.31370237 -0.49222237 0.14469604 0.22083908 -0.23777571 0.06303266 -0.24157692 -0.66650766 0.5432095 0.07249584 0.034081303 0.1852723 -0.33368918 -0.0029503645 -0.21232158 0.3298109 0.30046174 -0.7195875 0.11988931 -0.43515864 -0.44186145 0.00061387906 -0.8738744 0.24610238 -0.4689043 -0.1395637 -0.40688714 -0.04314817 0.33288747 -0.00062424346 -0.07048229 0.15711424 -0.094237156 -0.020897297 0.0411544 -0.4030281 0.37706935 -0.15345068 0.005566237 -0.18250951 0.16358086 0.2986323 0.11100347 -0.10805293 -0.5258802 -0.1702384 0.5084731 -0.37691796 0.06812134 0.5521066 0.26497704 -0.22636044 -0.101852685 0.34449393 -0.00089717755 0.16218317 0.6424559 0.59516525 0.37068635 0.3390646 -0.18413346 0.096813835 -0.21581048 0.5740257 0.4675697 -0.14116679 0.2525058 0.17247222 0.33971888 -0.07435174 -0.28875312 0.08523541 -0.8413321 -0.27930376 0.8984364 0.038926847 -0.029220304 -0.03522988 0.022918364 0.42698118 -0.36116534 -0.54965466 0.10539457 -0.7214728 0.060236044 -0.2838602 -0.5910525 -0.56436044 0.027556263 -0.1208825 0.15668654 0.05938556 0.6352468
178 0.099672005 -0.48195735 -0.116009444 -0.29729924 -0.15079316 -0.012740976 0.34228912 0.22035338 0.30096847 -0.3911919 -0.29825228 -0.47437593 -0.36692166 -0.44107044 0.40445712 -0.46651274 0.33984748 0.6579098 -0.22951613 0.20106268 0.27909526 -0.18318355 0.27670327 0.15178008 -0.23413992 0.046242688 0.17672837 0.25918278 0.06075166 0.26626745 -0.119426034 -0.24036829 0.025916822 0.19910155 -0.21118248 -0.18722212 -0.54967695 0.0060771746 -0.071597375 0.26562363 0.51346254 0.34274778 0.43729737 0.42779577 0.060781516 0.37851614 -0.09396886 -0.6444906 -0.053598523 -0.42233673 -0.14585195 0.3244824 -0.48025957 -0.1614476 -0.8956331 -0.2923386 0.41671515 -0.5727833 0.05127451 0.0101813665 -0.83002377 0.2787245 -0.49110287 -0.29394975 -0.25448602 -0.32466242 -0.15631199 0.21719785 -0.026700284 0.36964658 0.26798084 0.5853589 0.18091297 0.01842512 0.15898578 -0.15842766 -0.17656022 -0.033858232 -0.5519701 -0.33895192 -0.3114292 0.12909855 -0.8423612 0.11860244 -0.27716744 0.19813287 -0.23018588 -0.2562628 0.2357386 0.0644141 0.3167313 0.5717458 0.32067624 -0.3937963 0.41169006 -0.3691879 0.10096218 0.25780982 0.28809732 -0.71870434 -0.3515406 0.56509495 0.15931657 0.1558232 -0.6793924 -0.3133429 0.4235227 0.332086 -0.7344814 0.030944888 0.36670485 -0.14681174 -0.45045662 -0.1405994 0.51552814 -0.17718257 -0.1339912 0.06895805 -0.63939345 0.36714318 0.37248513 -0.04493565 -0.32628065 -0.23545948 -0.089016914 0.35037574 -0.024665799 0.17334138
283 -0.17252018 0.4687244 0.14764065 -0.31243032 -0.1537621 0.11279199 -0.40773183 -0.14112936 -0.001830367 0.010791947 0.22275479 0.19883315 -0.6491696 0.18520516 0.426524 0.3791023 -0.09655885 0.23718397 -0.6836728 -0.28977352 0.15098807 0.0058648475 0.25834954 0.04209522 0.21540144 -0.14413574 0.040962216 -0.031211369 0.974558 -0.35698596 0.0011908689 0.049378857 -0.3510217 -0.2830387 -0.59686387 -0.27981046 -0.02251679 0.554243 -0.25049186 0.31296384 0.3272419 0.07966733 0.3268935 0.44766262 -0.04237986 -0.54323494 0.024289232 -0.6436878 -0.0762519 -0.07059114 0.6290497 0.27393532 -0.28831628 0.5157267 0.36587557 -0.22328414 0.31832594 -0.65765643 -0.034477834 -0.37789732 -0.3762183 -0.23638825 -0.099681325 -0.16133767 0.45566148 0.25739646 -0.58842343 0.026417589 -0.61821586 0.15116304 0.12811287 0.15019451 0.31099325 -0.13071334 0.15306014 -0.06333512 -0.12157404 0.10798065 -0.38547215 -0.2797009 -0.069000445 0.25803098 -0.5482734 0.18821461 -0.10317973 0.37986007 -0.2584422 0.012515197 0.16019507 -0.27319828 0.2739976 0.7673754 0.18252249 -0.08356563 0.027120318 -0.17176767 0.18227245 -0.42481583 -0.070462085 0.17174974 0.01838266 0.3614695 0.062098 -0.15349013 0.11709446 0.18983926 0.07733884 -0.33489677 -0.08848063 0.9416494 -0.19093142 -0.15599518 0.46949473 0.06171899 0.5633974 -0.1535963 -0.054705516 0.20605142 -0.49723348 -0.30063877 -0.11448665 -0.37742382 -0.10439728 -0.42131135 -0.40305611 -0.8320297 0.3683175 0.10516081
5 0.55064934 0.26850134 -0.27916864 -0.18663561 -0.44663176 0.61304104 0.24575625 0.35622504 0.30286136 -0.22237818 -0.24226676 -0.34289157 -0.35189813 0.39547312 0.5246283 0.5801761 0.83469206 0.099334344 0.35242295 -0.44040382 0.07495399 -0.24951275 0.40343514 0.024674302 -0.7703153 -0.08200637 0.52735895 -0.14857325 -0.33625928 -0.07701658 0.42470846 -0.4436304 -0.45687935 0.34873447 -0.26561695 0.45898524 0.3086324 -0.065416716 0.18343861 -0.090455435 -0.39151734 -0.18740632 -0.2909395 -0.036584992 -0.66782033 -0.044183917 -0.43729672 0.19456531 -0.37664685 -0.39878568 0.38193902 -0.80056864 -0.6414258 0.13876063 -0.8323601 0.24110067 0.3724758 -0.51662123 0.1583064 -0.4763512 -0.709354 -0.048425574 -0.7143368 -0.7503869 0.39692384 -0.49700257 0.3594326 0.12322123 0.27422836 0.35414404 -0.2472776 0.18818556 0.08528329 0.46701896 0.25998724 0.73479676 -0.30303916 0.54196733 -0.7959864 -0.7714488 0.20155293 0.03684164 -0.5307411 0.291488 -0.22354767 0.5856428 -0.27849036 0.080539085 0.5144999 0.6019204 0.43764833 0.023910308 0.3971522 -0.07578871 -0.40593976 -0.13476166 0.29290336 0.81500083 -0.42782468 0.59213555 0.37207404 0.40903443 -0.13130206 -0.2729374 -0.41663063 -0.0610905 0.5823987 -0.52875906 -0.39640027 0.45756587 0.4466971 0.22954573 -0.038983017 -0.03497602 0.09027716 -0.8090852 0.7014466 0.3008198 -0.38229606 0.06527134 0.17786533 -0.44695523 -0.2102244 -0.0903262 -0.64414555 -0.1355983 0.6185301 0.5392095
174 0.17307538 -0.44090968 -0.05197851 -0.030744728 -0.5071022 0.3868305 -0.2699162 -0.21702805 0.3485455 -0.140497 0.067703344 -0.5242825 -0.28683075 -0.124492735 0.84197974 0.18537447 1.1553164 -0.16491818 -0.38233408 -0.73592556 0.5071001 0.37353778 -0.17908265 0.31300765 -0.163247 -0.71521115 0.5513452 -0.023060791 -0.05924083 0.30117697 -0.10303852 0.18787138 -0.5225057 0.5075147 -0.31035247 0.27670056 0.017114002 -0.4362333 0.022172984 0.014915424 0.44552004 -0.5087016 0.59364283 0.23160583 0.07153926 -0.805686 0.23163375 0.18167034 0.1445363 0.7421405 0.6681268 0.17216478 -0.013321242 0.09032121 0.008406833 -0.5352082 0.56944245 -0.06757849 0.019114582 0.8425247 -0.6205394 -0.14358461 0.20591477 -0.2007351 0.24332006 -0.114595756 -0.6294542 0.06245272 0.100347675 0.09428784 -0.4429507 0.43413758 -0.48049018 0.042690195 0.2102216 0.90006614 0.0315799 -0.05164801 0.51410174 -0.30358848 -0.041345417 0.010305717 -0.095842615 -0.18918054 -0.0073369355 -0.15464856 -0.6513525 0.26024953 0.14070201 0.03329567 0.9475816 0.35641193 0.52377903 -0.048134767 0.04594037 -0.45656353 0.6258745 -0.330616 -0.4584432 0.0071792398 0.39635408 0.20652594 -0.33785117 -0.3492356 0.09731275 -0.30355275 0.11870369 -0.26002392 0.20010257 0.39057356 -0.14289567 0.12937076 0.31331918 0.2525228 0.7827334 -0.15390202 -1.0861608 0.3010664 -0.04806726 -0.030649472 -0.09818021 -0.42257527 0.01114371 -0.68217593 0.44255358 -0.19419408 -0.067415 -0.102677986
177 0.31319523 -0.19968481 -0.08404376 0.1558782 -0.06256 -0.18866019 0.37424317 0.39050138 0.26116598 -0.5136396 -0.06451995 -0.19431674 -0.5610616 -0.32544 0.3544827 -0.3203345 0.49735406 0.62035185 -0.14762123 0.32996425 0.012278293 -0.30018666 0.1482029 0.56007826 -0.64667404 0.14460185 0.6322624 0.12623961 0.2754655 0.123008534 -0.12631069 0.103951335 0.3482227 0.23749107 -0.3193873 -0.075148754 -0.7072501 0.14221275 -0.11354806 0.024866764 0.32741022 0.49347898 -0.0012250418 0.231724 -0.051774252 0.0035452314 -0.07697053 -0.65026623 0.12463601 -0.36520913 -0.20581013 0.5134485 -0.34387454 0.018107308 -0.82680786 0.05028825 0.6402527 -0.6926195 0.48291337 0.11820601 -0.3492023 -0.16776048 -0.2054989 -0.03608027 0.19046082 -0.2912563 -0.23876505 0.31063414 -0.43777978 0.2858916 0.102672316 0.08315571 0.09386956 0.008246589 0.38850877 0.038520087 -0.055744827 -0.11938521 -0.9237287 -0.23144752 -0.20125623 0.30605164 -0.6095878 0.36194554 0.09830744 0.29813105 -0.33311248 0.021903701 -0.031305954 0.043887727 0.37326026 0.35801652 0.39844188 -0.17744157 0.22859104 -0.30395436 0.20175494 0.20060839 0.017607853 -0.39851758 -0.15348159 0.19879223 0.35879645 -0.080404535 -0.38700694 -0.45122567 0.14655846 -0.10004315 -0.49252775 -0.31680328 0.10672212 -0.029886622 -0.44991642 0.10402795 0.32137448 -0.2118256 -0.26830265 0.23460475 -0.3780986 0.13474135 0.1594708 -0.77431643 -0.49207562 0.10884757 0.08267208 -0.00997144 0.108549036 -0.12058031
232 -0.27944893 -0.1964809 -0.26451623 0.026234873 0.29675066 -0.08940572 0.1976685 0.36442634 0.2727403 -0.07041998 0.07267078 -0.18411165 -0.26771995 -0.31537083 0.1750214 -0.12577778 0.6122352 0.8341121 0.5153255 -0.36047855 0.62259793 -0.025199972 0.16791855 -0.21005367 -0.34665027 0.011499696 0.5412925 -0.5264322 0.0704381 0.79506207 -0.08581144 -0.13857226 -0.14103746 0.6166728 0.4151038 -0.20071527 -0.359995 0.12559326 0.2572898 -0.14934424 0.39814967 0.21477365 -0.06133072 0.88502616 -0.5225061 0.23728973 0.65281063 -0.2441303 0.0061822445 -0.14597298 0.063317224 0.098625936 -0.22766143 0.2102473 -0.27433765 -0.6026028 0.4284208 -0.39569655 0.04448675 -0.26566607 -0.57363486 -0.046305295 -0.27689585 -0.25161657 0.499561 0.09344494 0.27082387 -0.004858474 0.74264026 0.12413199 -0.0940869 0.30234164 -0.2890578 -0.4130974 0.20626007 -0.45117727 -0.38052052 -0.033776067 -0.18556802 -0.00913549 0.188169 0.23793185 -0.17836615 -0.29479373 0.5918729 0.5355777 -0.16442399 -0.30708647 0.06720312 -0.41210303 0.19783139 0.71643245 0.026842518 0.1867114 0.46790802 0.032798834 0.006171543 -0.311338 0.32516477 0.5291182 -0.15499465 0.87943476 0.015201546 0.81075543 -0.26106352 -0.23862176 -0.11927986 -0.84526384 -0.10606452 0.65023607 0.24230081 0.08880053 0.49189153 -0.016914474 0.28995135 -0.27484542 -0.44852465 -0.17603582 -0.38753608 0.31995833 0.31358367 -0.43302408 -0.07597842 0.24771371 -0.2821237 0.29986256 -0.07738086 0.35837433
164 0.65984696 -0.04789456 -0.32769072 0.15755463 0.24633685 0.11315025 -0.09698636 0.11494335 0.71168464 0.13305067 0.16994168 -0.038868494 0.35575566 -0.63446987 0.7801602 -0.22829793 0.6543357 0.06662413 -0.15166949 0.072899126 0.7961146 0.36205035 -0.5937152 -0.31281683 0.10599145 -0.62066275 0.36413735 0.13429083 0.1938536 0.85669935 -0.35031325 -0.20032808 -0.5290398 0.41207564 -0.25665712 0.06605269 -0.062753 -0.58965176 0.18417642 -0.0034893677 -0.021424837 -0.025461169 0.19950885 0.50449914 0.0032216355 0.0614378 0.422499 -0.27078792 0.33077377 0.26682162 0.2009822 -0.033386607 -0.8721385 -0.109225385 -0.19347808 -0.27865994 0.4593052 -0.17048542 0.03012251 0.4420737 -0.477582 -0.6120259 0.16818146 0.06208326 0.26139167 -0.020498523 -0.37843028 -0.03990314 -0.15522596 -0.18361837 -0.22560237 0.65439767 -0.4625377 0.2920692 0.51274765 1.0795258 -0.046931632 0.15880698 -0.2709645 0.26013678 -0.40561956 0.103809774 -0.40455303 -0.23332132 0.41214946 0.017388875 -0.56732 -0.046297554 0.35693797 -0.023074802 0.5791476 0.019564338 0.6309714 -0.1612245 0.18505688 -0.35803738 0.15972736 -0.39296222 0.114091754 -0.012949918 0.36369625 0.45687017 -0.007332717 -0.41564438 0.13538408 -0.25915524 -0.040155225 -0.05097184 -0.0850895 0.78711325 -0.4320024 0.24148104 0.3070548 0.52691585 0.4814919 0.091105856 -0.44771102 0.316104 -0.3240534 0.34300718 -0.5408557 -0.35304895 -0.046592675 -0.33772153 0.28950673 -0.16258223 -0.043652706 0.4955369
183 0.034228537 -0.27711838 0.37216836 -0.5616436 -0.22520879 0.21566175 0.8667866 0.41957554 0.049417008 0.5819391 0.26416224 -0.3345034 -0.5621508 -0.1761842 0.07517092 -0.20650883 0.17564802 0.24777412 -0.40818056 0.22081712 -0.11740279 -0.14653227 0.49170554 -0.23731452 0.018133942 0.256155 -0.12808333 -0.06612406 0.6652139 0.4874339 0.26002452 -0.61067736 0.079767525 -0.16932835 0.21705838 0.41696566 -0.034470588 -0.077129334 0.46036604 -0.6112035 0.23323646 -0.12387207 0.46460012 0.611306 -0.35626665 -0.38883644 0.12476614 -0.105002 0.21452117 0.5021857 -0.1391054 0.24349122 -0.06393724 0.46018443 0.18710534 -0.20584193 0.38010916 -0.9222461 0.42978162 -0.2735052 -0.36886674 -0.12429248 -0.07548682 -0.028022151 -0.10228504 -0.14832035 -0.34140566 0.033430293 -0.32273743 0.07049558 0.26089686 0.14369567 -0.16527753 0.016093047 -0.081191555 0.04531071 0.07059015 -0.06697235 -0.008459653 -0.18174711 -0.11020779 -0.43185917 0.19819286 0.23031577 -0.3609888 -0.32923746 -0.14131871 -0.42827523 0.5861765 0.18049845 0.27064618 0.5770369 0.27268404 -0.63291234 0.37761977 -0.076577045 -0.16810456 0.30569518 -0.43021858 -0.39393684 -0.10981564 0.3971551 -0.81738275 0.3939737 0.009491578 0.5580551 -1.1857153 0.43424514 0.080276296 0.1467552 -0.6683966 -0.06584489 0.6285009 -0.16876262 -0.4472719 -0.28157994 -0.15305738 0.5311938 -0.5924358 0.23180129 0.14611407 0.025022184 -0.084145375 -0.5025593 -0.6274773 0.49304834 0.3703654 0.6827971
105 0.01606394 0.09839539 -0.11289872 -0.46555844 -0.21450266 0.20444988 0.15813893 -0.55200547 -0.23283418 -0.06170716 0.29056868 0.17166068 -0.46451724 -0.029265774 0.33583483 0.32357612 0.34897196 -0.010785332 0.34594473 0.20007959 -0.58563775 0.08538811 0.122020975 -0.018066073 -0.15928242 -0.5912003 -0.21370575 -0.025069276 0.7085729 0.2840884 0.116381034 -0.059968594 -0.48888972 -0.036876272 -0.37062448 0.31802258 -0.28734797 -0.10512355 -0.20225058 -0.46751222 0.21063484 -0.3731624 0.25895736 -0.2582427 -0.39805448 0.13007915 -0.4870118 0.101180375 -0.40707305 -0.29828608 -0.00043422423 0.33486998 -0.2771675 0.16304237 0.34120044 -0.22511974 0.55063725 -0.32969105 -0.096496046 0.18388575 -0.15897311 0.14825496 0.035706334 0.12891082 0.42743275 -0.06502855 0.047380254 -0.25355065 -0.049762398 0.1299077 -0.14672036 0.40544334 -0.28566676 0.12772214 0.052465167 0.3154208 0.026834276 0.6917967 0.009146359 0.17988461 0.011621292 0.060392268 -0.2983623 0.7300366 -0.09591724 -0.7228783 0.24505644 -0.52863866 0.27363592 -0.33291265 0.2543649 -0.10789942 0.36539283 0.2573268 0.14030363 -0.530403 0.2699777 0.14043045 -0.44878113 -0.15044756 0.59426016 0.3688808 0.20230323 0.7868027 0.058831573 0.15996619 -0.25589776 0.34347683 -0.050741166 0.57311803 -0.09797322 -0.19834022 -0.13069613 -0.24057722 0.55563027 0.33917487 -0.0047146934 0.25647542 -0.07318821 -0.20324911 0.04214448 -0.4633607 -0.31467476 -0.9089304 -0.30598593 -0.12456307 0.6547761 0.13839178
51 -0.0017216762 -0.1584108 -0.60662407 0.07215834 0.097543135 0.21673553 0.6574702 -0.37782568 -0.05153341 0.17540571 -0.18341501 0.082106 -0.39284518 -0.21480659 0.004737622 0.34782505 0.19967282 0.5062533 0.19067517 0.33048776 0.43847838 -0.46574566 -0.18742295 0.4649398 -0.3076097 0.06910002 0.17738168 -0.2063764 0.08554572 0.426136 -0.25180277 0.14170441 -0.5729452 -0.059263222 0.055891223 -0.06889 0.35445124 -0.06639629 0.58102053 -0.48443833 0.7147649 0.029937413 0.5032142 0.28030276 -0.32997915 0.10055358 -0.34509626 0.14525482 0.30267406 0.045889962 -0.29546112 0.76055694 0.5033632 0.40227264 -0.2925282 -0.39697975 0.42152232 -0.3935993 0.30794007 -0.44670048 -0.080103114 0.013025128 0.028021745 -0.4667341 0.39309758 -0.37113768 -0.23430146 0.21377635 0.5142907 0.017276296 -0.12510943 0.30003378 -0.20911801 0.14908011 0.13002749 -0.18026094 0.5969358 -0.25754765 -0.29032412 -0.18394944 -0.32003564 -0.14677975 -0.19133073 0.009293385 0.16070266 0.6721389 0.3402618 -0.38437748 0.52597266 -0.41324753 -0.01749654 0.5483703 -0.42186332 0.10023276 0.4875596 -0.24543399 0.13641705 -0.14098416 0.071321756 0.12696241 0.18752132 0.28182116 -0.102480166 0.108818576 0.073623374 -0.37155458 -0.5666628 -0.11411757 -0.12855223 0.2847376 0.5193882 0.565824 0.4514252 0.06536509 -0.3600142 -0.19197041 -0.52561885 0.341023 -0.44899118 0.073926814 0.1381577 -0.3919492 0.29886553 -0.38155878 -0.26628405 0.5639299 0.1060692 -0.29923904
215 0.64832896 0.05940495 0.3509482 -0.13466246 -0.255517 -0.12966782 -0.045064453 -0.06530981 0.29453236 -0.74288577 -0.08751692 -0.07660807 -0.25957543 -0.23699953 0.40699664 0.39887157 0.6334683 -0.26191643 0.08667962 0.01471885 0.11012603 -0.6893539 0.010129809 0.11893991 -0.7375779 0.18654642 0.0089863995 -0.36421356 0.20931685 0.1545604 -0.1739119 -0.6320816 -0.27968848 0.10010071 -0.39496824 -0.05063712 0.06471702 -0.07218838 0.30178902 -0.09320732 0.12579127 -0.06873973 0.08580651 0.2625205 -0.36870128 -0.79703766 -0.50121003 0.06745221 -0.14945838 -0.73852336 -0.14164367 0.21883589 -0.39830574 0.0687998 -0.5951266 0.07363863 0.67715526 -0.04731826 0.38311586 -0.40505534 -0.6276953 -0.46451497 -0.59256434 -0.29532674 0.3479971 -0.50775045 0.0560643 0.04785068 -0.4051402 0.08178888 -0.31342185 0.26978835 0.17478612 -0.18385457 0.38569695 0.75624335 0.34522024 0.4147551 -0.95668817 -0.74804074 -0.012920427 0.16840456 -0.3344668 0.4536786 0.03084367 0.33197615 -0.34726122 0.02876358 -0.2934694 -0.09127954 0.15027249 0.045525216 0.3198663 -0.5643076 0.101169914 0.47585133 0.15375784 0.31024954 -0.06336943 -0.3286155 0.024800021 0.57922965 0.123371154 -0.18390942 0.22079447 -0.04054811 0.18857346 -0.086678915 -0.21218844 0.5826801 0.44918832 0.066204056 -0.08429565 0.26324013 0.09106088 -0.23443799 0.26785126 0.5067526 -0.59903586 -0.5822796 -0.51825374 -0.67183447 -0.757515 0.091494896 0.025096374 0.22710043 0.7275166 0.23909536
233 -0.06691478 0.22338763 -0.16600169 -0.4330612 -0.32824895 -0.13366897 0.17260557 -0.50676465 -0.43915832 -0.38513902 0.2829019 0.24708296 -0.30494604 -0.01060886 0.19036065 0.49140507 0.5938679 -0.06980413 0.54105234 0.15421395 -0.358075 -0.3156721 0.13065955 0.12277531 0.014246182 -0.11153066 -0.044522293 0.06455127 0.51396924 0.12516074 0.1616677 -0.1983503 -0.4556685 -0.13327387 -0.31457928 0.3121998 -0.117242195 -0.37381905 -0.30697903 -0.16744821 0.14780395 -0.46210954 -0.37445536 -0.12657696 0.16712232 0.5582641 -0.17498913 0.02324114 -0.033795282 0.23363282 0.51662004 -0.20691827 0.04593997 0.06927582 0.035190042 -0.4579566 0.3411237 0.15210156 0.3069473 0.38946462 -0.38232037 0.45472312 0.08664172 0.039614145 -0.076108776 -0.1118521 -0.26364088 -0.17455341 -0.13558441 0.48103708 -0.15347067 0.25299257 -0.082018636 0.29812574 -0.12079062 0.6051029 0.07448381 0.24428354 0.45120183 0.25446796 -0.19742632 -0.08804178 0.030597094 0.16369452 -0.14435574 -0.28416467 0.072173625 0.28917557 0.5056697 -0.24455832 0.40953234 0.56991726 0.6988655 0.05300889 0.57285357 -0.2583016 0.05285767 -0.036983043 -0.2657141 -0.024924703 0.6443116 0.3875891 0.43471056 0.22643375 -0.66341645 0.1324414 0.07532756 -0.35122862 0.14810392 0.5383258 -0.09003642 0.06538467 0.19334342 0.28592694 0.55822605 0.22790965 -0.4309054 0.41772562 -0.07274553 0.72069454 -0.115749985 -0.45744172 -0.47793275 -0.5523328 -0.12316104 0.404177 0.10289743 0.5546361
262 0.033113606 -0.35328844 -0.55237687 0.18690327 0.025156576 0.013343591 1.050273 0.779954 0.36427101 -0.25520957 -0.4337359 -0.09486944 -0.4677976 -0.6204062 0.64722097 -0.7812004 0.49677143 0.82948434 -0.43453425 -0.18380968 0.5336358 0.16475092 -0.26421714 -0.18386479 -0.86659133 -0.5379155 0.5895009 0.12277706 0.029633895 0.6771237 0.14440735 -0.26290396 0.06516843 0.19144683 -0.24087583 0.34096363 0.049253408 -0.3256366 0.68158984 0.0543086 0.26331028 -0.5589072 0.16835247 0.7167449 -0.574522 0.30522808 -0.2332985 0.14050183 -0.27245864 -0.0005459362 -0.004580428 0.43491817 -0.03590626 0.22049707 -0.33124432 0.21905237 0.11369343 -0.5524107 -0.21299797 0.17331164 -0.7942873 0.37688562 -0.56612575 -0.5389982 -0.037350345 -5.7347417e-05 -0.40342698 0.6245429 0.96928126 0.12457509 -0.22222723 0.68011165 -0.36743456 0.32736093 0.2706171 -0.0076374062 0.13366488 0.05625055 -0.41278398 -0.097603925 -0.48483843 0.084298834 -1.0444787 0.5141714 0.23602283 -0.1791854 -0.16913733 0.21577069 0.39615503 -0.23861684 0.91033965 0.50181216 0.101548426 -0.12594987 0.71597457 -0.33888736 0.03337013 -0.01876322 0.07048127 -0.12464983 0.14680104 0.6279774 -0.10363907 0.49252862 -0.77594143 0.08549593 -0.015052123 -0.13325308 -0.19390135 -0.20222953 0.21369864 0.28156137 -0.26277563 0.19906935 0.45502734 -0.16076195 0.02147344 -0.29410008 -0.30897143 -0.021001311 0.7444808 0.10973025 -0.28070787 0.04944598 0.15471278 0.4215288 0.3202742 1.0032504
281 0.17068672 -0.15811494 -0.33836493 -0.86907536 -0.23350894 -0.096701056 -0.13837236 -0.012816746 -0.28150663 -0.76871765 -0.06600542 -0.9763151 -0.14852516 0.24958414 0.44935468 -0.80334866 1.3980224 0.26425663 -0.3782719 -0.29121783 0.0634367 -0.027505273 0.57284933 0.8322074 -0.15193802 -0.34529492 0.7995184 -0.0013609872 0.53558815 0.15212727 0.21937446 -0.45477602 0.43913856 0.6092831 -0.17488864 0.32249925 0.12382538 0.24795182 -0.28762576 -0.71072406 0.496948 -0.23827477 -0.34447905 0.3622603 -0.35710126 -0.3438879 0.20298015 0.03467629 -0.23831037 -0.09227293 0.22210811 0.51746005 -0.9521248 0.3054845 -0.39445552 -0.8246135 1.2865318 -0.091531955 0.53768015 0.5411915 -0.4147795 0.2703657 0.44914064 -0.35236126 0.6506635 0.45294482 -0.43092728 -0.20574115 0.22352472 -0.08822227 -0.09285024 0.23074682 -0.7449507 -0.27309063 0.50669366 0.30996627 -0.88313115 -0.24950053 0.46547228 -0.29630888 0.099262655 0.13912943 -0.45902258 0.6676741 0.4574449 0.2561555 -0.2221432 0.4186205 0.058104377 -0.27988157 0.4980043 0.9444349 0.081104815 0.27498853 0.5354489 -0.51376915 -0.2756021 0.07925394 0.09686665 0.82763374 0.039630886 0.32988244 0.3665166 -0.1932197 0.1597991 0.34052128 -0.13930295 0.16932504 0.6009867 0.2919319 -0.11997218 -0.030570444 -0.24238472 0.12463789 0.8218905 -0.56946504 -0.08612554 -0.35160115 -0.49125692 0.5867185 0.050944712 0.016978156 -0.042478528 -0.14475138 0.4518247 -0.118326396 0.091263294 0.09227475
135 0.04164968 0.016480708 -0.9505031 -0.20835105 -0.10544485 0.021008471 0.38010564 -0.5768413 -0.28413588 -0.26580337 -0.105104 0.021154828 -0.2280341 0.5090108 0.013151105 0.1863019 0.5104298 0.29438782 0.3388841 -0.1572115 0.0904887 0.3163455 0.15216717 -0.35505477 -0.8123826 -0.0651958 0.6213354 -0.31283516 0.20537126 0.15403882 0.6956414 -0.46613714 -0.2836768 -0.27735177 0.43626383 -0.06249877 0.4179294 -0.13263834 0.096157424 -0.4275628 0.058919683 0.0678519 -0.30284134 0.22356087 0.14560229 0.5790341 0.17505631 0.26424554 0.117833436 0.38007727 0.1335687 0.13642958 0.26693636 0.4303853 -0.57912004 -0.72883564 0.2999633 -0.77110654 0.29535484 -0.6104678 -0.48422986 0.40365344 -0.41235298 -0.18090029 0.08271303 -0.11728185 0.15623945 -0.020929659 0.59132427 0.11517186 0.12442119 0.38564473 -0.07996238 0.36640856 0.0045759114 0.26993904 0.42449647 0.56829476 -0.4227062 -0.5473762 -0.035653207 -0.1639247 0.16066395 0.35226792 0.2548135 0.1761394 -0.20512879 -0.65119463 0.18609549 0.0514078 0.3773166 0.5356793 0.1707789 -0.5641164 -0.06930471 0.1596084 0.19278176 0.092441514 0.7198439 -0.013738836 0.46831396 0.21215932 0.23167895 -0.06961926 -0.29647684 -0.31379828 -0.22560969 0.31814426 -0.41066337 0.07069598 -0.13262749 0.38713032 0.11053801 0.85870796 -0.13571393 -0.21695313 -0.30657873 0.095297575 -0.11328012 0.29689997 -0.0904335 -0.6531293 -0.8609038 -0.17207666 -0.3189458 0.4271658 -0.103600815 0.29162303
19 -0.2084755 0.23189563 -0.34434497 -0.5028611 -0.13825054 -0.17382364 0.20099261 0.56575775 -0.2314958 -0.32127708 -0.25060326 0.06117699 -0.504946 0.29967195 0.782882 0.38840574 0.13896994 0.73420775 0.31184718 0.04083547 0.68020403 0.19568384 0.07626363 0.27712715 0.24103777 -0.2939857 0.6050372 -0.27027526 0.15441526 0.022860276 -0.24286568 0.051925275 -0.123407334 0.41564304 -0.81847703 0.42089352 0.0987477 0.32672274 0.057993405 -0.22024985 -0.23761334 0.11251043 0.8107856 0.29363373 -0.44534168 0.24747168 -0.43274152 -0.25909466 -0.40157261 0.6333305 -0.07175851 0.31200132 -0.6370523 0.55841935 0.3265736 -0.06983158 0.46409944 0.09053468 0.21765473 0.064668186 -0.45726445 -0.4573154 -0.3155911 -0.9359208 0.30481827 0.121100545 -0.61967874 -0.36833155 0.06840718 0.1415206 0.07340323 0.65231186 0.07711141 0.5151442 0.47491542 0.5567553 0.3661066 0.16635907 -0.36975613 -0.13835445 -0.1686577 -0.31980765 -0.10235527 -0.22604237 0.15103607 0.656339 0.25273144 -0.28973794 0.57132506 0.08057079 0.13836929 0.5772984 0.22049463 0.074753046 0.03403915 0.109224185 -0.54014933 0.23981887 -0.274078 0.087870434 0.664771 0.38652363 0.17627183 0.093609676 0.5471355 -0.024961248 0.12566525 0.26436162 -0.54826343 0.5623032 -0.07195035 -0.33016387 0.05168726 -0.1870086 0.1551408 0.28267303 -0.07504981 -0.7145966 -0.25628304 -0.074877776 -0.5638618 0.5529729 -0.44771507 -0.44619176 -0.16771856 0.68126684 0.5871596 0.29349664
82 0.28823924 0.015201037 0.32676724 0.42700434 0.0020780328 0.43325475 0.18748574 -0.40915328 0.08674189 -0.44587475 0.10365135 -0.2174804 -0.6380522 0.2956171 0.82576936 0.10801932 0.59898275 0.39166942 0.17249034 0.17876953 -0.04411443 0.0025522343 -0.35581106 0.22897692 -0.13398427 -0.4796896 0.012132591 0.02659965 0.8360404 0.14519641 -0.12670654 -0.18960918 -0.52277786 -0.24870954 -0.36905435 -0.03828579 -0.051175326 0.39364928 -0.25457427 -0.3919259 0.3194344 -0.56800807 -0.22065419 -0.026516307 -0.5161522 -0.06835526 -0.42762214 0.0077435076 -0.6884561 -0.27974984 0.4475185 0.44585013 0.050642148 0.32602724 0.016499337 -0.21381736 0.2133253 -0.65959793 0.0524903 -0.052558947 -0.2457828 0.14226179 -0.0033120173 -0.24281666 0.3079348 0.09616249 -0.23617117 -0.25496757 -0.18162459 0.2995441 0.13564576 -0.10509391 -0.09732894 0.35666266 0.108266786 -0.18238176 0.27920544 0.5992369 -0.09135052 0.13991503 -0.37507182 -0.10892954 -0.13894022 0.64802384 0.13912436 -0.6246721 0.5263869 -0.32725704 0.16008827 -0.03691873 0.25529993 0.42339626 0.27952623 0.29930174 0.043887053 -0.37618122 0.017426565 -0.08073601 -0.24944252 0.3146248 0.5560005 0.50953245 0.31233796 0.6569658 -0.13174832 0.10906409 -0.21349432 -0.11301794 0.23748362 0.81500506 0.043108433 -0.13461177 -0.12518162 -0.011184727 0.33561596 0.24445465 -0.19556856 0.11303133 -0.1588058 -0.23493326 0.009449364 -0.54513013 -0.40592232 -0.6573276 -0.16703324 -0.23028554 0.6354799 -0.1554188
