360 128
307 -0.23118171 0.7371389 0.123027064 -0.029125161 0.15494579 0.3433226 -0.28198448 -0.10807804 0.2949408 0.24705067 -0.23924038 -0.24129133 0.12305841 0.62211084 0.82208323 -0.17703718 -0.04378453 -0.5559601 0.2794248 -0.04640257 0.04178772 -0.21888167 0.1267065 0.011128519 0.38365474 -0.42152813 -0.079317234 -0.2791654 0.31534663 0.06429563 -0.21141723 -0.036245648 0.050058227 0.34126627 0.10182666 0.09627138 0.30644947 -0.006302442 -0.46152413 0.14651692 -0.42868346 0.03965729 -0.0020855104 0.11473489 -0.008003892 0.5739858 -0.28317186 0.34931222 -0.45307153 -0.353878 0.060838066 0.029733295 0.12063919 0.16427724 0.16887373 0.013249994 -0.07014956 0.2025234 -0.7033452 0.44430438 -0.5592424 0.24531826 -0.20838535 0.0032626523 -0.3071846 0.56704956 -0.33430985 -0.35953128 0.14127778 -0.015329562 0.3842262 0.66433704 0.10951264 0.0350921 -0.66246915 -0.2197509 -0.29428878 -0.29022372 0.29502267 -0.7888883 -0.04548511 -0.11938572 -0.020682406 0.6730834 0.27723712 0.5442221 0.040670566 0.54056305 0.33738622 0.42740136 0.17897163 0.002909019 -0.16200013 -0.79217625 0.13306478 0.042256817 0.20068106 -0.029364374 -0.27171338 -0.73785955 0.54066736 0.21125801 -0.03248719 0.13850759 0.1443714 0.47708613 -0.13788609 0.007800419 -2.0703184e-05 0.3415265 0.60608816 0.30718258 0.03268871 0.38867095 -0.019797668 -0.055715173 0.023801422 0.3912817 -0.4339478 0.31045994 0.65056896 0.2322658 -0.29952767 0.61910945 -0.375142 0.1528383 0.1889515 0.28270113
182 0.22288749 0.045033388 -0.23438247 0.37511098 0.8207342 -0.15509357 -0.07403709 0.39779875 0.11196914 0.77707654 -0.39177492 0.2982506 -0.106944665 0.9449569 0.4497182 -0.050841954 0.28119326 -0.0669081 -0.0010557468 0.4762668 0.599911 -0.27192876 -0.21265885 -0.40548876 0.49435362 -1.0928003 0.3514424 -0.77128917 0.46078888 0.16532879 0.0807005 0.027133739 0.8859411 1.5219425 -0.021348322 -0.5768498 0.30067608 0.15974161 -0.93378794 -0.689896 -0.08779458 1.3026671 -0.4470909 -0.08273412 -0.119744994 0.07435078 -0.56741506 -0.04349127 -0.59873706 -0.40903744 -0.39058647 0.87686044 0.008643353 0.30483475 -0.4107711 -0.5946839 -0.07974373 1.1298779 -0.43164954 -0.37337735 -0.80574816 -0.2704626 -0.4268891 0.46150368 0.14220318 -0.68972707 -1.1267991 -0.07366285 -0.20804937 -0.78977525 -0.26500857 -0.31941217 -0.21634883 0.8676072 -0.16561602 -0.815418 0.24156606 0.1559947 0.34137702 -0.6143943 0.16839081 0.21935362 -0.07541949 0.54745 0.8477173 0.4522761 0.1868176 0.26952544 -0.45778424 -0.09938708 0.5581801 0.3318855 0.6165155 -0.38571218 -0.009974104 -0.15023927 -0.25049272 0.7362435 0.23993506 -0.22368848 -0.0071191723 0.21689516 -0.60394466 -0.32279032 0.99172306 0.3772871 0.2669965 0.1943347 0.37646505 0.51828694 0.005608661 0.4607698 -0.047485936 -0.1193862 -0.6960743 -0.539354 -0.06195853 1.0141884 -0.09398873 0.84316903 0.5870657 0.48529643 0.67636734 0.16811705 0.520898 -0.6015842 -0.2804118 0.6865525
7 -0.42850512 0.17839505 0.25207815 -0.022456987 0.35819978 0.24822722 -0.20233718 -0.61782056 0.33452177 0.7711134 -0.47586972 -0.33637702 -0.075285025 -0.05352708 1.0469936 -0.031201996 0.14096971 -0.8915614 0.33256873 -0.32328925 -0.28699815 -0.49570364 0.62172955 -0.21776946 0.014882842 0.04063585 0.7816165 0.48201084 -0.43416855 -0.08926339 -0.27636927 -0.17580481 0.7705629 0.21069326 0.43411756 0.2170545 -0.4252616 0.8096824 -0.08937393 -0.5203325 -0.15712811 -0.055181026 -0.0031102106 -0.51426345 0.5827363 -0.5499926 -0.7978008 0.8371523 -0.27150327 -0.31225786 0.6529666 -0.10966992 0.6828149 0.22735472 0.5592782 -0.22368671 0.1768015 -0.1875959 -0.7540572 -0.048669428 -0.08737419 0.54922205 0.17418288 0.0144369565 -0.70409614 0.4173902 -0.8338802 -0.02594837 -0.30857727 -0.49856156 0.2895594 0.64375484 -0.16032277 0.054292087 -0.22169036 -0.40503505 0.4434648 -0.4756888 0.6280201 -0.08814101 0.22087765 -0.63705534 -0.13051677 0.35620937 0.02108485 0.50421536 0.16591157 0.06680099 0.729117 -0.19473742 0.07907544 0.054776188 -0.26685452 -0.06577093 0.010479831 0.09279681 0.6092385 0.3100913 0.4228183 -0.86921495 0.18119599 0.21270669 0.17798084 -0.47309616 0.9012134 0.16299686 -0.9120998 0.19856887 -0.0010214443 0.13271044 0.2830414 0.8389985 0.3639643 0.07795367 0.01333737 -0.33522066 -0.028299388 -0.21723117 -0.4675849 0.33964938 -0.0314042 0.6202681 0.18129282 0.9875741 -0.27031904 0.23290373 -0.14006427 0.69525397
308 -0.21472281 0.6336055 0.17591892 -0.1228282 0.15994132 0.30027622 -0.22292891 -0.25142673 0.15430744 0.37831548 -0.22062744 -0.10659269 0.17568842 0.6404045 0.7249469 -0.58018464 0.12105556 -0.35929546 0.55004704 -0.014528597 -0.056380436 -0.2399091 0.19358113 0.085885435 0.5186836 -0.2789882 -0.07497924 -0.20244469 0.31291905 0.15161365 -0.37881216 0.060300343 0.06061521 0.39751482 0.08695133 0.09474801 0.26645643 0.05583592 -0.4318006 -0.04087851 -0.1625349 0.10236346 -0.13890809 0.12936881 0.10961625 0.4797653 -0.29324463 0.16180545 -0.5542771 -0.4002121 0.13320327 0.13828926 0.19467004 0.11650289 0.22161512 -0.11277509 -0.28588644 0.14235273 -0.74703044 0.15512645 -0.4293235 0.07940508 0.03406777 0.15224566 -0.33048075 0.5001406 -0.42296514 -0.39945585 0.27090785 -0.27392003 0.37961012 0.51949793 -0.011116595 0.19689392 -0.6198507 -0.16555423 -0.22997937 -0.27275163 0.32355553 -1.0482242 -0.22051823 -0.111980595 -0.08707859 0.76629186 0.17981197 0.37462914 0.024997367 0.48554274 0.39044023 0.6768191 0.062503025 0.03544572 -0.21928507 -0.7116284 0.0154928425 -0.08482934 0.1734902 -0.12571372 -0.26902884 -0.70096797 0.68387485 0.124401376 -0.18096776 -0.2433427 0.26355982 0.44830066 -0.023680001 0.046618287 -0.15492815 0.42509246 0.6688274 0.4006917 -0.051848706 0.45807397 -0.11822766 -0.19385606 -0.10281072 0.562044 -0.23644999 0.34127095 0.7198963 -0.03631505 -0.3754644 0.5971451 -0.19815807 0.16201295 0.1595118 0.4882994
312 -0.48679265 0.8277441 0.23584738 0.024930969 0.10426498 0.444623 -0.16852096 -0.059477612 0.3189586 0.47710058 -0.32203627 -0.32927272 0.0707149 0.6887084 0.9559679 -0.2413075 0.07053988 -0.5883307 0.44876322 -0.03712307 -0.094316766 -0.47972488 0.27190632 0.124741256 0.29982033 -0.40595466 -0.055475708 -0.26910782 0.4473342 0.19060113 -0.42241603 0.061399512 0.09985521 0.47040272 0.124349795 0.12847066 0.2030293 0.16093458 -0.31721604 0.037757058 -0.4458529 -0.08918494 0.15515785 0.121029034 -0.042988956 0.6791393 -0.31956723 0.40861836 -0.5851745 -0.44378823 0.07079914 0.12017937 0.14831091 0.18017963 0.12223757 0.05432544 -0.11499747 0.06685264 -0.6447917 0.4012829 -0.5595788 0.25857645 -0.056367245 0.0363086 -0.52062225 0.5597329 -0.3040266 -0.43605077 0.27179942 -0.11950674 0.41525 0.66352844 -0.024413997 0.2050971 -0.48657843 -0.19677448 -0.12223189 -0.40652376 0.20324731 -0.7430427 -0.112238556 -0.024334215 -0.058787465 0.7876397 0.22997104 0.50378716 0.02818363 0.58023906 0.44193658 0.38952887 0.023794198 0.09390748 -0.068831295 -0.72775656 -0.052120358 -0.003623873 0.27579582 0.008882639 -0.20403485 -0.51303864 0.5636719 0.050470296 0.07979892 0.16281871 0.17083208 0.49311638 -0.24371998 -0.10036505 -0.16141637 0.30200753 0.6454627 0.34828097 -0.026103308 0.2722879 -0.033588912 -0.17359658 -0.06751613 0.05980978 -0.39848736 0.41789094 0.5133391 0.29504883 -0.2407504 0.6527523 -0.28467637 0.06440814 0.2314691 0.24021508
243 -0.40224743 -0.04279842 -0.25991067 0.33773687 0.40080065 0.1831249 0.21092014 -0.0497969 0.42995512 0.69174236 -0.8880857 0.14323817 -0.107359685 0.21655917 -0.110125914 0.13787308 0.29639786 0.013343148 0.35469562 -0.22826417 0.040467773 -0.15711483 0.21067505 -0.49841544 0.10856478 -0.58799696 0.30756447 0.15003099 0.26932433 0.098175675 -0.6473594 0.044216406 0.16279316 0.0725706 0.33773223 -0.21773584 0.30199558 0.18112569 -0.48265454 -0.08565259 -0.5119268 0.48064047 -0.57841134 -0.3812316 0.4223119 -0.22166423 -0.35320732 0.20427682 -0.3625 -0.1383609 -0.12704743 0.015112333 0.3798249 0.3760416 0.10110532 0.38096762 -0.04618703 0.12767358 9.652818e-05 0.078205206 -0.16048805 0.21057516 -0.1256155 0.45426905 -0.06463073 0.21419683 -0.21514076 -0.710599 -0.1528469 -0.3711825 0.40255836 0.40783554 -0.022563182 0.2732861 0.5819756 -0.25628433 0.32164 0.18019338 -0.35425228 -0.29898632 0.17722891 0.30520073 0.054259364 0.26834112 -0.27317667 0.34294018 0.18183577 0.48898017 0.20144694 -0.43163842 0.32749024 0.0825859 -0.29682916 -0.29710555 0.025955528 0.55210835 0.22535774 0.041088857 0.44469458 0.104034126 0.44901574 -0.16160849 -0.09026248 0.022830592 0.31630942 -0.24875437 -0.30198878 -0.11606236 0.49411827 -0.025526412 -0.4295763 0.2849158 -0.03246422 0.32529506 -0.6668141 -0.08380465 -0.21304452 -0.30496866 -0.3672511 0.32319802 -0.24087366 0.24700631 0.21995808 0.19812407 0.13346496 -0.043428555 -0.046101477 0.17006345
258 -0.1155781 0.5985342 0.016388454 -0.27884892 0.21686031 0.21891707 -0.17932624 -0.18425593 0.04887499 0.36935276 -0.3999362 -0.128582 0.09486573 0.6121008 0.8838424 -0.587186 0.13975455 -0.26641122 0.46502772 -0.1540244 -0.017331103 -0.040429894 0.26317388 -0.042802025 0.5862464 -0.35568288 -0.24053775 -0.0920501 0.23476183 0.08184228 -0.29938942 -0.05190438 -0.0903093 0.41319707 0.27301005 0.15243642 0.22927256 -0.0034294417 -0.42795646 0.09537303 -0.26633203 0.18144733 -0.2811195 -0.033054538 -0.13223143 0.43060687 -0.17775829 0.16742481 -0.403845 -0.37998345 0.10009787 0.20394349 0.045993775 -0.018590987 0.32129413 -0.18185973 -0.24281502 0.21420033 -0.882576 0.17736042 -0.20622812 0.057858203 0.12053341 0.108109914 -0.23631094 0.44335592 -0.42317396 -0.26886025 0.23148051 -0.12671642 0.46941394 0.56218535 0.096414186 0.038437862 -0.6525463 -0.26178938 -0.15889591 -0.295915 0.18446039 -0.9901474 -0.18095145 -0.07782882 0.06744183 0.74569094 0.1007559 0.5286221 -0.0785283 0.27650237 0.48394588 0.6247646 0.07900913 0.038792428 -0.29558864 -0.7417963 0.23799263 0.0046414994 0.23123652 -0.21519074 -0.2524078 -0.76503694 0.67637503 0.02073816 -0.3055239 -0.1997775 0.34690925 0.3349111 -0.054749023 0.08719655 -0.02243451 0.40218493 0.6128608 0.48130348 -0.025700785 0.5257853 -0.08630602 0.016451564 0.020587038 0.49855155 -0.12713806 0.37034333 0.75801206 -0.13048442 -0.37591812 0.63709575 -0.1315632 0.14395116 0.07014328 0.4200569
155 0.53565234 0.7581792 0.7311935 0.653202 0.0048534614 0.1825136 0.08143345 -0.9114884 0.7691076 0.91879493 -0.73245305 -0.47241107 0.46089944 0.7256183 0.018659703 -0.09894033 0.5349773 0.19924091 -0.13486485 0.13208309 0.5885652 -0.3991446 -0.1895095 0.25524747 -0.05931289 -0.4659941 0.66380936 -0.059713606 0.32327116 0.19452801 -0.23366451 0.12255349 0.66803783 0.8150161 0.6676876 -0.7492023 0.482778 -0.27232704 -0.07869959 0.26976642 0.30013937 0.6764685 -0.29876158 -0.32140812 0.64162534 -0.11512197 -0.530895 0.36430398 -0.5676596 -0.69206274 -0.41618353 0.14423455 0.4300456 0.64178526 0.3706145 -0.13577563 0.10867525 0.58437425 0.098827064 1.1839294 -0.4351244 -0.13728611 -0.43584776 -0.14534529 -0.1244718 0.48532537 -0.21436313 -0.05603963 -0.39139855 0.08907189 0.35597458 0.18901706 -0.73509294 0.6480818 0.66852915 -0.5890176 0.67376894 -0.29818693 -0.14492738 -0.61165285 -0.010767877 0.23272933 -0.45174325 1.0995703 -0.06140548 -0.37158605 -0.2109855 0.5931032 0.5463865 -0.31578124 0.005789005 0.40082029 0.03026184 -0.7346299 0.4641156 -0.02205022 0.87249535 0.8357075 0.29915842 0.13135955 0.7217008 0.36195302 -0.2766566 -0.60542405 0.082503185 -0.18216853 0.4225705 -0.59830284 0.23322874 0.50875837 0.6048605 0.3464054 0.81974095 0.3290951 -0.32508847 -0.45484528 -0.15035826 -0.07704706 -1.0547913 0.9305888 0.10124097 0.69852406 -0.26468605 0.88424736 -0.30237707 -0.028037598 -0.017296884 0.03832964
224 0.20114447 0.10733181 -0.3529114 0.3241758 0.7323967 0.43336117 -0.396826 -0.3465835 0.29746237 0.6133455 -0.4596188 -0.45385498 0.8803553 -0.04002627 0.28428933 -0.31094143 0.06920342 0.0074670394 -0.014252492 0.1745515 0.45851415 0.2926858 -0.28181836 -0.98217356 0.2174386 -0.32057342 0.049048334 -0.1339038 -0.19413285 -0.42139274 0.023973782 0.4574473 0.8998562 0.91671485 0.42957357 -0.62850547 0.22538054 0.80473423 -0.4962642 0.41779593 0.17863752 0.5364077 -0.32617664 -0.3159575 0.31193733 -0.23544577 -0.72886133 0.2276493 0.4787316 -0.10578729 0.31040993 0.396696 0.3181351 0.57504666 -0.6875015 -0.9019673 0.21330957 0.8284192 -0.1647595 0.5534463 -0.2496655 0.06715757 -0.22691679 -0.08211928 0.2116032 0.025753418 -0.6216756 -0.36231852 -0.63140863 -0.49476495 -0.43933204 -0.1847699 -0.6279265 0.45335475 0.1804614 -0.48437357 -0.088630654 0.29194254 0.37473133 0.49002135 -0.22654144 -0.075590596 -0.7367512 0.08321586 0.47438303 -0.25142786 -0.43880603 -0.22536165 -0.42518032 -0.1523075 0.32096484 0.23685065 -0.17528741 -0.3418654 0.7818826 0.37603915 0.3525213 0.5290338 0.21046224 0.4673708 -0.004772926 -0.13092309 -0.7102926 -0.16461931 0.4524484 -0.40664876 -0.21108913 -0.12166205 0.29548573 0.41774085 0.054753467 0.14549154 0.19725652 -0.16946287 -0.16795416 -0.113546394 0.6605391 -0.29147467 -0.5745849 0.13875121 0.024016777 0.48401058 -0.22588775 0.27905947 0.09886654 -0.31525925 0.1953601 -0.17133775
233 -0.4492898 0.013757471 -0.26250905 0.26183295 0.40789086 0.095619194 0.20610559 -0.08000046 0.45696208 0.7654642 -0.7754245 0.080183476 0.045574885 0.0694293 -0.03636067 0.12623274 0.19995621 -0.023646066 0.2838311 -0.20626563 0.1443891 -0.079812236 0.23663168 -0.43015915 0.12846474 -0.6213967 0.24447885 0.2795656 0.13442829 0.025689628 -0.5098723 -0.012903076 0.060438152 0.016622264 0.46225154 -0.30344865 0.26901403 0.22708309 -0.43689328 -0.22542486 -0.6356255 0.5325086 -0.5923766 -0.37570846 0.3876852 -0.22461207 -0.37288988 0.085011706 -0.36630365 -0.0120029235 -0.1726461 0.046110034 0.27586612 0.3976946 0.14777833 0.23668607 -0.16891181 -0.00035745336 0.03754179 0.1307016 -0.15605117 0.19790418 -0.1312828 0.5172271 0.016472334 0.2237395 -0.19084185 -0.7132186 -0.23800886 -0.43855456 0.47895226 0.44409272 -0.0494484 0.47884667 0.5899808 -0.5212681 0.31677684 0.25307423 -0.29132387 -0.35491687 0.1383122 0.20942518 0.07340877 0.36363235 -0.3212334 0.43632752 0.21943605 0.51536363 0.29013082 -0.39463425 0.13831918 0.13273102 -0.27472854 -0.15803562 0.009400879 0.539657 0.32250282 0.052376274 0.24309838 0.2907643 0.4471024 -0.12199531 -0.066627674 -0.13833553 0.24899697 -0.25891533 -0.47204858 -0.129351 0.61616904 0.020426176 -0.36508164 0.17999355 0.022432148 0.26870152 -0.7835371 -0.16392682 -0.33084866 -0.26009664 -0.3546634 0.33607253 -0.357657 0.38864294 0.2318195 0.13525489 0.17861398 -0.16486499 0.039600637 0.15519914
263 -0.0463815 0.2880921 -0.0779067 0.34063223 0.46458426 0.30022198 -0.104014196 -0.2202302 0.28448543 0.41562423 -0.40696064 -0.22769204 0.13582432 0.37531358 0.40254983 -0.1234539 0.12949933 -0.31673637 0.2853151 -0.20335506 0.1852603 -0.13499469 0.13726576 -0.4649314 0.38274848 -0.51613057 0.29266983 0.011892081 -0.10430387 -0.052113686 -0.34362516 0.18254678 0.36480752 0.5025921 0.40308625 -0.08484163 0.22952822 0.4578738 -0.52043366 -0.09477215 -0.3392307 0.42788503 -0.44738564 -0.29694515 0.34047896 -0.13008279 -0.44129473 0.33214876 -0.39773956 -0.42702428 0.2443187 0.3098617 0.4041226 0.29270566 -0.039799158 -0.3140538 -0.087508045 0.35403058 -0.4972313 0.2799255 -0.31179002 0.18684801 -0.14705314 0.11921565 -0.12404091 0.09998087 -0.54722804 -0.43357658 -0.17371482 -0.47331566 0.1051887 0.5546496 -0.23226035 0.20697755 -0.025715008 -0.5272456 0.09471963 0.02207192 0.18045679 -0.5298928 0.0074148686 -0.1769125 -0.30510062 0.54467106 0.13976845 0.2935223 0.17002468 0.30466655 0.33209363 0.014292843 0.19135036 -0.034884583 -0.15983596 -0.43299162 0.30234885 0.3206731 0.356508 0.10913778 0.15298717 -0.18948556 0.4692324 -0.013448778 -0.41776502 -0.23835357 0.43296134 0.08540142 -0.50719315 -0.003197737 0.34852338 0.104273476 0.07404197 0.47637638 0.2600975 0.35276195 -0.41522115 -0.3725216 0.040455136 0.09421614 -0.5211587 0.44376925 0.18856838 0.28119278 0.061870277 0.47027633 -0.04551764 -0.08065693 0.1936428 0.41929534
159 0.49604782 0.4660302 -0.2283361 0.6277924 0.47912022 0.7879843 0.097604625 -0.41348386 0.4882463 0.28291845 -0.39704365 -0.66837233 -0.20684043 0.6841698 -0.07527105 0.05138323 -0.19851561 -0.6989874 0.42954436 0.02744287 0.27650836 -0.8771191 -0.040508598 -0.36307052 0.33149564 0.15074402 -0.032219037 0.15786336 0.12367547 -0.09325557 0.19772853 0.0039548813 0.78098214 0.52839935 0.41206893 0.6065506 -0.4882368 0.41748485 -0.8268478 0.24483104 -0.10515105 0.07597932 0.26917192 -0.508158 0.51762664 -0.0008682879 -0.3316722 0.17465776 -0.12269504 -0.72811884 -0.1523541 0.01232573 0.06984806 0.6444199 -0.068227686 -0.49353993 0.31353045 0.514611 0.02587147 0.6589927 -0.9098136 -0.4210763 -0.9704534 -0.17797983 0.05267938 -0.25488618 -0.97590315 -0.31442302 0.21485275 -0.71506625 0.2514147 0.19880036 -0.3487549 -0.54415995 -0.36488977 -0.90512097 -0.08445242 -0.00662643 0.12629385 -0.48560548 -0.13501167 0.09364795 -0.7557809 0.6923642 0.90496325 0.44661906 -0.09928373 0.33689705 0.31688303 -0.32707003 -0.11978007 -0.250157 0.1633454 -1.2029588 1.1568573 0.603369 0.8056156 0.3658592 0.28419986 -0.19729815 0.58399963 0.6752111 -0.16494761 0.6703398 0.30616805 0.045429513 0.0025608023 -0.07717615 -0.14403217 0.57192516 -0.10280333 0.57030463 0.38520578 0.6036355 0.6546304 -0.6403708 -0.1948254 -0.7946226 -0.38217595 0.43116084 0.7474973 0.38966802 -0.04545829 0.37627658 -0.71362567 -0.16980284 0.80120945 -0.006048783
15 -0.09325511 0.29617256 -0.18802465 0.3950335 0.5136889 0.3258142 -0.02230749 -0.2876771 0.28201282 0.48563692 -0.53601646 -0.22219011 0.19698334 0.39200735 0.44295254 -0.12389793 0.15992172 -0.24185571 0.3210857 -0.14262068 0.1926401 -0.0903634 0.07038239 -0.60980195 0.47818136 -0.49631798 0.24855322 0.09085805 -0.16100566 -0.051167555 -0.37414545 0.22583027 0.48574457 0.63342655 0.38301986 -0.09746111 0.27160308 0.51224166 -0.43545482 0.05765606 -0.35094818 0.46652627 -0.41600522 -0.35754108 0.35557497 -0.20105359 -0.49741122 0.32660338 -0.30962518 -0.5324279 0.14181566 0.48469597 0.4001174 0.3087749 -0.009761601 -0.36562613 -0.08923643 0.49714035 -0.6723073 0.43163353 -0.35587677 0.15722488 -0.14665636 0.029471742 -0.13057604 -0.0012150764 -0.5842122 -0.5793542 -0.18083487 -0.37352422 -0.030644177 0.5666455 -0.29867995 0.20082851 -0.08043164 -0.4960984 0.16745196 -0.028607914 0.10041277 -0.45083344 -0.07375273 -0.05188979 -0.2474276 0.6993626 0.16884324 0.33507213 0.17183289 0.2494989 0.2648785 -0.068403006 0.2997372 0.06835225 -0.15676963 -0.48205006 0.4121491 0.43085238 0.47810313 0.14249988 0.21131952 -0.12148999 0.4794326 -0.09789709 -0.544656 -0.23698927 0.5928133 0.074190594 -0.6348978 0.021669818 0.3079912 0.035631444 -0.0018959311 0.4518174 0.33449286 0.4791397 -0.471535 -0.48130277 0.11776619 0.011978843 -0.6809272 0.4512463 0.118783556 0.24770251 -0.046783064 0.42461333 -0.09558411 -0.15994433 0.33939233 0.51275754
75 0.41870147 0.32406944 -0.06899252 0.37775233 0.5639034 0.7287273 -0.6010476 -0.48214993 0.6920268 0.062497273 -0.107767485 -0.30163142 0.9787691 -0.016465332 0.02788911 -0.7658717 0.24079111 -0.9197589 0.5313964 -0.4852227 -0.026623828 0.07352779 -0.026047783 -0.36909422 0.41463822 -0.46032727 0.8343337 0.6860627 0.099248596 -0.07955942 -0.4015417 0.4520239 -0.21658279 0.22506943 0.10010839 0.30002874 -0.24943611 0.16129364 -0.80789447 0.4737135 0.19609256 0.31807566 -0.6622406 -0.6379791 0.666292 0.27332678 -0.44852406 0.6507169 -0.23251788 -0.07415056 0.8327023 -0.011759574 0.84450465 0.14172374 -0.07505331 -0.5992685 -0.15339081 -0.22232677 -0.3033121 0.38000953 -0.13270222 0.25846198 -0.6081171 0.05318974 -0.28855506 0.6397779 -0.21645768 -0.23116417 -0.09509108 -0.49112785 -0.12775892 0.16813828 -0.052505605 0.16614226 -0.43206477 -0.4911583 0.44364813 0.1392926 0.47982952 -0.8656492 -0.3054084 0.18988626 -0.56160706 0.14686458 0.32396138 -0.16483444 0.24006747 0.58611435 -0.24094376 0.04140639 0.034175936 -0.028373292 -0.74873835 -0.816391 0.3146989 0.75141793 0.34835926 -0.28804442 -0.032923818 -0.14918706 0.5880189 0.3310446 -0.21109964 -0.9647507 0.17691804 -0.2977602 -0.7198555 0.22147484 0.31069678 0.19798577 0.023605635 0.75508153 0.4562336 0.50279915 -0.23858187 -0.24198714 -0.017745253 0.41738197 0.08195677 0.22430949 0.3199944 -0.043737188 -0.39797378 0.2780694 -0.37429005 0.4039696 0.008872193 0.47481936
193 -0.007234145 0.35328686 -0.14458185 0.45570356 0.5208886 0.39389196 -0.07836997 -0.28592166 0.30212176 0.52435994 -0.49848276 -0.2351176 0.23988177 0.33865422 0.54628783 -0.12386211 0.109361164 -0.41736057 0.27184966 -0.27788255 0.24656099 -0.23138636 0.18438518 -0.5747439 0.36201832 -0.6389303 0.32348472 0.12498583 -0.12277925 -0.06090051 -0.33837786 0.23964725 0.42070597 0.6405861 0.55451024 -0.10893959 0.25776002 0.41966903 -0.6230785 -0.122416094 -0.44050652 0.55933213 -0.526533 -0.37672004 0.343607 -0.12428685 -0.47106916 0.37700263 -0.4466788 -0.4160454 0.32092044 0.36077604 0.4269166 0.3417622 -0.045929413 -0.34374064 -0.16277285 0.44608662 -0.63698125 0.33983892 -0.43812686 0.24372785 -0.19904807 0.122514665 -0.1730967 0.108504266 -0.60198116 -0.54804236 -0.21091282 -0.5386646 0.14136711 0.61742115 -0.22818103 0.27413806 -0.12810424 -0.6751921 0.12375894 0.015851913 0.16613379 -0.68005943 0.040023156 -0.13960992 -0.32133752 0.6132851 0.2465717 0.40052116 0.24032667 0.35494316 0.4533784 0.027144935 0.2125898 -0.029119154 -0.16701789 -0.56648165 0.29618898 0.46351993 0.44220185 0.095164254 0.07842786 -0.24058126 0.51353306 -0.009789532 -0.43952954 -0.30376688 0.54788077 0.11838153 -0.65879005 0.07033361 0.49531463 0.16787209 0.097508565 0.6285922 0.28547916 0.38647905 -0.53839517 -0.4706219 -0.010669023 0.17403318 -0.56730175 0.619566 0.22810058 0.35381457 0.05797397 0.63821983 -0.14294532 -0.12162434 0.28575826 0.5591938
173 -0.09054962 0.36494923 -0.09366643 0.4007554 0.51466495 0.3548561 -0.109551854 -0.197462 0.3865099 0.4696632 -0.4660134 -0.3165731 0.1431336 0.39938295 0.44788152 -0.09272198 0.15520658 -0.29111618 0.24784148 -0.14782226 0.1724734 -0.16795534 0.13879748 -0.5066546 0.39859614 -0.6398809 0.25831378 -0.003984197 -0.1183514 0.016300766 -0.34149438 0.20093335 0.48553705 0.539153 0.5379634 -0.1489074 0.32621235 0.45422745 -0.5287368 -0.07121011 -0.3796616 0.45372006 -0.5013661 -0.23567066 0.4281561 -0.13272093 -0.39950475 0.36994472 -0.4686312 -0.43604985 0.21006563 0.40564942 0.43816093 0.33498222 -0.008698713 -0.29218552 -0.14308843 0.38454318 -0.53399473 0.27208757 -0.43321803 0.17520845 -0.12410659 0.13956112 -0.16441281 0.072624035 -0.5810656 -0.42513174 -0.20769195 -0.5510162 0.16753703 0.6332388 -0.26646587 0.24925798 -0.026015077 -0.5450233 0.12775998 0.02812949 0.18441005 -0.51921123 0.0019847061 -0.17991948 -0.3473377 0.63897544 0.14629376 0.3891159 0.22158162 0.35127714 0.38650683 0.01015289 0.15304394 -0.05787252 -0.18820006 -0.50749296 0.29458925 0.36512795 0.4257936 0.112685785 0.10826047 -0.21166937 0.552204 0.0011266422 -0.44410044 -0.32587275 0.4604794 0.13150999 -0.53500646 0.039373774 0.47896934 0.12859085 0.10909549 0.5479707 0.26870242 0.38363233 -0.51697654 -0.41162607 -0.02224485 0.11996023 -0.5840495 0.60473204 0.2763834 0.33260643 0.10454062 0.5983654 -0.043102093 -0.11605947 0.25356847 0.47525585
20 0.22159047 -0.111621216 0.071348995 0.54774255 0.2255729 0.38076097 0.12819023 -0.90735114 -0.03273599 0.8852256 -0.64691 0.06863589 -0.6857634 -0.026373092 0.22101231 0.5495169 0.43269047 0.3609418 0.49193722 -0.10097057 0.35690993 -0.21124579 0.3133045 -0.6988717 -0.16452903 0.24097425 0.48705378 0.008035168 -0.6568823 -0.3215693 -0.20355727 0.12753806 1.0163302 0.47255045 0.32342455 -0.1127899 0.20647322 0.98650134 -0.0007283408 -0.655287 0.2901041 0.29808214 -1.0922432 -0.63428783 0.9084001 -1.1857108 -0.60534024 0.56204927 -0.037247293 -0.584932 0.025460755 0.49879906 0.36923376 0.3842671 -0.04439265 -0.3853462 0.26788148 0.6477289 -0.17473662 0.07804198 0.16874695 -0.067206345 -0.3969994 0.24033026 0.15530823 -0.51075923 -0.93897295 -0.28268912 -1.1247675 -0.76985466 -0.47655877 0.54858375 -0.76930034 -0.23744701 0.62776375 -0.90926623 0.48188668 -0.12359589 -0.28512192 0.4306175 0.61086833 -0.44609618 -0.5605723 0.3675915 -0.3280054 -0.33285403 0.42990062 0.107165344 0.6040337 -0.39323843 0.35098857 0.13907957 0.05347206 -0.54181 0.33507687 0.035006 0.59006065 0.76106083 0.8533089 0.21701367 -0.17129777 -0.517758 -0.7488564 0.118694484 0.73775786 0.036804855 -0.6748959 -0.008018534 0.23254925 -0.03432753 -0.37954125 0.37786105 0.29329967 0.576435 -0.6037514 -0.84403557 0.052599233 -0.15262601 -0.9343353 0.06170036 -0.1769997 0.6586947 0.0029922335 0.45334232 0.38000622 0.12887226 0.14262025 0.93935937
86 0.47987255 -0.4587437 -0.43895504 0.5696089 0.9349046 0.23251435 0.111419514 -0.26336733 0.24279946 -0.018433832 0.16242166 0.013938035 0.14226858 -0.4459756 0.16938984 0.43808752 -0.038982 -0.31981945 0.1955167 -0.35362425 0.0067118467 0.23342945 -0.026126612 -1.0548992 0.28316522 -0.1741852 0.04650093 0.5741978 -0.43750128 -0.56042373 0.26450416 0.42375982 0.06761584 0.100907184 0.30271316 0.10539862 -0.26634672 0.2066132 -0.68274254 -0.59452724 -0.6450694 0.615674 -0.6357088 -0.521408 0.5336149 -0.2180171 -0.017454641 0.050188433 -0.19142364 -0.22259027 0.20943347 0.7078927 0.5052082 0.32166207 -0.5614289 -0.63282096 0.034932572 0.4417905 0.10503482 0.22532968 -0.05425045 0.47461912 -0.35044724 0.17036405 0.46066743 -0.2851665 -0.74039656 -0.2317086 -0.43476626 -0.5962626 -0.12847924 0.54582995 -0.20744787 -0.217077 0.051270388 -1.089629 0.4120344 0.74687195 -0.38758105 -0.54398125 -0.005016018 -0.13700978 -0.5293536 0.55314785 0.24076681 0.2624892 0.031193608 -0.14925487 -0.07693737 -0.17372529 0.052457523 -0.21199739 -0.09402947 -0.0799691 0.83666956 0.8253161 0.28522155 0.48235738 -0.20582666 0.24740301 -0.0091318255 -0.32272765 -0.95600563 0.13430913 0.24781905 0.18629766 -0.5232581 -0.004417385 0.7778439 -0.46559528 -0.5438104 0.31712982 0.09573329 0.56320435 -0.42688492 -0.7257959 -0.44651926 -0.23648572 -0.33445933 0.114840195 0.0054429406 0.43026686 0.48438793 0.32106963 0.12425839 -0.37366456 0.34180108 0.3964716
174 -0.124653816 0.16863999 -0.13219891 0.11586091 0.59553397 0.25165895 -0.2284878 -0.19598433 0.05006031 0.34328234 -0.36453775 -0.2903664 0.22752811 0.14142631 0.6185915 -0.14098726 0.020647697 -0.53716755 0.26237223 -0.12753107 0.030794041 -0.20825739 0.17505935 -0.52866185 0.3927603 -0.20697565 0.27726284 0.14215109 -0.36103696 -0.063141264 -0.09217443 0.11785539 0.5335498 0.54595864 0.32382208 0.12919922 -0.108819075 0.6656519 -0.63560325 -0.10042844 -0.28841573 0.29054266 -0.3861847 -0.18725483 0.3377757 -0.36696061 -0.49291047 0.3733219 -0.19064814 -0.25859925 0.44132057 0.33457035 0.28029823 0.18257579 -0.22572535 -0.48687795 -0.12092129 0.22723795 -0.6012813 0.034516804 -0.33512688 0.290707 -0.10652808 -0.093065776 -0.11713286 0.10691762 -0.6244098 -0.3092786 -0.1970768 -0.5554369 0.025456725 0.37538347 -0.21783994 0.14867249 -0.17498092 -0.56784964 0.124608256 -0.01025387 0.41292137 -0.25060952 0.083097495 -0.37876657 -0.3796306 0.4272126 0.15315154 0.4020038 0.15388638 -0.008588995 0.24999309 0.018737186 0.09099713 -0.16891499 -0.21302064 -0.31125122 0.4464414 0.34616086 0.43510854 0.1928554 0.09133108 -0.32298946 0.42455056 0.03530555 -0.43309906 -0.112167895 0.6550815 0.096418485 -0.7145711 0.22275922 0.23541395 -0.043130375 0.15968893 0.53940856 0.21227439 0.12654306 -0.22977708 -0.33850706 0.059026495 -0.007966766 -0.50130105 0.3157593 0.19073224 0.21487288 0.1590769 0.38741395 -0.06168884 -0.18636923 0.2812667 0.39503598
6 0.020236041 0.2665876 -0.20373298 0.4003966 0.4412012 0.25758237 -0.04641131 -0.19004668 0.27467987 0.36386383 -0.37352479 -0.094073944 0.1398091 0.39195678 0.28457102 -0.17027844 0.16918087 -0.21842511 0.28229883 -0.12997007 0.271087 -0.18829802 0.16097063 -0.4547174 0.3221354 -0.47680494 0.124713555 -0.015548959 -0.07190117 -0.010659131 -0.1887509 0.32606497 0.24921866 0.5855306 0.5191619 -0.20529377 0.37786055 0.32041064 -0.6958335 -0.16593441 -0.34408376 0.48619673 -0.5924238 -0.12519586 0.37199095 -0.14295393 -0.28309813 0.21978617 -0.40672207 -0.46404046 0.24299479 0.32471085 0.32498077 0.33191732 -0.1301297 -0.37364176 -0.11297733 0.3910603 -0.4833254 0.243857 -0.3199614 0.055856045 -0.1656537 0.088150956 -0.019232558 0.032427777 -0.48600078 -0.44885147 -0.18637745 -0.58123845 0.11813038 0.4222235 -0.25741038 0.33017647 -0.03795319 -0.6006392 0.014628657 0.20170519 0.03336739 -0.50592375 0.060431138 -0.100376934 -0.37593183 0.51119834 0.21296105 0.11969866 0.17626159 0.32734618 0.29748932 0.09896687 0.23241232 -0.10131069 -0.076665305 -0.51943064 0.3801776 0.32967806 0.30581024 0.056463826 0.033545606 -0.10771207 0.4962914 0.015161935 -0.5571829 -0.13114552 0.31855285 0.15008385 -0.4760168 0.07314218 0.47183484 0.12045478 0.0052727466 0.39279607 0.16320828 0.44435307 -0.6022598 -0.48445728 -0.086829156 0.16051541 -0.576946 0.44995356 0.25171536 0.24504825 0.030549727 0.35232309 -0.008488394 -0.12619257 0.36892918 0.29031593
234 -0.46796402 0.03181621 -0.28996578 0.26294616 0.43578857 0.08483514 0.17159456 -0.073673114 0.44494164 0.8049129 -0.81645477 0.06625072 0.070400394 0.071891345 -0.06277748 0.08329184 0.19391918 0.004081218 0.2679618 -0.16672662 0.20713204 -0.06869786 0.20160848 -0.45369175 0.14675014 -0.61828434 0.25179115 0.27643356 0.1073137 0.0021867338 -0.47151944 -0.026353648 0.1054577 0.037605125 0.49982634 -0.3438766 0.28707457 0.25793177 -0.46562946 -0.20200762 -0.65438443 0.53183156 -0.6192863 -0.39959008 0.3715804 -0.25722188 -0.40926984 0.051116534 -0.36366656 -0.027868798 -0.17084526 0.07947985 0.2685087 0.4197897 0.10727868 0.18813282 -0.1927327 0.044948533 0.033976957 0.13751207 -0.16068353 0.2015284 -0.13706706 0.53678185 0.034066256 0.18625937 -0.16066809 -0.7154985 -0.28379816 -0.45255008 0.45153764 0.42041832 -0.0897911 0.52102333 0.63705254 -0.5437094 0.3562376 0.26060715 -0.27190426 -0.3032943 0.1635865 0.214631 0.06631137 0.37649775 -0.3479892 0.4208776 0.21605617 0.49095264 0.26554152 -0.4011126 0.13707948 0.16114739 -0.23734039 -0.13732116 0.019345947 0.5306009 0.37285176 0.05164959 0.25635386 0.35452202 0.45867625 -0.12947567 -0.056241203 -0.16307017 0.28958607 -0.28701413 -0.5071036 -0.12630568 0.61335474 0.018855188 -0.36914086 0.16425893 0.054768723 0.21842505 -0.80297464 -0.15534198 -0.29769057 -0.2880781 -0.35374743 0.3384551 -0.3685914 0.4236654 0.22916266 0.100908324 0.2120523 -0.17954956 0.077632114 0.14211354
264 -0.119589575 0.25000975 -0.039754268 0.09572951 0.5141604 0.35182524 -0.5804762 -0.168146 0.39246148 0.54425246 -0.604745 -0.26717383 0.27086043 0.74866635 0.63618183 0.23682944 -0.06261288 -0.16160823 0.75636244 0.06914138 0.32947075 -0.38843435 0.1664677 -0.55164635 0.58072233 -0.5062167 0.3463873 -0.5176725 -0.4023132 -0.32359278 -0.45610356 0.5458445 0.1447175 0.14567427 0.23963644 -0.0007096115 0.5788053 0.9533309 -0.90312964 0.09808113 0.012361717 0.29335985 -0.48629496 0.013792325 0.8588342 0.048855193 -0.86448824 0.25709847 -0.10041206 0.27527297 -0.14095286 0.35819995 0.037042774 0.48094794 -0.27240983 -0.10573922 0.34062314 -0.009786805 0.15560333 0.067496814 -0.4823572 -0.07358039 -0.26362544 0.062231213 0.35630867 0.2332453 -0.57335 -0.15308452 -0.04116809 -0.47438556 0.06863108 0.6067497 -0.52251434 0.05941879 0.10955151 -0.54581594 -0.0017140608 0.3387539 0.0009445769 -0.344215 0.15074095 -0.69065756 -0.8353781 0.27662846 0.035450898 0.7338228 0.11469824 0.73343045 0.021527695 0.3202423 -0.29958436 0.013687208 -0.60054296 -0.74200416 0.18081929 0.24865435 0.3477487 0.37145007 0.14945349 -0.14766917 0.71410865 -0.22490644 -0.8085287 0.3856249 0.24129832 0.30553517 0.17237304 -0.33982348 0.060541566 0.62093186 -0.03277746 0.2020091 0.2614333 0.41978976 0.15309371 -0.08497018 0.16977566 0.20673202 0.21294363 0.010771098 0.3659481 0.16521953 0.014154034 0.4569584 -0.0629357 0.030940583 -0.23587804 0.13936281
5 -0.41801625 0.090420604 0.2033025 -0.048065774 0.3889018 0.20182689 -0.2488319 -0.6279482 0.31565005 0.74597585 -0.4305299 -0.29369342 -0.089431144 -0.142728 1.0499512 -0.013308372 0.10666948 -0.90507984 0.30530939 -0.33252588 -0.28793824 -0.4600296 0.5708478 -0.2631611 -0.0028124433 0.073495656 0.7785518 0.5329829 -0.540756 -0.15800534 -0.17019913 -0.21720175 0.7675506 0.18749611 0.40275368 0.22866094 -0.4829563 0.8489536 -0.15736297 -0.5692944 -0.21129815 -0.012811922 -0.02659479 -0.5156095 0.60185957 -0.56119126 -0.82084143 0.7587009 -0.25102773 -0.2779518 0.70453256 -0.049027342 0.6540544 0.2674386 0.49996 -0.31452262 0.18312849 -0.18143186 -0.7014315 -0.054273948 -0.06693683 0.5980688 0.17522715 0.020123964 -0.6226232 0.4239699 -0.8645796 -0.0054732044 -0.39252764 -0.5068062 0.26180726 0.60460424 -0.12296724 0.028759545 -0.247049 -0.48441473 0.45379448 -0.39916074 0.6512079 -0.045567714 0.24857543 -0.68616486 -0.17571333 0.3847123 0.044926062 0.49732125 0.13798597 0.0533846 0.6739841 -0.18134224 0.05091115 0.10764762 -0.2715593 0.0011218148 0.025531732 0.1170949 0.5924229 0.32279104 0.36884648 -0.79486924 0.14844458 0.18838236 0.10968293 -0.4931567 0.9099613 0.18512923 -0.95197076 0.23631549 0.049449354 0.103237815 0.23814389 0.8690863 0.38975036 0.076152824 -0.02220628 -0.39680064 -0.005548963 -0.19911952 -0.49454877 0.32418644 -0.037166614 0.64150584 0.17709619 0.9600273 -0.19989152 0.17377795 -0.104656965 0.6649361
231 0.16771145 0.09977565 -0.37208712 0.31056312 0.7233437 0.39456812 -0.4623142 -0.33253318 0.3014149 0.6293648 -0.48857057 -0.44150028 0.8206213 -0.05591131 0.27834362 -0.327101 0.06371213 -0.0016789662 0.0009982458 0.16485499 0.4624765 0.3053427 -0.27262983 -0.99728495 0.20272525 -0.2950117 0.037171472 -0.14245498 -0.23581347 -0.42756104 0.011161176 0.4612158 0.90288574 0.90437365 0.4145096 -0.6219723 0.21285735 0.8271109 -0.5625066 0.42079648 0.16407908 0.5242717 -0.33870745 -0.31531307 0.33454108 -0.2722306 -0.7568438 0.2312405 0.45696184 -0.06906348 0.35932806 0.4086711 0.34424067 0.57608896 -0.7152373 -0.899471 0.23805349 0.8091935 -0.1845122 0.53617495 -0.21385233 0.08664695 -0.19476454 -0.075163096 0.21761675 0.07510306 -0.6286779 -0.36302054 -0.6352127 -0.46575642 -0.42500046 -0.22573848 -0.63801533 0.39117646 0.18156596 -0.4588186 -0.09356855 0.29359138 0.325824 0.51723474 -0.20790282 -0.14517179 -0.7695875 0.06528086 0.47215298 -0.27400145 -0.48430872 -0.23818071 -0.403069 -0.107642986 0.3655846 0.23710899 -0.2106731 -0.3388232 0.77274764 0.39298418 0.34254122 0.5444494 0.20771301 0.4620615 0.028963594 -0.1465295 -0.72950834 -0.16308306 0.42917076 -0.37350038 -0.21385537 -0.097441345 0.28312528 0.39945653 0.08559643 0.16065012 0.20632884 -0.13046797 -0.15481997 -0.11955099 0.6728761 -0.29904994 -0.5650127 0.10550643 0.019651655 0.4702329 -0.2556083 0.3009549 0.07711478 -0.2877393 0.22773795 -0.19761923
48 -0.55812854 0.84791875 0.06309482 0.5591633 0.6012697 0.4442108 -0.1099539 0.9807391 0.40105006 0.4246446 -0.22576995 -0.19273055 0.2301726 0.8120706 0.29200333 0.31274426 -0.2433006 0.2922174 -0.08069399 -0.79309493 0.15678997 -0.05929337 -0.59466636 -0.81108916 0.37724468 -1.2174524 -0.6598699 0.06142005 -0.027846014 0.17416687 -0.08032369 -0.4694225 0.47511813 0.64955485 0.20851862 -0.019090757 -0.1205851 0.32823035 -0.4033045 -0.360475 -0.34346196 1.1206541 -0.7228486 0.501845 -0.11798256 0.13675082 0.22235407 -0.07763309 -0.36511043 -0.49992663 -0.2734551 0.91228384 -0.0062803407 0.022664357 -0.630777 -0.076530434 -0.38517046 0.6184912 -0.47230822 0.11768429 -0.45052868 0.025119517 0.07040128 -0.26630723 -0.13600734 -0.16367748 -0.2654966 -0.5311474 0.08442906 -0.28740263 -0.28485277 0.56699777 0.035520952 0.6238869 -0.4213192 -0.5681022 -0.30909505 0.38910264 0.42945653 -0.68713135 -0.6473409 0.21000925 0.13522911 1.2271674 0.039947227 0.7650362 0.354791 -0.19461116 0.63762885 0.5465024 0.26704803 0.45732126 0.30919263 -0.80590355 -0.040077616 0.60879314 0.25008422 -0.20502217 0.06985543 -0.04845531 0.6016846 -0.033800323 -0.2246664 0.3062882 0.69071513 0.69775903 -0.3725554 -0.17846662 0.45542344 -0.5516713 0.16099401 0.22447424 0.1918105 0.2870322 -0.3584603 0.046524275 -0.18882537 0.17148432 -0.43268442 0.81298906 0.2605354 -0.25186318 0.046131425 0.09572916 0.67217 -0.53081805 0.6208704 0.65971935
26 -0.0063768867 0.03908229 -0.47003517 0.43855193 0.66562504 0.4533476 0.081804514 -0.25562432 0.2142189 0.9057389 -0.76312935 -0.094900526 0.13667753 0.09237122 0.47099513 0.027591394 0.3477605 -0.21294507 0.37539795 -0.12591058 0.065552555 -0.2009308 0.047472075 -0.61153585 0.14619277 -0.025858585 0.2803776 0.048731286 -0.18441427 -0.11686001 -0.21209252 0.06311964 0.6276591 0.7268736 0.30017486 -0.19329762 0.0011569767 0.7852981 -0.7189366 -0.17794366 -0.06769701 0.37184107 -0.5529597 -0.44071037 0.500283 -0.36007747 -0.600941 0.2964886 0.06709699 -0.4809919 0.24979366 0.52354455 0.4166165 0.39040324 -0.32432207 -0.33723593 -0.023806982 0.51282924 -0.24148117 0.27265805 -0.39809626 -0.0016370284 -0.46496812 0.008227167 0.038638294 -0.24343255 -0.5830395 -0.4262799 -0.32267562 -0.51836693 -0.05450357 0.23269464 -0.44271672 0.06186914 0.40967053 -0.35416466 0.31059125 -0.13616855 -0.18544573 0.044272475 0.17977168 -0.09372921 -0.38503617 0.6081725 0.12427436 0.062941104 0.03561607 0.18542896 0.095804416 -0.3790328 0.3382085 -0.13240121 -0.17703877 -0.535201 0.7037157 0.5270627 0.7023235 0.35805255 0.31348097 0.27275467 0.21011737 -0.19423173 -0.5328816 0.048495866 0.6143445 0.10134881 -0.56018895 0.06131349 0.33046523 -0.1830447 -0.020448154 0.3443653 0.31706426 0.23087527 -0.39363605 -0.57393223 0.106758446 -0.35277042 -0.43544433 0.40048188 0.24058247 0.6616102 0.24583142 0.5789233 0.21473025 -0.14455552 0.3241041 0.4236385
168 0.49521217 -0.23670587 -0.1632859 0.8118619 0.20716058 0.25450826 -0.04934162 -0.025744935 0.69423425 0.38346744 -0.25488353 0.1628227 0.6231072 0.015574032 0.15786499 -0.13015336 0.059372403 0.20321065 0.2011378 -0.27572268 0.89376533 0.16059329 -0.08917108 -1.1932352 -0.06830307 -0.62353617 0.40393943 -0.7436794 -0.10642922 -0.44210628 -0.19749996 1.1225224 -0.17287616 1.0542116 0.9867383 -0.71001947 1.250554 1.2092538 -0.8094069 -0.49838868 0.16606802 1.1174511 -1.1613063 -0.1016208 0.11142647 -0.26859704 0.10443579 -0.028379334 -0.34712586 -0.18346138 0.2473953 0.65248793 0.977517 0.24643601 -0.33605143 -0.5724605 -0.5241993 0.28420836 -0.40759787 -0.0042280774 0.117946215 0.38066489 -0.6357622 0.045816157 0.43531838 -0.6689972 -0.6667326 -0.5098214 0.16854021 -0.7141497 -0.24713309 0.18256815 -0.6631513 1.0154543 0.24963938 -0.7192738 -0.27633804 0.45882803 0.12000323 -0.5171915 -0.08085424 -0.0811763 -1.0007573 -0.2053581 0.22112675 0.02503315 0.19903916 0.2959189 0.036572136 -0.046090372 0.058671385 0.04130897 -0.31257772 -0.10553041 0.29025215 -0.033185422 -0.07841916 -0.0364756 0.9072801 0.45100507 0.10092932 -0.59233916 -0.41462752 -0.27611586 0.44632104 -0.15603013 -0.7516953 -0.2634422 1.0458223 -0.035030935 -0.3912851 0.39250374 0.020287983 0.1401287 -1.2092714 -0.39550453 0.31945822 0.031284478 -0.050164297 0.7025238 -0.5189892 0.32056913 0.6734461 0.22652863 0.4357934 -0.43384504 0.006087761 0.08216934
282 -0.4490534 0.6389558 -0.6543684 -0.05711689 0.66854894 0.20137733 0.25481012 -0.2371843 -0.35807016 0.8997779 -0.9660634 -0.08837885 0.4494201 0.0029358347 0.7871387 -0.052702654 0.4232211 -0.26247346 0.18111037 -0.37319627 0.030856565 0.10371853 -0.659749 -1.0820959 0.15337355 0.09016996 0.21979296 0.13238305 -0.8481026 -0.34913453 -0.50143653 0.14297488 0.8057131 1.078441 0.0996748 -0.31606293 0.61271346 1.1448052 -0.66214114 -0.3739963 0.04826479 0.24785583 -1.143056 0.24286623 0.3968676 -0.52278936 0.1408613 0.6578898 0.43452623 -0.18256341 -0.011376548 0.6871826 0.44309458 0.25787076 -0.53682613 -0.07482597 -0.45403972 0.09775631 -0.60538954 -0.03809997 -0.32421166 0.17025262 -0.22591995 -0.1865602 0.07294492 -0.08649077 0.027166074 -0.7581412 -0.55769604 -0.34927553 -0.36431798 0.59801126 0.20514579 0.27868423 0.6364698 -0.21351123 -0.27341548 0.0112932455 0.40149942 -0.19257006 -0.083405934 -0.46817297 -0.46789503 0.36897022 -0.5795199 0.37973344 -0.15206377 -0.39394394 0.40292594 -0.013831292 0.3144105 -0.04359649 -0.6215192 -0.4570557 0.4916495 0.59776497 1.2466787 0.34562707 0.026501598 0.68657964 0.18307602 -0.037355267 -0.11399869 0.22900045 0.7740296 -0.33055738 -0.7241759 -0.053273164 0.87013745 -0.952388 -0.66168946 0.19202399 -0.15517572 -0.45606822 -0.8546879 -0.39322647 0.3541658 -0.63746595 -0.64363223 -0.038892247 0.13506863 -0.15283543 0.01502053 0.14994219 0.43574712 -0.38982493 0.39667916 0.24327576
85 0.6293886 -0.6762159 -0.5623072 0.7123785 0.96924543 0.12861456 -0.07130862 -0.22512475 0.11573357 0.004069203 -0.026487779 -0.05210406 0.03962314 -0.2324015 0.044310343 0.45173094 -0.069994405 -0.0070028496 0.13980867 -0.2219563 0.35915357 0.28714588 -0.1318551 -1.1993444 0.37861383 -0.24506836 0.20185517 0.39311036 -0.51695526 -0.50425535 0.23709036 0.49543738 0.31619856 0.31470424 0.25469682 -0.09086349 -0.012999786 0.4763167 -0.8427551 -0.5478792 -0.67076916 0.8507221 -0.7807584 -0.6089683 0.44265288 -0.54377925 -0.40388596 -0.08025038 -0.24900508 -0.3415281 0.24148011 0.95430064 0.40861958 0.2725015 -0.8039217 -0.7546092 -0.021321174 0.75496554 0.08851923 0.096400775 -0.2289238 0.40436524 -0.25600624 0.28074956 0.6920145 -0.52748287 -0.8521374 -0.30131716 -0.5070393 -0.6091135 -0.27371752 0.4248164 -0.37034735 -0.10071008 0.3928821 -1.0548167 0.384257 0.7855694 -0.47368035 -0.16549547 0.091272146 -0.18020298 -0.63619095 0.4672341 0.16204414 0.14957222 0.10822277 -0.06579047 -0.36225763 -0.17979072 0.15953664 -0.09412625 0.112614915 0.23108536 0.91571385 0.79139566 0.21509323 0.51746845 -0.034791816 0.40266168 0.053064663 -0.41286126 -1.1423452 0.07910807 0.41279233 0.047969446 -0.4764887 0.0073832404 0.8627774 -0.30058795 -0.5448505 0.2707391 0.18462949 0.36766034 -0.649707 -0.8224157 -0.30702427 -0.14193968 -0.562602 0.08296845 -0.22406703 0.39598736 0.4906625 0.113507405 0.24925813 -0.4481292 0.34862465 0.3383489
266 -0.10196164 0.23854886 -0.04020658 0.08793202 0.48938128 0.34016442 -0.59649134 -0.17276022 0.3823619 0.55063266 -0.62294745 -0.25398955 0.26028037 0.754546 0.6232036 0.22014351 -0.06437066 -0.1335379 0.73542166 0.06623236 0.34950262 -0.37444505 0.16304472 -0.56743664 0.56051725 -0.50726664 0.3448714 -0.50278246 -0.3909868 -0.325528 -0.46981582 0.5452219 0.15686029 0.13572891 0.23908679 -0.010734597 0.5890647 0.92506444 -0.9029587 0.0980261 0.0061852452 0.28226534 -0.49985096 -0.0058635934 0.85188764 0.037798796 -0.8602896 0.2517469 -0.08579924 0.26344022 -0.13237886 0.3548316 0.038015865 0.46827903 -0.2756541 -0.12560572 0.32046035 0.0063303052 0.15070899 0.076427445 -0.46715772 -0.06753304 -0.25929976 0.06955887 0.37005126 0.22560517 -0.5683718 -0.14379875 -0.04646513 -0.47773555 0.05735916 0.59311765 -0.53293526 0.059462927 0.11404483 -0.5835327 -0.005719936 0.3701656 -0.0039570704 -0.34680554 0.16974622 -0.67715555 -0.83380085 0.27209908 0.0075550117 0.70402795 0.10421654 0.75009125 0.02804416 0.31874144 -0.26847324 0.027930023 -0.5874633 -0.73937726 0.18255447 0.24633203 0.35394892 0.37689942 0.17092222 -0.15583651 0.7196087 -0.23317333 -0.80916023 0.3665828 0.24079855 0.31935152 0.15936619 -0.3250016 0.06927565 0.6308401 -0.040681694 0.20851946 0.2623622 0.4307105 0.15460058 -0.079033054 0.17137234 0.20978427 0.21366306 -0.00022134052 0.3551227 0.17228451 -0.0012867529 0.43331262 -0.06247824 0.047591574 -0.2352468 0.12163528
265 -0.13931574 0.24437667 -0.04459424 0.06964973 0.5139729 0.35825652 -0.58104354 -0.19711243 0.39880237 0.560792 -0.62624633 -0.25012293 0.26638898 0.7083357 0.65552884 0.26292253 -0.067715846 -0.15520555 0.76670986 0.04881658 0.33742258 -0.39996758 0.1799736 -0.5822641 0.5444006 -0.48168528 0.3281604 -0.5157118 -0.42166728 -0.34297496 -0.46363136 0.56869566 0.16015704 0.1386709 0.2751367 -0.015201394 0.5875942 0.9976468 -0.9217493 0.066098005 -0.00997956 0.30249977 -0.49648365 -0.002418846 0.9032914 0.010747952 -0.8619199 0.2620084 -0.07211281 0.28932938 -0.13117293 0.3490534 0.044676207 0.5084756 -0.28065175 -0.08475699 0.35093126 -0.024640901 0.15030491 0.06686652 -0.4823647 -0.07523551 -0.27315173 0.05612491 0.3597552 0.22845991 -0.5840761 -0.16732372 -0.03933685 -0.51505893 0.06826743 0.62869966 -0.52491474 0.06664108 0.10734612 -0.5898847 -0.032882456 0.37399343 -0.013284314 -0.33646542 0.15443887 -0.71184963 -0.8655581 0.26673287 0.02333771 0.7282594 0.11262013 0.7523284 0.06079604 0.32987797 -0.2916179 -0.013290616 -0.6027105 -0.74432135 0.17148826 0.25837117 0.3339887 0.36242095 0.1827106 -0.12487226 0.69095474 -0.25552803 -0.8069863 0.41154987 0.24012344 0.31303242 0.15195891 -0.3437321 0.08430952 0.6232404 -0.054108374 0.20452261 0.24317212 0.42374846 0.14411241 -0.089413986 0.19531879 0.16644414 0.20816976 0.019830484 0.34072068 0.18082836 0.04586695 0.46840844 -0.06583532 0.039204028 -0.23720506 0.1488059
119 0.5183875 -0.031080533 0.11086566 0.82388455 0.14890929 -0.120049395 0.26183185 0.18130414 0.67995715 0.76722026 -0.19620861 0.055597726 0.09334894 0.13197413 0.38031518 -0.19046086 0.16777004 0.2972737 0.06398761 -0.09277251 0.97115403 -0.3619745 0.11131477 -0.52694726 -0.5577195 -0.42317313 -0.27413172 -0.1856898 -0.11061088 -0.16586187 0.18875141 0.18283224 0.62185067 1.0511621 0.6856522 -0.8956355 0.5338941 0.10371096 -0.7022052 -0.39668474 -0.043751534 1.317496 -0.50627536 0.07101464 0.24198623 -0.22780284 -0.047635116 -0.021089531 -0.47727504 0.053829186 -0.0044596326 0.049929984 0.47698295 0.4988525 -0.12748246 -0.71098286 0.16910127 0.5735105 -0.31873927 0.17774992 -0.45789185 0.3785254 -0.15680845 -0.015629899 -0.08458825 -0.04476498 -0.17910004 -0.69660646 -0.2396478 -0.11077277 0.4516535 -0.11993954 -0.5345372 0.35713884 -0.17704983 -0.22000043 -0.17265618 0.19312313 -0.33051756 -0.3325852 -0.32116464 0.051530734 -0.7818841 0.29771233 0.5136814 -0.51531523 -0.30618635 -0.3878686 0.5213692 0.09429211 0.38229585 -0.12646541 -0.05004976 -0.29251263 0.33820444 0.21881074 0.623705 0.17003095 0.016862912 0.4026048 0.44195828 -0.12148477 -0.27444905 -0.11201467 -0.3230147 0.089175634 -0.28975233 -0.20973644 0.3044975 0.2617746 0.49378803 0.04769103 0.29337168 0.21885008 -0.8852156 -0.61950886 -0.37275565 -0.39070728 -0.7070984 0.9515656 0.02547264 0.43609533 -0.4864149 0.5628811 -0.05563879 -0.31063882 1.0447501 -0.29592708
288 0.55124146 -0.44305855 -0.28166193 0.8208431 0.8184125 0.39529246 0.17741498 -0.20026466 0.5057129 -0.012677679 0.2736931 -0.063001566 0.3938436 -0.6293964 -0.25237498 0.4296071 0.21424806 -0.5967787 0.20331454 -0.54099244 0.17983736 0.2077431 0.008014881 -0.9507113 0.30839738 -0.59883255 0.38505366 0.7702103 -0.4854956 -0.34356415 0.3112269 0.114401884 0.077949844 -0.038452283 0.27481273 -0.028910931 -0.44203615 0.031904336 -0.4979745 -0.16653273 -0.4945254 0.9574187 -0.8436386 -0.48907253 0.7036042 -0.067604415 0.04941489 0.14910035 0.049425196 0.2707498 0.37850273 0.510451 0.5982585 0.18586431 -0.32047164 -0.7120117 0.12010199 0.5521316 0.08201522 0.51898915 0.12513722 0.53155094 -0.69919723 0.12785415 0.29599532 -0.012776424 -0.613079 -0.25050125 -0.8086886 -0.63075525 -0.12414663 0.4256051 -0.11200065 -0.012287608 -0.18787153 -0.93168586 0.1650346 0.8197581 -0.22357935 -0.6009038 -0.3475757 0.37298763 -0.5940517 0.5220221 0.32425272 0.07476314 0.044038113 -0.38542804 -0.1347526 -0.46730232 -0.2480538 -0.30313128 -0.3295442 -0.3484228 0.6708516 0.9464453 -0.041163076 0.36906117 -0.5048326 0.16571824 -0.027583718 0.030727085 -0.8153391 -0.36269858 -0.032255113 0.010985309 -0.5501907 -0.20241623 0.9993694 -0.6028479 -0.61273175 0.5789426 0.077177815 0.6542329 -0.5536919 -0.78724504 -0.52018017 0.09517101 -0.48485214 0.13090557 -0.08416298 0.2018804 0.3042148 0.28798884 0.13216314 -0.25751224 0.3367978 0.52673435
99 -0.23299646 0.18916783 -0.10870764 -0.09606023 0.5994858 0.17832892 -0.7466403 -0.019438602 0.36861718 0.33977506 -1.010883 -0.14358795 0.09639292 0.6949201 0.47685415 -0.6972256 0.3023078 -0.092985824 0.28340858 0.054264136 0.18896322 0.025458112 -0.24255516 -0.6590066 0.5513069 -0.4241385 0.69140327 -0.12934127 0.15375659 -0.036802318 -0.50853056 0.15003496 0.6577041 0.29299206 -0.0839591 0.037221 0.5289013 0.78897035 -0.45336875 0.42606512 0.07371531 -0.12070134 -0.47252366 -0.3611154 -0.17637523 0.00010650135 -0.8677453 0.30161682 -0.41691476 -0.70365465 0.3615426 0.82673204 0.80744594 -0.117347434 0.057082452 -0.5776545 -0.4803086 0.4217028 -0.7410234 0.055069406 -0.0154512245 0.8064029 0.018904498 0.21266651 -0.7109904 -0.100434504 -0.53992295 -0.08039592 0.39730766 0.065351866 -0.34188345 0.6010654 -0.28848252 0.0955464 0.39573303 -0.031531148 0.57636464 -0.5463407 0.62450796 -0.017712425 0.14844857 -0.32532892 -0.18388596 0.29028448 0.08346464 0.2838192 0.11506554 0.34283885 -0.054301154 0.017676326 0.4299731 0.60605365 -0.5017518 -0.65446675 0.21173015 0.0024050856 0.9045291 -0.09019239 0.44109997 -0.6915107 0.6620572 -0.33733368 -0.19208203 -0.4232043 1.1648872 0.45120603 -0.8121827 0.15836012 -0.022420313 -0.067129366 0.09089588 0.68148035 0.4509876 -0.14848989 0.12566073 0.023311056 0.5661467 -0.3636219 -0.142882 0.1310332 0.37689707 0.390685 -0.032837458 0.63256365 0.5170097 0.4268564 -0.13713732 0.14586791
169 -0.034499332 0.38916168 -0.0685262 0.44147778 0.4959557 0.35021204 -0.10935203 -0.22588393 0.3755212 0.5363022 -0.47926083 -0.2858066 0.23246883 0.49934146 0.44831583 -0.21413775 0.14258225 -0.32960483 0.30195245 -0.20950948 0.2376297 -0.16930489 0.110332064 -0.5034064 0.44808808 -0.65512365 0.27817205 0.03820917 -0.05478351 -0.036486637 -0.3876532 0.227583 0.3820383 0.5818134 0.5288803 -0.14951354 0.3270499 0.42578858 -0.5687404 -0.03381047 -0.39720538 0.4804183 -0.4545335 -0.29679167 0.33483273 -0.07176597 -0.46942043 0.32613358 -0.4770555 -0.52807856 0.22625777 0.39284512 0.46972784 0.35880724 0.017512556 -0.3428565 -0.12952459 0.40897548 -0.5856577 0.40969023 -0.44673017 0.22267485 -0.16897994 0.18800683 -0.17610088 0.14494811 -0.5614114 -0.53103435 -0.17723465 -0.47348458 0.15971313 0.6334565 -0.2903474 0.33701384 -0.024427464 -0.6010318 0.13448405 0.005698491 0.1578112 -0.68507355 -0.039841447 -0.14027487 -0.32055995 0.68823004 0.17281945 0.3485211 0.1963489 0.3694419 0.41051733 0.015888825 0.19135673 0.042251192 -0.16268857 -0.5175638 0.36357924 0.40535057 0.48265558 0.104460314 0.13360564 -0.19435939 0.58597404 0.017034704 -0.45065823 -0.31783122 0.46569803 0.08991767 -0.55701613 -0.067100845 0.36886048 0.1527216 0.19761586 0.49203283 0.3289761 0.43114612 -0.5003073 -0.41975716 -0.037952334 0.1161427 -0.6122267 0.6134822 0.2629091 0.35203052 -0.019968698 0.5588782 -0.13414031 -0.08783633 0.32458094 0.4395423
77 0.06947298 0.47462517 -0.23001997 0.6244115 0.59891427 0.4616222 -0.06431041 0.061582223 0.3088848 0.34478384 -0.33268264 -0.121139705 0.24152483 0.64658594 0.16978833 -0.2235543 0.11067236 -0.14760053 0.30656883 -0.10871476 0.3164281 -0.1173854 -0.11189345 -0.61217034 0.5045685 -0.70255387 -0.15388414 -0.23886304 0.058573574 -0.030840918 -0.34303218 0.46714228 0.29197952 0.7128669 0.5229985 -0.3909758 0.46160492 0.16092348 -0.82110554 -0.06360063 -0.56090367 0.7232134 -0.6326152 0.01790592 0.36560163 0.14973544 -0.07403765 0.111010805 -0.4507184 -0.58781743 0.20616193 0.45672444 0.3772511 0.34789586 -0.36171827 -0.32803872 -0.1518201 0.6526274 -0.33530757 0.55052894 -0.5894937 0.046424955 -0.26705414 0.32054865 0.08930736 0.03796347 -0.32500216 -0.6715097 -0.15364377 -0.615027 0.17822297 0.5080152 -0.2824922 0.32962003 -0.057324618 -0.718836 -0.10427593 0.39315805 -0.05515084 -0.781247 -0.22693917 0.14450027 -0.38606843 0.7123264 0.20619398 0.140211 0.09285258 0.3929474 0.06752299 0.24403799 0.21950433 -0.1443503 -0.06273024 -0.6238451 0.54666543 0.5059516 0.11805784 0.035824444 -0.062153794 0.2361487 0.54765445 -0.09920116 -0.5955522 -0.12156661 0.13158174 0.11670107 -0.23892874 -0.073511116 0.52031803 0.07006186 0.23187566 0.26843607 0.13416608 0.50469464 -0.59769326 -0.37161675 -0.1847519 0.2748071 -0.50701594 0.6986805 0.44476512 0.32617846 0.022829698 0.25678432 0.10371194 -0.196309 0.37407434 0.15668885
181 -0.42580432 0.4491373 -0.9112449 0.29962385 0.29763696 0.194462 -0.4325265 -0.07623565 0.3147063 0.80193144 -0.93010074 -0.24324782 0.67226917 0.16487992 -0.16629705 -0.012034019 0.086131595 0.023136655 -0.53026485 -0.22843246 0.5614967 -0.27537945 -0.17924781 -0.97191024 0.18019973 -0.7924384 0.910757 -0.082766786 -0.111371614 -0.02152555 -0.88169736 -0.17981304 1.2183831 1.0129693 0.15210353 -0.25231144 -0.26945654 0.08810322 -0.6377252 0.6643732 -0.052173488 0.4596503 -0.15005955 -0.446281 0.13691385 -0.1434274 -0.9059544 0.20506233 0.12922312 -0.44290555 -0.06622317 0.15190458 0.3170111 0.24656062 -0.78022 -0.37078485 -0.4265658 0.8085828 -0.8701497 0.1215864 -0.64730924 -0.35717842 -0.23238091 -0.38550627 -0.2873796 -0.058669634 -0.15809602 -0.029965093 0.065128125 -0.24846213 0.23778476 -0.29226217 -0.62153 0.40161473 0.12114028 0.039154775 -0.10442532 -0.19530824 0.5303727 -0.0129596675 0.2317086 -0.07058127 -0.17878835 0.5718308 0.23486593 0.44987658 0.028421665 0.071279965 -0.065680556 -0.80694455 0.5722222 0.108501166 0.49002302 -0.78648865 0.47368455 1.0319469 0.5943715 -0.20710537 0.7182884 -0.015988434 0.0961599 0.024578808 -0.35466838 -0.40729854 0.7664312 -0.5332271 -1.0298834 0.3419491 0.16912317 -0.6444035 -0.0032189207 1.0287055 0.97492754 -0.2366162 -0.6879203 -0.16437675 0.6473836 -0.3598462 -0.44719616 0.53911865 0.23275502 -0.18123724 0.93930024 -0.019549135 -0.06443851 -0.05597177 0.6192563 0.047458682
109 0.2288479 0.084416464 0.120487295 0.6294685 0.14279029 0.31518742 -0.61411136 -0.4026942 0.30360922 0.42349672 -0.59459263 0.013299231 -0.28583512 0.21427089 0.6381767 0.3381327 0.24306291 0.2910431 -0.04172893 -0.8000291 0.21958871 0.14514937 0.082009725 -0.3928926 -0.31448603 0.076841384 -0.054773066 -0.13609323 -0.8811998 -0.5882359 -0.037966236 0.5290334 0.44833365 0.55611646 0.22271752 -0.29790583 0.4504305 0.51086694 -0.10055853 -0.57461715 -0.07373251 0.5040143 -0.5725823 0.4840682 0.9843061 -0.49570653 -0.3534225 0.3322291 -0.4025982 -0.6460263 0.18649693 0.665723 0.6290361 -0.08075723 -0.21412413 0.017446535 -0.1134385 0.6720645 -0.89873785 0.5747193 0.0017538972 0.25167516 0.37936896 -0.7010323 0.008265981 0.033474375 -0.65136707 -0.27866125 -0.50794244 -0.15947305 0.12328445 0.86780554 -0.33637822 -0.14140993 0.6098359 0.14198332 -0.69693494 -0.74664444 -0.45794624 0.023804637 -0.33294925 -0.707365 -0.85820657 0.4944663 -0.032006513 -0.1745762 -0.19373351 -0.36581594 0.7328856 0.3692 0.25968292 -0.53802496 -0.30539548 -0.17871428 0.66840917 0.3412955 0.5585886 0.3098812 0.54446554 -0.46519226 0.72852904 -0.33668777 -0.42842737 0.01950621 0.14218475 0.57415307 -0.19832593 0.14606246 0.66689783 0.062033977 0.5776611 0.15675826 0.043646384 0.5706512 -0.4467875 -0.56032926 0.20444962 -0.28573892 -1.2492821 0.27423325 -0.5103656 -0.089557335 -0.61263245 1.3061736 0.117840774 -0.028169721 0.12245501 0.12088817
175 -0.07314978 0.29824388 -0.10566645 0.3778716 0.44839704 0.31001255 -0.138804 -0.26135176 0.2694447 0.44542688 -0.4044174 -0.24017793 0.2044232 0.3886517 0.3864973 -0.14994451 0.09765445 -0.34421188 0.2088345 -0.16300267 0.18396458 -0.13946575 0.0997785 -0.48548642 0.41898122 -0.5433477 0.29184675 0.04967632 -0.107089594 -0.031795062 -0.32907876 0.1707597 0.39332584 0.535768 0.44850984 -0.113508284 0.25704888 0.42122194 -0.49315897 -0.07731689 -0.32377264 0.42403895 -0.45467773 -0.24633908 0.32569072 -0.15670843 -0.47291616 0.32497442 -0.41161165 -0.4447592 0.2482149 0.35926613 0.41358423 0.3053756 -0.035615377 -0.32974425 -0.121421136 0.41232392 -0.5320359 0.3109088 -0.37402207 0.21145318 -0.084795095 0.15004495 -0.13441856 0.059522066 -0.5462006 -0.46409452 -0.18324734 -0.48997587 0.07751655 0.5422552 -0.273966 0.28525835 -0.037716657 -0.57894963 0.08193147 -0.0074761244 0.20577544 -0.5268102 0.019844018 -0.17259447 -0.29520485 0.5501884 0.1381053 0.28392324 0.16099747 0.29850355 0.3590351 -0.012475662 0.20784949 0.010794351 -0.1592181 -0.4402078 0.32714826 0.31978223 0.39030018 0.13840389 0.18678883 -0.19025752 0.49360034 0.01229156 -0.40951696 -0.29810905 0.50175655 0.093061015 -0.5086024 -0.0022961767 0.33627343 0.09415423 0.14905676 0.4983338 0.29947394 0.35977462 -0.43306762 -0.4080656 0.035567477 0.12894045 -0.5407899 0.5182641 0.21547154 0.29323316 0.05207582 0.49936447 -0.08088916 -0.051086362 0.2322694 0.45549074
30 -0.010363157 0.25458536 -0.04042764 0.2260916 0.6736731 0.5114251 0.025558643 -0.73754036 0.028640924 0.07244255 -0.34766412 -0.4200975 0.24112721 -0.14478306 0.68236274 -0.3979086 0.17290258 -0.934599 0.9344905 -0.048117027 -0.392291 -0.35105678 0.019949203 -0.7220846 -0.2853313 0.82210755 0.3923159 0.22104174 0.026669279 -0.27341896 -0.3751561 0.37009478 0.67851925 0.81147236 0.49575135 0.28638035 -0.30303347 1.2356352 -1.0656184 -0.10612412 0.48419344 0.4345336 -0.6167189 -0.055217266 0.83200324 -0.46891803 -0.42969486 0.77882826 -0.17376864 -0.09919148 1.1979219 0.102702186 1.1035786 0.3584825 0.054115817 -0.7556266 -0.0066448804 -0.3909665 -0.3896534 0.46617395 0.0973024 0.10549882 -0.5456519 -0.23003834 -0.36025596 0.5705898 -0.42096975 -0.16131483 -0.3476818 -0.7300681 -0.023842804 0.37563455 -0.01966412 -0.17727716 -0.9565144 -0.43230468 0.82180464 0.26126167 0.4938453 -0.12001761 0.09419 -0.33850405 -0.7178959 -0.4207725 0.22546022 0.24182515 -0.11984556 -0.09139201 0.81095755 -0.18386392 -0.22341138 -0.5337107 -0.81248444 -0.8542476 0.9996071 0.41499338 0.72937155 0.35649118 -0.32221565 0.42022198 0.42170468 -0.08962338 0.06366874 0.23418358 0.08418141 0.42819512 -0.3587701 -0.029232632 -0.12023441 0.070461795 -0.15709507 0.29105043 0.28657115 0.27991197 0.025222458 -0.768027 0.21854302 -0.55047375 -0.12631196 0.36659846 0.46740457 0.30078205 -0.3258128 1.1420404 -0.53915316 0.08144842 0.64030945 0.3971969
303 0.027508302 0.35403284 -0.2316766 0.3940861 0.47039354 0.2399264 -0.21156226 -0.34600312 0.2272063 0.526667 -0.32379708 -0.23490831 0.2992004 0.1171641 0.58637434 -0.13377851 0.010558323 -0.35845745 0.22784388 -0.22812974 0.31471688 -0.124310024 0.10911533 -0.5097419 0.23688589 -0.4186354 0.3125192 0.0848559 -0.41692543 -0.14206302 -0.0762893 0.28976005 0.4727151 0.7011364 0.5199476 -0.15114458 0.26674148 0.6409358 -0.59441465 -0.23431297 -0.2481209 0.56702757 -0.5810376 -0.30549946 0.4076925 -0.36094728 -0.42693725 0.33093926 -0.26490992 -0.41820785 0.35299355 0.47477153 0.41687113 0.40239897 -0.27287936 -0.5531865 -0.057192404 0.42402035 -0.60305446 0.3355113 -0.36987376 0.13795109 -0.19263835 -0.07622333 0.002961499 0.024265643 -0.6534203 -0.32395688 -0.39431924 -0.6300894 -0.035082318 0.4530193 -0.35970333 0.26300204 -0.19106123 -0.80588627 -0.0033934454 0.103951916 0.27746096 -0.4198783 0.04141931 -0.35701266 -0.6115176 0.60946643 0.206157 0.18423213 0.16619186 0.23091477 0.35951352 0.04485144 0.16278327 -0.10693159 -0.16908222 -0.4688366 0.42737594 0.31756586 0.43039155 0.28727424 0.13437769 -0.0671566 0.3900349 -0.030529454 -0.66508293 -0.29837513 0.5131544 0.13633794 -0.6623675 0.021957533 0.48749194 0.10941828 0.08466235 0.5946008 0.3475396 0.32663172 -0.5406524 -0.5441675 0.1412766 0.14379685 -0.6585169 0.4472353 0.2127988 0.28785998 0.08261573 0.54557204 -0.017437434 -0.11955336 0.38903007 0.5136689
82 -0.10864636 0.12921423 -0.14679684 0.18189776 0.47724324 0.27102304 -0.2020088 -0.27508792 0.28784952 0.470636 -0.3389955 -0.29446858 0.23923446 0.033553284 0.73543936 -0.14625353 0.10737864 -0.46159074 0.16812286 -0.2196764 0.11926111 -0.19031763 0.10172808 -0.5955543 0.11862022 -0.10993316 0.393469 0.15586257 -0.3686383 -0.23627564 -0.092287205 0.08865442 0.6566447 0.5946728 0.4231217 -0.0396719 -0.0054570665 0.7798511 -0.39254284 -0.10474753 -0.054890044 0.20785919 -0.3303513 -0.19529125 0.30263907 -0.29466224 -0.4804844 0.45084193 -0.10106027 -0.29279843 0.39837402 0.38160318 0.4999858 0.22887114 -0.07593994 -0.5156599 -0.054636855 0.27647948 -0.5695541 0.09321648 -0.2547218 0.2521615 -0.23953032 -0.1482114 -0.22760302 0.006250697 -0.6198689 -0.17471069 -0.22923209 -0.33406255 -0.023503954 0.3938486 -0.31720603 0.053983863 -0.15123783 -0.3957737 0.08366524 -0.255417 0.46742097 -0.06669804 0.06860857 -0.40014553 -0.51230884 0.45649937 0.3225681 0.2277041 -0.0022894056 -0.041613676 0.41257858 -0.104482524 0.111940876 -0.036963854 -0.24376525 -0.4132896 0.46296617 0.22170934 0.6826794 0.21704698 0.19768417 -0.22482021 0.31608117 -0.091618866 -0.37424508 -0.20864792 0.67860407 0.09540321 -0.69649756 0.048619002 0.19373786 -0.084118284 0.17026459 0.5683735 0.29929966 0.042549264 -0.20676823 -0.38098833 0.30593035 -0.13927473 -0.41095284 0.44056734 0.22444901 0.40227127 0.10020742 0.6847689 -0.003564499 -0.08161288 0.4073843 0.31061584
227 -0.8817554 0.6696735 -0.11220701 -0.089063965 0.21553324 0.46532544 0.022792356 0.006522191 -0.036016732 0.32519454 -0.7637607 -0.95223457 -0.04076005 1.0385578 0.77855295 0.09735049 -0.1289488 -0.0034503627 -0.22464474 -0.35459405 0.17949623 -0.2396615 -0.15580283 -0.4696965 0.7244391 -0.5282619 0.672714 -0.72048885 -0.050105985 -0.04883323 -0.61794025 -0.14129472 0.61369056 0.46013546 0.24295482 -0.15357812 0.43818024 1.1226032 0.25074005 0.5286969 0.104664445 0.063295625 -0.4833036 0.46940413 0.71602947 -0.1890459 -0.5078384 0.124560505 0.1273851 -0.74120104 -0.19733864 0.4972002 0.32337332 0.34478268 0.23843142 -0.27130318 -0.08429616 0.5607721 -0.4000183 0.46237904 -0.32674068 0.034257244 -0.05942153 0.25914413 -0.052563626 0.047541898 -0.13046838 -0.019382143 -0.294333 -0.16207118 0.05795737 0.9479062 -0.071953185 0.4691637 0.042629045 -0.41495314 -0.40170023 0.27473906 0.6265688 0.75735843 -0.19120668 -0.3334986 -0.45413235 1.2612855 -0.54068834 0.7884575 -0.124977715 -0.30008537 0.50283283 -0.20822687 -0.20607081 0.22359389 -0.02665214 -0.88818914 0.62072223 -0.18967575 0.47884575 0.13288277 0.20374677 -0.5548347 0.3503077 -0.07383142 -0.19645801 0.77714777 0.53057045 0.514229 -0.25242808 -0.024335815 0.10142252 -0.275008 0.33496088 0.5814658 0.20503679 -0.083788365 -0.40745237 -0.23956035 0.14175797 -0.3622438 -0.80861926 0.31290442 0.47596332 0.2300841 -0.040028185 1.1693147 0.25963393 -0.5569266 -0.13851485 0.20111479
216 0.3273512 0.6182418 0.3687634 0.30778855 0.25307184 0.656321 -0.54302996 0.0120533565 0.5112803 0.77474463 -0.2159785 -0.31828067 0.47921818 0.28773555 1.1788049 -0.42486128 -0.29358307 -1.0575365 0.124169864 -0.2022937 0.20164903 -0.4522134 0.39130205 0.13079636 0.24815926 -0.26364154 0.41896713 0.53440744 -0.8149071 -0.16560195 0.54577786 0.30609667 0.5725157 0.6449723 0.6452565 -0.07798864 -0.27113664 0.6891532 -0.029189166 -0.14801328 0.052235756 -0.15749888 -0.02286854 -0.32884353 0.35546646 -0.07769355 -0.3797472 0.9851294 -0.2022515 0.35720664 0.9575675 0.36711136 0.3470001 0.38045505 -0.39239624 -0.40196535 0.5520072 0.29795578 -0.53569597 0.41201463 -0.30527645 0.31183043 -0.46406278 -0.05433706 -0.6637541 0.7595521 -0.20438871 -0.27971622 -0.27690908 0.012588963 0.021530231 0.41054764 -0.6775461 -0.32711136 -0.21686915 0.15411723 0.45557538 -0.6355525 -0.2550365 -0.53225344 -0.4131308 -0.32942632 -0.5986389 0.4886443 0.76665807 -0.38040596 -0.09274344 -0.28704026 0.41740593 0.33228236 -0.4472053 -0.263856 -0.5173236 -0.6195274 0.38654223 0.18850213 1.0302056 0.4719369 -0.15718888 -0.30784467 0.5724162 0.11449627 -0.3465725 -0.20161681 0.2799553 -0.21907467 -0.78586817 -0.03881179 0.012829108 0.23976104 1.1068597 0.24353223 0.71694946 0.12726584 0.27047208 -0.0010972099 0.17579614 0.3547118 -0.1916552 0.548069 0.76933706 0.85765284 -0.72850376 0.87223125 -0.28247797 0.15788889 0.7440954 0.3963263
172 0.1658313 0.28561315 -0.1527387 0.3150959 0.48148504 0.26733115 -0.106355645 -0.23570123 0.22142176 0.58116764 -0.38456726 -0.19647193 0.12803067 0.17533046 0.45294797 -0.11030874 0.24114464 -0.30898318 0.22519308 -0.07523391 0.19876125 -0.023117017 0.07637859 -0.45837528 0.27547765 -0.17635004 0.27872875 -0.055402245 -0.34843907 -0.14618652 -0.06696719 0.15214695 0.54844314 0.81658655 0.35115075 -0.22204135 0.15060167 0.6135617 -0.574343 -0.21007149 0.020115187 0.5245404 -0.5884197 -0.14737548 0.3205873 -0.37687963 -0.41593456 0.3563708 -0.09928815 -0.38478985 0.28641608 0.43789056 0.4944055 0.28024775 -0.27048105 -0.5646095 -0.03847775 0.57080376 -0.3341362 0.21118946 -0.4200646 0.24123268 -0.30118543 0.028785717 -0.06653762 -0.05545152 -0.51698536 -0.24578926 -0.4314709 -0.4842394 -0.06348452 0.3166103 -0.29453045 0.109449245 -0.049813297 -0.47830686 0.090885505 -0.110166304 0.2294098 -0.20243329 0.024088373 -0.20250079 -0.47717944 0.45838135 0.2206136 0.049619883 0.088945955 0.07366605 0.24554533 -0.029818036 0.118197836 -0.08279444 -0.16882204 -0.42604828 0.5409668 0.14129888 0.51270914 0.3289519 0.09263445 0.15582685 0.38665065 -0.008440309 -0.52257556 -0.2845324 0.545834 -0.008732722 -0.51531494 0.12404757 0.37327975 0.021507695 0.1786777 0.41919568 0.13067129 0.14690559 -0.31970975 -0.53216696 0.13059582 0.09585881 -0.57853013 0.42102903 0.2956877 0.46587476 -0.041249078 0.56144917 0.24364361 -0.099044986 0.27660927 0.29398924
190 0.060384292 0.88950026 0.026507314 -0.5336341 0.116694376 0.3453767 -0.45612618 -0.41141793 -0.1836066 0.24009833 -0.46385142 -0.03604457 -0.3114685 -0.0496904 0.7722931 -0.750978 0.31672975 -0.22440726 0.75628513 -0.6199264 0.18884867 -0.0824994 0.19423978 -0.40064135 0.09994117 0.4252203 0.19170436 0.06812903 -1.0147096 -0.12590656 0.1212751 0.47249877 0.060050566 0.43689668 -0.1713029 -0.30432954 0.3083142 0.55336696 -0.76720876 -0.5730784 -0.734085 -0.61372375 -0.05814406 -0.3181184 0.53371364 -0.1712289 -0.07420937 0.09771206 -0.014916569 -1.1025641 0.4114454 0.052334648 0.5917247 -0.13275695 0.07220073 -0.94606495 0.5415435 0.86541873 -0.66961676 0.62715596 -0.623327 0.2943125 -0.22022067 0.26266462 0.15960735 0.18578531 -0.46460158 0.4121659 -0.06803089 -0.07123077 0.040504605 0.36973 0.11781314 -0.1984822 -0.14160314 -1.0021791 -0.14607824 -0.28340128 -0.007115064 -0.8119626 0.09009236 -0.8475134 -0.5378278 0.9782839 -0.055206332 -0.21105337 -0.40037742 -0.023737317 -0.053808697 0.50432587 0.6518375 0.16407973 0.37173247 -0.6150341 0.54655373 0.18648134 0.38093638 0.42075115 -0.17510737 -0.82799697 0.22206438 -0.08039375 -1.0307971 -0.41349334 0.7347347 0.481967 -0.12338718 0.512345 0.11913139 -0.6268135 0.3015607 0.84368485 0.43464008 0.087062106 -0.08965663 -0.31175292 0.0400235 0.60486126 -0.5084841 0.07266883 0.43363804 0.5335961 -0.1788288 0.65212035 -0.46996576 0.2732547 0.26580432 0.32909533
297 0.08376943 -0.3118146 -0.738877 0.42814413 0.772877 0.29031566 0.049275428 -0.2341887 0.091913074 -0.08866511 0.07116728 0.13302438 -0.094702415 -0.587906 0.37862855 0.53318727 -0.07412268 -0.6131629 0.22399454 -0.46343338 -0.39586997 0.2509147 0.22559768 -1.156095 0.34336317 -0.11105328 -0.11932215 0.4715914 -0.5533768 -0.63765156 -0.007451048 0.4550502 0.109921835 0.14546444 0.28287157 0.18003929 -0.4488292 0.40768477 -0.4405849 -0.5551661 -0.8240082 0.29517218 -0.46889868 -0.49425173 0.6277458 -0.04857677 0.19832356 0.25521407 0.006409582 -0.617165 0.2322563 0.5705375 0.33111617 0.3689446 -0.45407364 -0.47481385 0.13093193 0.3967539 -0.29212865 0.32690722 -0.078075655 0.3569808 -0.18150534 0.08608019 0.17041285 -0.33110273 -0.77850485 -0.23420306 -0.2426636 -0.746004 -0.0649692 0.7542887 -0.23364438 -0.37549004 -0.17706001 -1.0709331 0.14048377 0.6484329 -0.06631788 -0.429509 0.0817809 -0.22771823 -0.2946054 0.7116702 0.2916626 0.42499974 0.16066638 -0.06457042 0.12507479 -0.044271894 0.42475963 -0.46930507 -0.0094670495 -0.30990165 0.80841947 0.9737653 0.097779684 0.34436917 -0.19752562 0.044062827 -0.24396099 -0.33611363 -0.9655064 0.37798217 0.32318655 0.40792766 -0.81096166 0.4196425 0.7957854 -0.7984211 -0.66375643 0.5313617 0.17236616 0.8103068 -0.4591551 -0.5660129 -0.10322254 -0.21048723 -0.35815066 0.09324401 -0.12568398 0.38628235 0.7297305 0.31608307 0.009114308 -0.27139696 0.33426037 0.54875696
98 -0.2145057 0.20505926 -0.111909024 -0.075736046 0.60893154 0.18409196 -0.7413214 -0.025998233 0.37371972 0.35791132 -0.9927586 -0.13970636 0.10791277 0.703314 0.49803874 -0.69243354 0.29663813 -0.10562024 0.2803368 0.057002127 0.19004785 0.029759714 -0.24733175 -0.663911 0.5481994 -0.41233125 0.6767824 -0.13757788 0.1451548 -0.04725251 -0.48445132 0.15258597 0.65988463 0.3006317 -0.07995096 0.028323358 0.5224628 0.784646 -0.45470837 0.4176329 0.06270316 -0.11557064 -0.46876472 -0.3403645 -0.1643578 0.014375125 -0.85950404 0.29130208 -0.40714404 -0.7086175 0.37624913 0.82876587 0.809002 -0.10948271 0.059804607 -0.5749614 -0.4877979 0.4232183 -0.75866044 0.067640804 -0.031522892 0.77967143 -0.0049351123 0.2080006 -0.70679677 -0.100755036 -0.5444082 -0.090611294 0.39506513 0.06818898 -0.35173234 0.58763397 -0.2848657 0.092928685 0.36008507 -0.042669903 0.57318604 -0.5382521 0.6203833 -0.033743102 0.13054453 -0.30949417 -0.18385527 0.31389222 0.096383974 0.27922294 0.10928354 0.3498456 -0.04874937 0.029059004 0.4065288 0.60318106 -0.49612883 -0.6597491 0.20757025 -0.005559869 0.88834137 -0.09361188 0.4267442 -0.704574 0.65088105 -0.35017696 -0.18079212 -0.40823296 1.1661444 0.47103304 -0.8044707 0.16544595 -0.01782422 -0.06256919 0.1261867 0.68631285 0.4479935 -0.15920964 0.1200547 0.023460135 0.54321736 -0.34993002 -0.1360647 0.14550011 0.39449883 0.4134203 -0.029306756 0.64459044 0.5141597 0.43519226 -0.13512483 0.16333278
76 0.41166118 0.31155568 -0.08742178 0.38237947 0.5770583 0.7315249 -0.5894297 -0.4784132 0.681816 0.09091872 -0.10704804 -0.30133557 0.96023893 0.012085243 0.056275334 -0.7614073 0.24018094 -0.9156287 0.55313736 -0.48239386 -0.026646739 0.07078591 -0.026091075 -0.39853308 0.43749163 -0.465013 0.81453377 0.66655636 0.112868495 -0.056684062 -0.38114437 0.44335985 -0.20522289 0.2663299 0.13188946 0.30203786 -0.24823765 0.16921778 -0.8322617 0.4530921 0.17487447 0.34982625 -0.6722828 -0.6336176 0.64968276 0.27044567 -0.454435 0.657425 -0.24156521 -0.095265314 0.83984023 -0.0024037894 0.84471714 0.15862352 -0.08451314 -0.5892198 -0.14451656 -0.19466414 -0.3104578 0.38449666 -0.13492885 0.26175767 -0.61093557 0.050504413 -0.28371614 0.62209964 -0.23349096 -0.25089204 -0.08983037 -0.50931424 -0.14209558 0.17534465 -0.060848553 0.15903713 -0.43272796 -0.49332878 0.43929678 0.1421723 0.4822882 -0.8718148 -0.28311136 0.20424186 -0.57276565 0.14300136 0.35078806 -0.16466975 0.23219493 0.6099968 -0.2408865 0.03637084 0.04964265 -0.028503321 -0.74978805 -0.83350515 0.3151998 0.74038106 0.32685778 -0.27965966 -0.05527708 -0.12997459 0.5990113 0.3096747 -0.22673771 -0.92325485 0.18503927 -0.2698801 -0.7229334 0.22350599 0.30780447 0.19183208 0.008691679 0.7603011 0.44672588 0.513657 -0.25335473 -0.23510645 -0.016119247 0.41038495 0.07031356 0.24221101 0.35142422 -0.016637212 -0.37347493 0.29063192 -0.36512858 0.39492714 0.0066913804 0.49129015
35 -0.5251153 0.89250976 0.4001716 0.4652785 -0.11089494 0.1471201 -0.38841397 -0.4748392 0.020133546 0.2942894 -0.52527434 -0.9891788 0.24464156 1.0616087 -0.081456274 -0.06023017 0.07919936 -0.40648198 0.36136085 -0.15776904 0.3071901 0.31208324 -0.06416988 -0.15883134 1.2132603 -1.2114978 0.38788605 -0.23797752 0.036890544 -0.24998267 -0.22458325 -0.36056986 0.25125292 0.6298535 0.9708665 0.360448 0.28561687 0.7629848 -0.27560464 -0.42194164 -0.49533594 0.6658698 -0.34971428 -0.06543977 0.30040526 0.15134533 -0.40409255 0.004515737 -1.2543422 -1.0765034 0.14920387 0.12186926 0.42993045 0.02496135 0.42536494 -0.2384662 -0.047457457 0.3702826 -0.43594924 0.6463503 -0.28880098 0.61105573 -0.054757223 0.47135535 -0.15707706 0.42793533 -0.10920778 -0.026774682 -0.3585249 -0.53611815 0.06568099 1.2529203 -0.015710486 0.62363505 0.36060172 -0.31226045 0.61295503 -0.4213449 1.0530276 -0.9569069 0.1189766 -0.67906404 0.01638887 0.5260676 -0.59314847 0.76856387 -0.025191113 0.079206385 0.6036095 -0.12639406 -0.1816215 0.28086352 -0.16756351 -0.073894575 0.09608889 -0.17018314 0.5315075 0.27145025 -0.24860692 0.10015483 0.8867886 0.3823192 -0.14212352 -0.5421072 0.38457447 -0.08039831 -0.60160345 -0.51938885 0.33824 0.49460322 0.041905884 0.06825072 0.5881033 0.5300083 -0.49409857 0.15843983 -0.119699806 -0.09842072 -0.90923184 0.27229708 -0.059118517 0.36228475 0.061632182 0.3790601 -0.0904437 -0.23124336 -0.52916574 0.6044801
310 -0.28796193 0.6255623 0.29527548 -0.14838101 0.12868369 0.3176698 -0.12871979 -0.37654093 0.046368185 0.39410856 -0.24367537 -0.22214381 0.17032479 0.56381387 0.703326 -0.69234324 0.25817102 -0.32285637 0.57504344 -0.12961462 -0.21623273 -0.2319407 0.373511 0.20237254 0.5946116 -0.21197201 -0.097389475 0.12597044 0.3411972 0.15594336 -0.37556168 -0.070834115 0.14944796 0.3666933 0.17061245 0.1718617 -0.0002484687 0.024669172 -0.25451478 -0.20516649 -0.10967875 0.19277635 -0.21800771 0.12456935 0.1528312 0.35941666 -0.30071107 0.16888078 -0.529802 -0.3624807 0.23212905 0.060483173 0.2377332 0.022039505 0.28529242 -0.23244607 -0.2817371 0.03098912 -0.73699105 0.0602959 -0.17105156 0.019991823 0.2331089 0.173845 -0.35145164 0.43441862 -0.48806795 -0.2843584 0.05280853 -0.48918274 0.4707139 0.39138135 0.11973595 0.23856384 -0.62102944 -0.25256363 -0.0477235 -0.24298212 0.30807847 -0.90608597 -0.24636175 -0.06705556 -0.029102255 0.7647181 0.123335116 0.32454914 -0.032985445 0.28481236 0.45683005 0.7380014 -0.053459205 0.055038545 -0.20400451 -0.7031827 0.11183118 -0.078606784 0.14289427 -0.1675026 -0.3317741 -0.5860668 0.69869405 0.16401047 -0.21073125 -0.5498582 0.508596 0.30857033 -0.09099 0.07244095 -0.090931274 0.46937028 0.5112478 0.5105482 -0.034080226 0.42017287 -0.22228363 -0.33205906 -0.17008416 0.58160996 -0.20492907 0.41267622 0.6162219 -0.19663844 -0.35440546 0.6591533 -0.1170453 -0.008664357 0.10430057 0.6304881
100 -0.05223824 0.28625518 -0.049774405 0.32008833 0.45721182 0.038363036 -0.56622815 -0.610495 -0.024415815 0.13209614 -0.09876191 -0.045350756 0.0054549496 0.20301937 -0.06750233 -0.057996187 0.040462628 -0.06436042 -0.20341696 -0.2497488 0.34758964 0.05760977 -0.09179982 -0.2332032 0.7026693 -0.39386678 0.524429 0.34120932 -0.71867234 -0.10108684 -0.31418726 -0.20131601 0.44555095 -0.09994736 0.1555589 0.1069898 0.21416898 0.3346984 -0.4515377 -0.11516146 -0.4977436 0.4385154 -0.6559821 -0.24443193 0.27181533 -0.5566305 -0.48090124 0.04282228 -0.43574628 -0.033280276 0.2522941 0.45341387 -0.02773045 0.09772954 -0.22632799 -0.38305965 -0.22942038 0.44819784 -0.21361212 0.37651607 -0.067014076 0.27382138 0.20670997 0.05844373 0.4141221 0.34368256 -0.32779983 -0.13061634 -0.7614504 -0.4861117 -0.44758093 0.53262657 -0.14804025 0.15561986 -0.045492634 -1.0142022 -0.17686465 0.1763001 0.3360331 -0.48281893 0.09909682 -0.33566242 -0.15342602 0.46803457 -0.11221305 0.055737186 0.47128066 0.3650767 -0.018415151 0.15811057 -0.17896058 0.3509371 0.028950043 -0.043760695 -0.051744074 0.121763885 0.095683746 0.15893002 -0.1715174 -0.21860357 0.46392876 0.01866593 -0.4956776 -0.79060644 0.77159417 0.20093392 -0.25645584 0.1420272 0.6152366 0.3098004 0.0025524725 0.4851477 0.2527353 0.26675865 -0.12241752 -0.35487413 0.102303326 0.9573135 -0.6451961 -0.0726925 0.24207109 0.19507468 -0.16507177 0.124328725 0.26489305 0.07672277 -0.22899134 0.7154803
101 -0.0857442 0.29472077 -0.058238193 0.3148386 0.45250952 0.06343486 -0.5538984 -0.6168651 -0.028394094 0.13399313 -0.08693703 -0.05925994 0.03362215 0.19042215 -0.06446024 -0.048738 0.03960543 -0.07101518 -0.20365594 -0.26174852 0.32758197 0.07299458 -0.10394508 -0.2527103 0.7079998 -0.4158352 0.52257526 0.3225519 -0.71933395 -0.119197145 -0.34382758 -0.18886773 0.42540205 -0.12731841 0.15404023 0.118980944 0.22084059 0.3413431 -0.40634638 -0.10853989 -0.4881564 0.41793677 -0.64933825 -0.24810824 0.27001008 -0.55449694 -0.46877497 0.037326775 -0.43886566 -0.053663798 0.25354588 0.45875874 -0.015421825 0.08898283 -0.20372057 -0.38162884 -0.23146611 0.43837753 -0.22511363 0.3965522 -0.03204378 0.26066235 0.20326327 0.08433744 0.41363046 0.34349725 -0.32973185 -0.12755409 -0.7581294 -0.5014942 -0.47020748 0.56016797 -0.14733611 0.15755185 -0.050459154 -1.0245544 -0.17824717 0.18092576 0.3581509 -0.47749892 0.10081037 -0.34824917 -0.1360056 0.46642005 -0.13965607 0.06772581 0.48319742 0.37395862 -0.017528301 0.157806 -0.18318833 0.3451795 0.015091573 -0.0194505 -0.07211085 0.12766668 0.067381375 0.14667237 -0.15512453 -0.21355566 0.44928712 -0.008689582 -0.4746068 -0.81915855 0.7715635 0.20744799 -0.26241934 0.12730649 0.62732285 0.3031899 -0.0109484345 0.48463598 0.28041238 0.27426282 -0.109452814 -0.33818752 0.103391774 0.9563235 -0.6378014 -0.06962591 0.21112537 0.19757009 -0.14225408 0.11571013 0.2889914 0.10048032 -0.27225065 0.7310108
244 -0.5932763 0.051097006 -0.19275686 0.22122519 0.29201195 0.1536375 0.15168658 0.002855727 0.44826832 0.7304508 -0.9261905 0.07818922 -0.1305601 0.36747605 0.0636729 0.15784074 0.15204893 -0.087853156 0.5433533 -0.25142628 -0.0027803539 -0.12823808 0.4233944 -0.3091402 0.10117958 -0.7438775 0.16731115 -0.021617804 0.38750985 0.108154066 -0.52212316 0.12850349 -0.16792992 0.15454632 0.48252964 -0.36249328 0.36371785 0.115322895 -0.60000354 -0.26598293 -0.71821874 0.56427205 -0.5499857 -0.18260539 0.3819241 0.08816977 -0.36253214 -0.018595578 -0.53340226 -0.1818635 -0.13585928 0.023239542 0.24523285 0.41602477 0.12706448 0.42641908 -0.01516597 0.025232283 0.03326924 0.13488509 -0.22815548 0.2191005 -0.17486931 0.6317397 -0.034935296 0.27872163 -0.22643794 -0.833769 -0.048629645 -0.46591577 0.8650392 0.513812 0.029163405 0.44339448 0.52768683 -0.34620133 0.3838654 0.3255315 -0.2781068 -0.5966906 0.10142867 0.17782256 0.025287349 0.52984595 -0.29591572 0.5371115 0.11586646 0.6237881 0.31228283 -0.11349931 0.25531644 0.0832158 -0.24996144 -0.270151 0.08898367 0.54545844 0.27437225 0.044055484 0.31920573 0.05355361 0.6008835 -0.078588605 -0.14364374 0.13722226 0.14139733 -0.17544702 -0.3336174 -0.17866622 0.5613191 0.23510696 -0.25646994 0.14319703 -0.14537537 0.42553297 -0.77445155 -0.03502356 -0.3451751 -0.26394027 -0.36304137 0.4830077 -0.19900969 0.32332057 0.10687428 0.23854633 0.107990496 -0.28612003 0.028472314 0.06729437
94 -0.05964103 0.30244935 -0.047324594 0.38804105 0.48583356 0.3371476 -0.1439485 -0.23838983 0.3515695 0.42745084 -0.44740438 -0.3511988 0.18392625 0.4506416 0.41134614 -0.22926593 0.14329445 -0.30629015 0.33586094 -0.23669775 0.19676203 -0.19135807 0.18825959 -0.55090207 0.5127256 -0.599235 0.3035985 0.025437629 -0.11804973 0.032544695 -0.42703193 0.21402176 0.43725726 0.5672818 0.5183484 -0.08008334 0.26197296 0.46230224 -0.5491493 -0.06500434 -0.40620452 0.4740295 -0.49963444 -0.31003648 0.3654203 -0.17359573 -0.45135307 0.424117 -0.50370955 -0.42875734 0.21244664 0.3653971 0.48803318 0.32188913 0.00069858285 -0.38152802 -0.054988004 0.3991109 -0.5645657 0.33810028 -0.41862866 0.23390314 -0.08626641 0.1288782 -0.17092447 0.11336052 -0.59999627 -0.55588484 -0.22471091 -0.50746316 0.1537974 0.5916624 -0.31195456 0.30866408 -0.005738444 -0.59124553 0.030355066 -0.02084516 0.1928359 -0.59903336 0.006283772 -0.20108399 -0.36370546 0.5940291 0.19792856 0.39186388 0.2294254 0.36880323 0.39527312 0.010514558 0.23269692 -0.04756233 -0.14761183 -0.44499463 0.3589319 0.37817347 0.44867927 0.16276377 0.17877774 -0.15839957 0.5857525 0.020195417 -0.5015211 -0.35855895 0.48957896 0.01301638 -0.6095015 0.036151506 0.40573803 0.15370715 0.11271435 0.53224814 0.32762322 0.47299957 -0.45757857 -0.4766732 0.0284375 0.1747094 -0.6156706 0.5771396 0.18637502 0.27194098 0.01191018 0.54128665 -0.15122846 -0.13053767 0.2793855 0.484715
148 -0.09675711 0.45434248 -0.14933749 0.58359575 0.7134443 0.44548574 -0.14303502 -0.34890136 0.47867647 0.6735087 -0.6596846 -0.36576748 0.25383988 0.57705885 0.5951999 -0.21299383 0.2041288 -0.4537909 0.38492513 -0.29309148 0.28457955 -0.2199122 0.19301133 -0.7335468 0.61545664 -0.8268862 0.42817557 0.04275911 -0.1419537 -0.025836457 -0.56019264 0.2896395 0.6113103 0.8112815 0.67092276 -0.14147212 0.41327205 0.6610253 -0.7811498 -0.10331033 -0.51208603 0.68985987 -0.69210356 -0.4114518 0.5075518 -0.23841313 -0.6578595 0.5129641 -0.60664976 -0.63253534 0.34635743 0.5318774 0.6637769 0.45871684 -0.038796924 -0.4728658 -0.19227311 0.56949085 -0.80318236 0.45556015 -0.54657775 0.32124534 -0.16314656 0.19044107 -0.20003463 0.13838162 -0.8141129 -0.6857935 -0.27273685 -0.7088169 0.14427261 0.82227635 -0.4214381 0.38150766 -0.04075372 -0.8067926 0.12809002 -0.008989116 0.28570703 -0.8046279 0.005811139 -0.22842382 -0.43799788 0.83403933 0.22751537 0.47377568 0.2799605 0.47315553 0.5130174 -0.0074034985 0.29870608 -0.011351085 -0.2772972 -0.69149965 0.4873997 0.5491221 0.59837574 0.18110907 0.23546395 -0.28356758 0.7529326 -0.021886291 -0.6423315 -0.43114862 0.7361635 0.1188332 -0.78812206 0.007909821 0.57612395 0.16488546 0.14570768 0.76292616 0.4010985 0.566638 -0.6759575 -0.5997654 0.036394645 0.17647338 -0.8215319 0.76638585 0.31435764 0.4204554 0.0768487 0.766957 -0.081297114 -0.108620845 0.35328022 0.658574
150 -0.12115306 0.406509 -0.08709592 0.46804592 0.54437935 0.39287826 -0.09510415 -0.32435074 0.42720604 0.57918143 -0.56083834 -0.33590513 0.23740822 0.4910988 0.5538592 -0.21306404 0.17965198 -0.43126845 0.3692913 -0.25851226 0.20096116 -0.21850169 0.21233773 -0.572148 0.5152274 -0.6756678 0.34977773 0.030785538 -0.08014532 -0.002519032 -0.49070114 0.23950626 0.47358963 0.6766046 0.5821704 -0.10551174 0.35122156 0.5453863 -0.6242519 -0.07332045 -0.42208275 0.5260167 -0.5467193 -0.34881938 0.43073562 -0.15678044 -0.5655998 0.47064385 -0.5313367 -0.5315758 0.28413707 0.37870786 0.57036364 0.39482233 0.039815154 -0.34791332 -0.15639047 0.42507 -0.7205873 0.40264398 -0.47610077 0.27752924 -0.1319039 0.160576 -0.22517723 0.1421717 -0.68898493 -0.59518445 -0.17074192 -0.5811515 0.17834146 0.7297973 -0.32750547 0.31326452 -0.07344895 -0.64364827 0.101901844 -0.047896486 0.24830523 -0.71815634 -0.008421912 -0.20423302 -0.34562382 0.7206114 0.22082004 0.4294013 0.23813951 0.4069585 0.49846298 0.008911763 0.2846341 -0.031156464 -0.25266212 -0.6170769 0.38215733 0.44338012 0.52786285 0.13736369 0.18404353 -0.3004991 0.6524504 0.006188657 -0.5107518 -0.3232252 0.57333213 0.114124395 -0.68346107 0.024492847 0.42601225 0.1509621 0.14590119 0.6630289 0.3233836 0.5098339 -0.5428838 -0.48714757 0.028176414 0.11252571 -0.69573087 0.6390121 0.26424864 0.33965203 0.03762941 0.682633 -0.1408897 -0.09567578 0.3069354 0.5682184
210 -0.09104522 0.40274704 -0.12527947 0.48477674 0.6063486 0.38495 -0.12880076 -0.3122222 0.4239422 0.5997826 -0.5591539 -0.31994733 0.23476891 0.49343777 0.52239037 -0.20405103 0.16913 -0.3964158 0.32249808 -0.24395344 0.23429307 -0.20130043 0.14936163 -0.6489845 0.53747547 -0.6683466 0.32394 0.060391326 -0.14081559 -0.020860013 -0.46927088 0.24653919 0.5230436 0.70166165 0.60917526 -0.13472998 0.33445647 0.5761834 -0.65661126 -0.095392615 -0.42192215 0.5911756 -0.613303 -0.34864315 0.45795214 -0.19121407 -0.5489845 0.44408575 -0.5216091 -0.54581934 0.30777046 0.44336596 0.5635125 0.38210383 -0.047768086 -0.43552127 -0.15820183 0.5041039 -0.7004146 0.41658384 -0.4673107 0.26491693 -0.16778389 0.15365651 -0.16535631 0.122333854 -0.6789334 -0.59820575 -0.22146691 -0.6209508 0.10405499 0.7142609 -0.3697694 0.32274008 -0.075341076 -0.72152144 0.09708382 0.009483883 0.2253039 -0.7012695 -0.003638337 -0.21068253 -0.39663333 0.74035704 0.1975305 0.37947613 0.22689174 0.40961212 0.43248802 -0.03115266 0.24449183 -0.019134838 -0.22007976 -0.6092142 0.43141216 0.43750703 0.50964344 0.16017172 0.17824368 -0.21697433 0.6515885 -0.01480488 -0.52836555 -0.36593503 0.62755835 0.11044984 -0.69674295 0.00697688 0.47688547 0.10540348 0.14876984 0.661822 0.3286863 0.49111196 -0.5641221 -0.52316284 0.03937689 0.16020682 -0.6992785 0.63574463 0.27323884 0.3837495 0.05163048 0.65642196 -0.0490912 -0.07455354 0.32483438 0.55753887
110 -0.07775511 0.36392355 -0.120400354 0.41238305 0.51817423 0.3347983 -0.13478549 -0.2502181 0.32480642 0.47123796 -0.44119427 -0.27761438 0.22159034 0.380386 0.44980404 -0.1846548 0.14225042 -0.35749602 0.2806601 -0.2150556 0.2180472 -0.15664369 0.12994117 -0.5172054 0.4682356 -0.57615066 0.2854815 0.036918767 -0.120936275 -0.041558076 -0.35370508 0.19348459 0.429272 0.57145196 0.4922668 -0.118155666 0.26569876 0.502864 -0.575543 -0.0877207 -0.3893084 0.47414073 -0.5047666 -0.2883423 0.34777135 -0.15852064 -0.4434298 0.3579558 -0.45109838 -0.44823188 0.23614761 0.38024592 0.47169363 0.32981622 -0.06565812 -0.36951163 -0.12678461 0.41519463 -0.5574919 0.3445744 -0.42055055 0.23708344 -0.1378466 0.12811217 -0.15397103 0.10594636 -0.5994081 -0.49442452 -0.20069738 -0.5040541 0.08835443 0.5749397 -0.30647603 0.29769313 -0.045674115 -0.5989675 0.074189685 0.0067340382 0.2228105 -0.5668322 -0.024534771 -0.17195217 -0.33730358 0.63270825 0.16518033 0.3335376 0.17326836 0.32246572 0.3561152 0.023230977 0.16977316 -0.00022890013 -0.16439916 -0.4988044 0.3489357 0.36487162 0.41138175 0.13601337 0.14333856 -0.18387327 0.51105356 -0.00017186013 -0.44073159 -0.32609951 0.5365793 0.091322 -0.5462085 -0.006166551 0.41150868 0.118068546 0.13982369 0.56089133 0.30352414 0.36498594 -0.46316043 -0.44668788 0.030394942 0.14189142 -0.6008628 0.54541874 0.2523228 0.34534776 0.070026726 0.53745383 -0.07255063 -0.08182475 0.26876575 0.45385584
78 -0.17065671 0.45498395 0.10444937 0.4200788 0.47775277 0.21532606 -0.07796696 -0.020768939 0.5238085 0.3746755 -0.3735869 -0.31693903 0.28302923 0.48780364 0.36662582 -0.24976583 0.040200733 -0.30050305 0.118975334 -0.3143748 0.36083958 -0.33899456 0.106694944 -0.37306714 0.31808758 -0.8248294 0.22126795 -0.14512876 0.028288888 0.08888694 -0.48917273 0.2663052 0.31240898 0.6094157 0.5508833 -0.23985088 0.5394983 0.35907918 -0.5681493 -0.18292877 -0.36739424 0.6686697 -0.53029895 -0.09614041 0.4061925 0.013482257 -0.23322198 0.2740708 -0.52425075 -0.27667406 0.14367291 0.3394305 0.47721675 0.26965052 0.006360809 -0.33911854 -0.22863254 0.2772443 -0.54610264 0.391229 -0.3682561 0.19270134 -0.051652618 0.14679763 -0.21423452 0.12895955 -0.41259632 -0.40363124 -0.08195007 -0.60919243 0.28574672 0.44451535 -0.3561374 0.54981196 -0.055119183 -0.7028802 -0.09098347 0.17026953 0.29441726 -0.76165664 -0.038640264 -0.15427712 -0.31808895 0.54377365 0.28084943 0.38089395 0.22549723 0.49192196 0.50492865 0.18682924 0.056633078 -0.015054108 -0.24168533 -0.5251254 0.17006391 0.377707 0.39869455 0.011755942 0.018507069 -0.11528813 0.61838925 0.07495173 -0.41183352 -0.48495108 0.40365988 0.12702566 -0.46445125 -0.10727693 0.62221795 0.15630673 0.12770683 0.54581636 0.34088412 0.30143163 -0.554429 -0.33526754 0.027478442 0.31039238 -0.46685973 0.6918214 0.22075935 0.22154802 0.16326661 0.46912977 -0.08176639 -0.06303561 0.32786795 0.25554007
87 0.21551546 0.30903673 -0.123767756 0.32948813 0.47085404 0.25028178 -0.19549248 -0.12896143 0.28001732 0.4026457 -0.108741365 -0.24903998 0.32279614 0.23648115 0.33826214 -0.2874684 0.099122435 -0.17873849 0.11926741 -0.1103454 0.32547414 -0.016709667 -0.11416067 -0.3157514 0.37475747 -0.44669196 0.14660786 -0.04413899 -0.35795724 -0.18162155 -0.02699683 0.22952709 0.43634176 0.74579006 0.39442664 -0.14290623 0.19562736 0.5013753 -0.5729641 -0.032699443 -0.018782761 0.52691317 -0.5093639 -0.0868721 0.0960622 -0.26824605 -0.326054 0.2353636 -0.21168777 -0.2985259 0.2765977 0.5737557 0.38100877 0.15844841 -0.31699923 -0.65956235 -0.1268909 0.6515777 -0.47731966 0.33081913 -0.52067804 0.1691556 -0.2651766 -0.077298604 -0.06399107 -0.08466585 -0.5460929 -0.32844147 -0.36682466 -0.3505606 -0.19523579 0.24333331 -0.40516704 0.14190619 -0.24709824 -0.53150594 -0.09317988 -0.016968878 0.20292728 -0.40612507 -0.28615448 -0.22073896 -0.45188043 0.62050104 0.40976477 0.053089596 0.053898327 0.017565005 0.15802304 0.21943258 0.0954028 -0.020931028 -0.088873364 -0.4877283 0.42408165 0.08572705 0.33429936 0.150808 -0.059718244 -0.019645497 0.31830615 -0.037592318 -0.5146824 -0.42967793 0.37662262 0.009388932 -0.462812 0.0025575303 0.29720592 0.06602186 0.2731075 0.3559636 0.27485102 0.06550734 -0.30250737 -0.53904134 0.17503713 0.24175397 -0.593717 0.47570488 0.34353542 0.27439928 -0.042170838 0.3952689 0.18904197 -0.105752476 0.47445965 0.34287712
339 0.30818334 0.69055516 0.035196275 0.4204378 -0.08885846 0.57508093 -0.40504944 -0.26796198 0.014655096 0.11124151 -0.0019771263 -0.15827137 0.017737854 0.31576374 0.52345103 -0.093350224 -0.43296444 -0.34101072 0.39886042 -0.9860174 -0.016116627 -0.37353006 0.09278741 -0.4667098 0.062480766 -0.6165439 -0.07641953 0.40063843 -0.2585357 -0.03488773 0.24276233 0.77770615 -0.49055526 0.020523692 0.17194681 -0.181878 0.28843647 0.06659142 -0.49458754 -0.391643 -0.6828245 0.5370349 -0.99867076 0.11920764 0.52108574 0.42417186 0.041361533 -0.2747214 -0.85013133 -0.6037533 0.6628978 0.2314383 0.18567795 0.21969366 -0.22760507 -0.4712835 0.29643738 0.030768553 -0.33024353 0.87201697 0.027907314 0.07538697 -0.55371207 0.32943928 0.23295945 0.68917036 -0.18228196 -0.60182196 -0.43627048 -0.2316221 0.02543412 1.3113046 -0.20987536 -0.2413119 0.025625907 -0.9174851 -0.004092287 0.6101574 0.08001072 -1.2841083 -0.26425326 0.026452655 -0.87102723 1.0656563 -0.35316336 -0.38151443 0.60451275 0.35663706 0.2672878 0.7725675 0.09096994 0.041573595 -0.10065852 -0.49238893 0.08816943 0.5110157 0.5043636 -0.034995068 -0.46953452 -0.112101644 0.72224486 -0.054295253 -0.7587167 0.2903296 -0.20091784 0.6988006 -0.5958278 -0.30971447 0.73200184 -0.2576165 -0.06504268 0.303555 0.21947592 0.840264 -0.7810115 -0.24025775 -0.5623428 0.38333464 -1.0168544 0.30745575 0.1178466 0.17918865 -1.0332323 0.027336208 0.105794296 -0.26892304 0.7165702 0.12549357
32 0.2515662 -0.041026775 -0.24224554 0.36751857 0.5884225 0.085168324 -0.8708723 -0.0931519 -0.05436406 0.089314684 -0.39148623 -0.3156285 -0.2992094 0.65756494 0.2028117 0.013252176 0.14066689 -0.060367815 -0.12704735 -0.1753747 0.4877854 0.25498402 -0.33884776 -1.0518202 0.6674126 -0.688243 -0.12989402 -0.2058409 -0.16808641 -0.06759298 -0.33591312 0.09426901 0.4766366 0.9145484 0.032720767 0.17127931 0.18209018 0.08975627 -1.089167 0.43923438 -0.6002801 0.457993 -0.7843442 0.24416785 -0.0072676814 0.08678996 -0.14991276 0.5945975 -0.7416468 -0.380572 -0.12434106 0.5572006 -0.14140847 -0.37285653 -0.48632956 -0.2879397 0.4945528 0.63573545 -0.4863938 -0.057886243 -0.45850822 0.6104362 -0.051390525 -0.11940057 0.20616245 -0.22645307 -0.5658266 -0.14611027 0.032111898 -0.279537 0.2315943 -0.16482885 -0.5111366 -0.38888976 0.12038018 -0.23778623 -0.45297113 0.17814265 0.10869823 -0.48997703 -0.06916798 -0.58537674 -0.28662482 0.51124203 0.59229153 0.03609958 -0.5430262 -0.082907476 0.06654008 1.0410671 0.26267216 -0.26848033 0.14296392 -0.35635462 1.145959 1.1513765 0.2570793 0.24713035 -0.30071852 -0.5974614 0.6770479 -0.060517803 -0.81369483 0.122308776 0.7183469 0.14430216 0.033338968 0.28272906 0.8478642 -0.10658532 0.22485924 0.9695864 0.08653405 0.4303379 0.51387024 0.23474756 0.87581724 -0.27813098 -0.9945559 0.22017305 0.5364595 -0.09582904 0.14246228 0.7164429 0.05421126 0.11296839 -0.002925401 -0.053099655
228 -0.07245442 0.91717994 -0.4054004 0.37256035 1.0209364 0.483949 -0.038056623 0.3291402 0.06388135 0.9301111 -0.27946833 0.16332242 0.15553512 -0.062524624 0.4806943 -0.19182357 0.2594136 -0.42798135 0.21659778 -0.37935615 0.50478154 -0.46719334 -0.56536275 -0.46734303 0.15867232 -0.17023143 0.41594687 -0.28430197 0.47719267 0.24882056 -1.1480095 -0.27615935 1.1786188 0.6999243 -0.46417087 -0.060109444 0.14346702 0.99946785 -1.1162366 0.07540751 0.07135282 0.8834946 -1.0618036 -0.44356993 0.22180182 -0.54943293 -0.5875803 -0.35455033 -0.17578948 -0.6282259 0.46507975 0.71885175 0.9904633 -0.15096699 -0.25989774 -0.6846107 -0.75295246 0.49870512 -0.062393926 0.22778171 -0.16016878 -0.2146543 0.016793232 0.30535975 0.28166983 -0.33558124 -0.0041827234 -0.12833138 -0.22296074 -0.42004618 -0.29186827 -0.15463966 -0.21896453 0.23262572 0.33401477 -0.799986 0.35271966 -0.35572135 0.46163502 -0.05830322 -0.1593465 -0.04229676 0.06995987 0.3040531 -0.16321345 -0.27911776 0.5782242 0.33290702 -0.1996424 0.11885769 0.7671568 0.48459443 -0.4953385 -0.9663342 -0.1602955 0.12722991 0.49276915 -0.14631243 0.116281666 0.41846853 0.37491608 -0.26940656 -0.31303975 -0.64151317 0.6248823 0.7137568 0.12339249 0.32623088 0.35675526 -0.6424927 -0.081974454 0.34929007 0.56043077 -0.40495142 -0.68054384 -0.55617785 0.14869517 0.45474356 -0.04051102 0.26668546 -0.024343072 0.1868674 0.43036026 0.30190486 0.58348906 0.02449641 0.07525088 0.532094
304 -0.08950105 0.32028222 -0.117966756 0.3812924 0.5562428 0.35024557 -0.16829199 -0.25363356 0.25987253 0.47463483 -0.4318046 -0.15961453 0.13813181 0.27966282 0.45086053 -0.14425631 0.19231044 -0.31714574 0.24331883 -0.25506893 0.19823761 -0.19376703 0.10453376 -0.5429771 0.3816339 -0.3756937 0.27039912 0.026172075 -0.25962806 -0.1203795 -0.32645798 0.15317631 0.51354426 0.587052 0.4391598 -0.11340652 0.278144 0.59591967 -0.6119436 -0.17145285 -0.33304605 0.46203643 -0.5767627 -0.14237122 0.48245057 -0.28096366 -0.4232743 0.4078182 -0.3768127 -0.36770195 0.35573986 0.3225348 0.4562852 0.293075 -0.117382005 -0.3516423 -0.07239313 0.4188725 -0.5272849 0.27366558 -0.33793688 0.23891458 -0.11447007 0.015688935 -0.09228152 0.123687014 -0.5241509 -0.42726898 -0.32596228 -0.5452963 0.039195858 0.54603267 -0.21639478 0.18836434 -0.13624544 -0.6006467 -0.018554298 -0.0006835078 0.26819348 -0.46693403 -0.042728808 -0.26868978 -0.44356242 0.52259535 0.121749274 0.21559444 0.22593954 0.2005804 0.33950913 0.06932228 0.19904606 -0.046028476 -0.18075854 -0.5140806 0.36207265 0.28983146 0.34952706 0.19675058 0.13177256 -0.12625623 0.5184959 -0.004805662 -0.5021292 -0.29445714 0.5622183 0.1201528 -0.54459 0.067914516 0.45690304 0.13410571 0.12523627 0.4755127 0.17523637 0.28974846 -0.4099639 -0.47639865 0.05147923 0.21522292 -0.61695784 0.43521237 0.3320109 0.28923586 0.017088516 0.50527304 -0.032791037 -0.106326036 0.28334022 0.47231022
4 -0.25888354 0.32621804 -0.22655874 0.17434783 0.56632864 0.22383982 -0.014791521 -0.15517764 0.06526805 0.55357116 -0.4559653 -0.08004239 -0.018767525 0.23646365 0.81362075 -0.11741291 0.18167944 -0.29752523 0.2344015 -0.20861575 0.12150431 -0.24118902 0.13545604 -0.465555 0.2650494 -0.22805867 -0.07289302 -0.09826309 -0.31057617 -0.07145629 -0.1665826 0.015231004 0.72895795 0.685083 0.39923146 -0.12472276 0.16800462 0.7266855 -0.5491575 -0.4175259 -0.26594242 0.23924245 -0.43189356 0.08831661 0.28179336 -0.36158258 -0.23579329 0.38722894 -0.2669494 -0.2324587 0.20936273 0.28628564 0.27254045 0.121257834 -0.10905515 -0.23047109 -0.1779432 0.43492088 -0.6876827 0.16662401 -0.4749456 0.20578144 -0.07995923 -0.09551009 -0.095412254 0.048145413 -0.54266804 -0.28084898 -0.2724666 -0.46950418 0.096951135 0.55389726 -0.21502523 0.06320179 -0.017089866 -0.4099892 -0.31176916 -0.35498992 0.12354848 -0.3049629 0.17168877 -0.4696397 -0.37312636 0.46432328 0.22840911 0.32032433 0.14070809 0.105725735 0.5592263 0.08599294 0.22984941 -0.25288358 -0.17654946 -0.6212694 0.39325997 0.15713425 0.5553581 0.24895512 -0.022916941 -0.16058265 0.48277533 0.02201857 -0.35606757 -0.070420645 0.62035 0.31129566 -0.49096566 0.0380219 0.32470793 -0.031892464 0.2481821 0.43067858 0.01324028 0.03680768 -0.2682312 -0.45833734 0.09792393 0.10326034 -0.5084186 0.3543289 0.5237534 0.3501074 0.21953192 0.6665745 0.15994631 -0.065808415 0.42025495 0.4201978
215 -0.14957644 0.00047539454 -0.96459067 -0.390244 0.6361339 0.30371225 -0.45616594 -0.9208222 -0.28510854 0.2974433 -1.035246 -0.20246503 -0.017942168 -0.33353558 0.38588133 -0.12103433 0.2627297 -0.43834424 0.64559007 0.03579701 0.2167625 0.0020241155 -0.012620136 -0.6276012 0.29695612 0.5979173 0.018406026 0.032357026 -0.5721803 -0.38559598 -0.6355276 -0.21421531 0.7091666 0.4238628 0.64966834 0.25106388 0.22182961 0.8537091 -1.2329469 -0.11058067 -0.54196227 -0.31697696 -0.45037162 -0.7775916 0.89515007 -0.8213389 -0.6195369 0.17573935 0.22053866 -0.884515 0.36774352 0.2869653 0.49513537 0.57367486 -0.016300099 0.020111486 -0.3060424 0.382361 -0.4942074 0.36038327 -0.41507417 0.37757722 0.19349447 -0.3126721 0.3259821 0.1410262 -0.2531039 -0.12627125 -0.19607626 -0.828121 -0.1017623 0.21404254 -0.119145066 -0.07017672 0.29787552 -1.0222744 0.040006764 -0.05937509 0.3418934 0.034161244 0.8014722 -1.0069827 -0.4155058 0.60145634 -0.49824435 -0.02431121 0.110766605 0.7066957 0.44502008 -0.070668876 0.039096523 -0.44323793 -0.21371159 -0.61052686 0.5275747 0.24381907 0.37022683 -0.00043809146 -0.012671065 0.52131015 0.6523902 -0.44812918 -0.575797 -0.14558472 0.80772245 -0.05726666 -0.33326912 0.28976312 0.43778178 -0.14280932 -0.2552296 0.56423044 0.43414596 -0.19265273 0.19452126 -0.47567788 0.43483642 -0.43709174 -0.27046886 -0.15063842 0.20965019 0.61777806 1.035756 0.45831552 -0.2656213 0.54870427 -0.33167064 0.5569333
31 0.0020611857 0.54833794 -0.13877192 0.23875688 0.462077 0.3037997 -0.121867195 -0.15313183 0.15075898 0.48046747 -0.35957006 0.0032863184 0.13197728 0.29307505 0.6796394 -0.19389877 0.092312746 -0.2555069 0.22150773 -0.12907061 0.09739696 -0.18994385 -0.01308234 -0.5825782 0.2608743 -0.25391313 -0.16342768 -0.091186695 -0.08408754 -0.044006098 -0.0716267 0.26183927 0.6347502 0.81764233 0.3645152 -0.36675403 0.2611559 0.5517709 -0.6174235 -0.44532764 -0.21876419 0.47957093 -0.4811669 -0.08256855 0.39407885 -0.18591158 -0.109933816 0.2096804 -0.164633 -0.54347414 0.18120201 0.26173156 0.38218242 0.21709342 -0.14614923 -0.3440052 -0.11431945 0.50980794 -0.556802 0.2884581 -0.4515229 0.07130937 -0.27347213 0.0043506175 -0.12554519 0.11925601 -0.31224778 -0.27007994 -0.18353899 -0.4990085 -0.01949722 0.42060608 -0.31623587 0.20059957 -0.049254883 -0.5285547 -0.03620059 -0.055683877 0.13745447 -0.35696274 0.05410314 -0.18412241 -0.46935377 0.38174292 0.11705551 -0.00088085025 0.040347684 0.32870325 0.3178915 0.18954028 0.2675183 -0.13221602 -0.09332081 -0.7147947 0.3505918 0.124073654 0.42701134 0.14830826 0.037195113 0.0452354 0.43632483 0.009119116 -0.3586667 -0.027694931 0.38377598 0.28881538 -0.39485794 0.14905594 0.33448827 0.052231986 0.16127914 0.2897463 0.15713955 0.12526318 -0.4094349 -0.41704333 0.11435618 0.27454296 -0.4410129 0.37650657 0.3742028 0.48158857 0.032584257 0.4625617 0.11247046 -0.095807806 0.40140313 0.25340715
291 0.08934546 0.6482176 0.043718845 0.05876595 0.11380638 0.55930275 -0.011513823 -0.4283716 -0.030444492 0.5759136 -0.20149371 -0.19903672 0.40458575 0.36953142 0.8548061 -0.6121377 -0.0034378448 -0.3290757 0.09690502 0.21716833 0.17002276 -0.21316494 -0.2160713 -0.49758697 -0.24573337 0.46041447 0.34141427 -0.3336053 0.02394646 -0.1971574 -0.40678063 0.5059837 0.33851135 1.0618548 0.93679786 -0.4664668 0.6904127 0.66040343 -0.3083104 -0.498602 0.0778718 -0.12182929 0.119434245 0.36675566 0.5174287 0.14683042 -0.1549545 0.48741496 0.11376542 -1.511015 0.371413 0.100660056 0.8620865 0.6563714 0.15860794 -0.46377826 -0.13727745 -0.093133174 -1.0007749 0.25510418 -0.6330229 -0.2879773 -0.7108648 0.06784466 -0.22179726 -0.39803445 -0.43776563 -0.057630286 -0.011421827 -0.32491645 0.034494117 0.36207953 -0.3930245 0.4773206 -0.70277095 -0.7290527 0.12355457 0.07313883 1.0946625 -0.34474915 -0.23078303 -0.007042654 -0.12037816 0.77014816 0.07714203 0.18063869 0.5171561 0.32181495 0.4146252 0.26898065 0.057626616 0.18391871 0.23933548 -0.17027134 0.24692784 -0.5819175 0.22527455 -0.1985181 0.7118145 0.22819912 -0.3490421 0.21577631 0.4108399 -0.6992934 0.9306642 0.13501842 -0.5010203 -0.049038317 -0.29587355 0.30264387 0.5664975 0.23952228 0.23710062 -0.61746836 -0.7378837 -0.54946893 0.29015142 0.43143988 -0.18521288 1.3562403 0.48396522 0.91468877 0.5400862 0.6547568 0.393188 0.058434743 0.5759262 0.4017805
